{"d_model": 128, "d_dict": 512, "encoder_weight": [[0.003620619885623455, -0.01741321198642254, 0.15973234176635742, -0.03692834451794624, 0.191043421626091, 0.04623786360025406, 0.08476413041353226, -0.04128629341721535, 0.22698025405406952, 0.09336157888174057, 0.015094684436917305, -0.04550725594162941, 0.02879590541124344, -0.08901407569646835, -0.01065155304968357, 0.0965675637125969, -0.08672387152910233, -0.05866788327693939, 0.004642271902412176, -0.19240237772464752, 0.034791648387908936, 0.010014080442488194, -0.16095128655433655, 0.14055337011814117, 0.031640391796827316, 0.1441628336906433, 0.20944060385227203, -0.12890809774398804, 0.17658260464668274, 0.058100625872612, 0.04628714174032211, 0.07744032144546509, 0.02136341668665409, -0.01942497119307518, -0.13483573496341705, 0.023979557678103447, -0.015046792104840279, 0.016981003805994987, -0.0042546032927930355, -0.16708029806613922, 0.05964835733175278, 0.034776486456394196, -0.03672032430768013, 0.07854175567626953, 0.022428566589951515, -0.2446814328432083, 0.05689053237438202, 0.013396632857620716, -0.1515229046344757, -0.06247434765100479, -0.11758371442556381, 0.03581424430012703, 0.17992019653320312, -0.05464998632669449, -0.22710156440734863, 0.16535699367523193, 0.10063465684652328, 0.09401436150074005, 0.33959025144577026, -0.08482460677623749, -0.18790927529335022, 0.00854539591819048, -0.003031967906281352, 0.10702868551015854, 0.05704045295715332, -0.05626116320490837, 0.03838653117418289, 0.028917107731103897, -0.006845216732472181, -0.20004171133041382, 0.12302263081073761, 0.19551610946655273, 0.0017013178439810872, 0.11581799387931824, 0.15398526191711426, 0.15183179080486298, 0.07361923903226852, -0.057071126997470856, 0.015496916137635708, -0.06421492993831635, -0.12158118933439255, 0.014434774406254292, 0.057285577058792114, -0.04278460517525673, 0.1005677729845047, 0.018260972574353218, 0.10377902537584305, 0.141944020986557, 0.13345256447792053, 0.06783340871334076, -0.07705051451921463, 0.03962524235248566, -0.010210385546088219, 0.16185784339904785, -0.08545830845832825, 0.010024306364357471, 0.14542736113071442, 0.06743378192186356, 0.08120730519294739, 0.050151798874139786, 0.028044195845723152, -0.10029908269643784, -0.03027743101119995, 0.00024501606822013855, 0.03658268228173256, -0.10232264548540115, 0.011640874668955803, -0.03508361428976059, 0.02778168022632599, -0.005766364745795727, -0.08048064261674881, 0.025695789605379105, 0.07648888230323792, -0.17634889483451843, 0.015566207468509674, 0.009487899020314217, -0.058574579656124115, -0.05692359060049057, 0.06745553761720657, -0.08071862906217575, -0.08983275294303894, 0.10427847504615784, 0.08865468949079514, -0.05738121643662453, -0.014082871377468109, 0.02731928601861, -0.07099051028490067, -0.09325854480266571], [0.07604175806045532, 0.11968635022640228, 0.007514582946896553, -0.10938601195812225, -0.09779351204633713, 0.20630817115306854, -0.04212642088532448, -0.0810394212603569, -0.08731266111135483, -0.040903057903051376, -0.1626693159341812, 0.04233808442950249, 0.03516083583235741, -0.23840829730033875, -0.04590793699026108, 0.006468946114182472, -0.06623157113790512, 0.0512860044836998, 0.037289585918188095, 0.07016021758317947, -0.033281199634075165, -0.05741577968001366, -0.05820849537849426, -0.026005752384662628, 0.07507691532373428, -0.0011418309295549989, -0.08758994191884995, -0.016840990632772446, -0.1560622751712799, -0.07017319649457932, -0.1036783829331398, 0.03600398451089859, 0.10612630099058151, 0.10291898250579834, 0.08470974117517471, -0.02257605269551277, -0.002204340882599354, -0.07833392918109894, -0.010823238641023636, 0.07337560504674911, 0.02319076843559742, -0.006806596182286739, -0.14955216646194458, 0.030371803790330887, 0.0545906201004982, 0.05239766463637352, -0.04966016486287117, -0.2090005874633789, 0.2306203842163086, -0.008857864886522293, 0.11610115319490433, 0.07573700696229935, 0.04829761013388634, -0.03507760539650917, 0.13563796877861023, 0.21545927226543427, -0.18309840559959412, -0.1656452715396881, -0.08432681113481522, 0.14481951296329498, 0.03467262163758278, -0.006477281451225281, 0.05611460283398628, 0.1401645839214325, -0.22428660094738007, -0.07884959876537323, 0.07021835446357727, 0.08215659111738205, -0.0013028968824073672, 0.17510470747947693, 0.1153964102268219, 0.16718114912509918, -0.12453188747167587, 0.3721226751804352, -0.011626864783465862, -0.011732379905879498, -0.12664245069026947, 0.006357880309224129, -0.04468713328242302, -0.1774974763393402, 0.014378937892615795, 0.13808509707450867, 0.07090432196855545, 0.11386469006538391, -0.08920294046401978, -0.048848770558834076, 0.06523040682077408, -0.18411260843276978, -0.2502560317516327, -0.21538595855236053, -0.018299410119652748, -0.49349454045295715, 0.04864317551255226, -0.0312082190066576, -0.0011605569161474705, -0.03976965323090553, -0.1999627947807312, 0.036513861268758774, 0.06676388531923294, -0.029396813362836838, -0.03922146558761597, 0.08454973995685577, -0.18336628377437592, -0.0001390894321957603, -0.10226993262767792, 0.033671487122774124, -0.08680678904056549, -0.09241053462028503, -0.03985106945037842, -0.06658961623907089, 0.14388507604599, -0.1354326605796814, 0.025413937866687775, 0.08704816550016403, -0.07606978714466095, 0.18144817650318146, -0.058453287929296494, 0.24636533856391907, -0.2555570900440216, -0.11533604562282562, 0.07925669848918915, -0.02958112768828869, -0.061951108276844025, 0.06180134788155556, 0.03934452310204506, -0.02891828492283821, -0.09736831486225128, -0.04236305505037308], [-0.008111781440675259, 0.008252734318375587, 0.01646648533642292, 0.030469663441181183, 0.07026014477014542, 0.048658337444067, 0.14055444300174713, 0.04138866066932678, 0.17791999876499176, 0.08692406862974167, -0.04510476812720299, 0.08484558761119843, 0.11138197034597397, -0.045316990464925766, 0.10679503530263901, -0.008797827176749706, -0.11278112232685089, -0.05497904121875763, 0.053000155836343765, -0.14372825622558594, 0.03755177929997444, 0.11661858856678009, 0.04028914496302605, 0.1778678596019745, 0.03518436476588249, 0.1091061532497406, 0.05287054181098938, -0.1712408810853958, 0.01831100694835186, 0.058577582240104675, -0.04364992678165436, 0.05160556361079216, 0.03284872695803642, -0.008094052784144878, -0.040766362100839615, -0.04818582534790039, -0.11497575044631958, -0.180723175406456, 0.03892739489674568, -0.09473282098770142, 0.021238908171653748, -0.05460818484425545, 0.028992382809519768, 0.05558275058865547, -0.0013377980794757605, -0.1780160665512085, 0.010778281837701797, 0.13792790472507477, 0.0051902588456869125, -0.11318137496709824, 0.027026547119021416, -0.0025982558727264404, 0.08268915116786957, 0.024595679715275764, -0.09996706247329712, 0.1659870147705078, 0.22760507464408875, 0.06479234248399734, 0.24201539158821106, -0.031923338770866394, -0.0906316414475441, 0.033268511295318604, 0.010397232137620449, 0.09753184020519257, -0.013268591836094856, 0.0036029054317623377, 0.06036671996116638, 0.10395423322916031, 0.034407179802656174, -0.13849377632141113, 0.22214677929878235, 0.08857564628124237, 0.021684037521481514, 0.11444394290447235, 0.00032208493212237954, 0.10511288046836853, 0.04892796650528908, 0.007071841508150101, 0.10721419006586075, -0.05755189061164856, -0.04159941524267197, 0.053189996629953384, 0.04562249407172203, -0.0596577525138855, 0.04161347448825836, -0.025293132290244102, 0.08245436102151871, 0.08577916026115417, 0.04420037567615509, 0.024051327258348465, -0.10694631934165955, 0.04293707758188248, 0.0017161811701953411, 0.049365341663360596, -0.11656158417463303, 0.039527155458927155, 0.035593949258327484, 0.14420242607593536, 0.050522077828645706, -0.04952279478311539, 0.02421683631837368, -0.07333172857761383, 0.00033734363387338817, -0.020028550177812576, 0.041034799069166183, -0.01137414202094078, -0.059739645570516586, -0.1253734976053238, 0.0048355949111282825, 0.018039025366306305, 0.09701146930456161, 0.10725580900907516, -0.00022211259056348354, -0.08843027800321579, -0.045966580510139465, -0.03574232757091522, -0.15823987126350403, -0.15093879401683807, 0.04736116901040077, 0.06483301520347595, -0.0892731100320816, 0.08403092622756958, 0.05960958078503609, -0.12750671803951263, 0.009851130656898022, 0.03298811987042427, -0.04670261964201927, -0.02070596255362034], [0.06783758848905563, -0.09975326806306839, -0.04097064211964607, -0.08292058855295181, 0.13380557298660278, -0.04506886377930641, 0.1340387761592865, -0.09557665139436722, 0.14208854734897614, 0.11890177428722382, 0.17039397358894348, 0.035768210887908936, 0.11762173473834991, -0.0631183609366417, 0.013759352266788483, -0.026660507544875145, -0.23130212724208832, -0.12096212059259415, 0.03250836580991745, -0.10865982621908188, 0.14808212220668793, 0.026823751628398895, -0.09679975360631943, 0.18176274001598358, 0.03696734085679054, 0.15368598699569702, -0.03655846044421196, -0.12408947199583054, 0.10839834809303284, 0.059343304485082626, 0.05958831310272217, 0.07840315252542496, -0.006965895649045706, -0.06785082817077637, 0.08706749230623245, -0.018680358305573463, 0.00168524996843189, -0.0552666001021862, 0.10470035672187805, -0.1393478959798813, -0.04996377229690552, -0.0885302871465683, 0.001674659550189972, 0.0011462942929938436, -0.06343284249305725, -0.09752258658409119, 0.06960665434598923, 0.030677443370223045, 0.017372477799654007, 0.04149577394127846, -0.19196411967277527, 0.017827942967414856, 0.12432777881622314, -0.009249371476471424, -0.18877273797988892, 0.2058108150959015, 0.23965398967266083, -0.00779176689684391, 0.1762915700674057, -0.04529672488570213, -0.08728405088186264, 0.08603397756814957, 0.06888094544410706, 0.18693919479846954, 0.10367786884307861, 0.028465794399380684, -0.03943488374352455, 0.04827769100666046, 0.035140469670295715, -0.23578466475009918, 0.08540815114974976, 0.03389948606491089, 0.1023823469877243, 0.03655416890978813, -0.009214554913341999, 0.07252849638462067, 0.0005861608078703284, 0.011101200245320797, -0.012364604510366917, -0.04192228987812996, -0.02312069945037365, 0.005394280422478914, 0.07375018298625946, 0.020420102402567863, 0.047850027680397034, 0.04106724634766579, 0.17847508192062378, 0.04609013348817825, 0.11036398261785507, 0.058941107243299484, 0.02891862951219082, 0.11596301198005676, 0.029631363227963448, 0.06429780274629593, -0.16479170322418213, 0.1051308736205101, 0.11262298375368118, 0.038969364017248154, 0.016761716455221176, 0.04506700113415718, 0.004240312147885561, -0.014974026940762997, 0.14529497921466827, -0.022977184504270554, -0.011973384767770767, -0.006485001649707556, -0.07212457060813904, 0.0025966283865273, 0.05366044491529465, -0.003181696170940995, 0.1302787810564041, 0.011966451071202755, 0.053183216601610184, -0.08360739797353745, 0.022960813716053963, -0.0443643182516098, -0.12018992751836777, 0.026528863236308098, 0.04520444571971893, 0.023721342906355858, -0.07443606108427048, 0.01611630618572235, 0.13329850137233734, -0.019473416730761528, -0.10476215928792953, -0.024289509281516075, -0.11156758666038513, 0.020189350470900536], [-0.015516943298280239, -0.0514802411198616, 0.0815475583076477, -0.024195596575737, -0.13631121814250946, -0.03336096554994583, -0.1101272776722908, 0.10354261845350266, -0.02771173045039177, -0.046243324875831604, 0.012100844644010067, 0.00850140955299139, -0.18786785006523132, -0.18539102375507355, -0.07739026844501495, 0.08283174782991409, -0.09458451718091965, -0.020616764202713966, -0.03675500676035881, 0.23206812143325806, -0.059816837310791016, 0.014505329541862011, -0.04161195829510689, 0.0013785792980343103, 0.05735493078827858, -0.16083550453186035, -0.001927416305989027, 0.012670126743614674, -0.10965602099895477, 0.19351086020469666, -0.10248873382806778, -0.08132215589284897, -0.008823064155876637, -0.12962117791175842, 0.08623913675546646, 0.03526339307427406, 0.01239671278744936, -0.00890358816832304, 0.0459134504199028, 0.10570920258760452, 0.0327584333717823, -0.05220490321516991, 0.033046793192625046, -0.05222901329398155, 0.050279807299375534, 0.1484030932188034, -0.09542113542556763, 0.04246474429965019, 0.12935979664325714, -0.11057425290346146, -0.08620268106460571, -0.021526653319597244, -0.09800012409687042, -0.027596574276685715, -0.07163958251476288, -0.0591760016977787, -0.05375300720334053, -0.04054269939661026, -0.10296798497438431, 0.05449957773089409, 0.018625224009156227, 0.00890320260077715, 0.03427842631936073, -0.012494287453591824, 0.12646538019180298, -0.043265730142593384, 0.015210163779556751, -0.021537551656365395, 0.14176586270332336, 0.18831856548786163, 0.007450888864696026, -0.08607985824346542, -0.005126367788761854, 0.12411637604236603, -0.14830854535102844, -0.13485680520534515, -0.07747125625610352, 0.03153396397829056, -0.18198785185813904, -0.0981224998831749, -0.03303799778223038, -0.019969558343291283, 0.01969192735850811, 0.025682514533400536, -0.14572612941265106, 0.055519092828035355, -0.04361303523182869, -0.12968230247497559, -0.03627908229827881, -0.14904919266700745, -0.17701949179172516, 0.052206262946128845, -0.12274777889251709, 0.15337280929088593, 0.0598636232316494, 0.04193286970257759, -0.13753488659858704, 0.005809098947793245, -0.131088525056839, -0.08889941871166229, 0.03307459503412247, 0.041141804307699203, 0.1778518706560135, -0.08210372179746628, -0.08717019110918045, 0.007412216626107693, 0.029417328536510468, 0.00416788412258029, 0.04072036221623421, 0.1221175566315651, -0.02276608720421791, 0.05607994273304939, -0.014583815820515156, -0.053274232894182205, -0.08007793128490448, 0.10796599090099335, 0.09810083359479904, 0.012340191751718521, -0.11297140270471573, 0.14115913212299347, -0.07685065269470215, 0.033224571496248245, 0.06805908679962158, 0.13129852712154388, -0.028320016339421272, 0.029947105795145035, 0.04032718390226364, -0.11581164598464966], [0.08443965762853622, -0.13286814093589783, 0.15515930950641632, -0.08707854896783829, 0.033504314720630646, -0.11103478819131851, -0.047642722725868225, -0.011792068369686604, -0.01257406547665596, 0.036282673478126526, 0.07334690541028976, -0.08462414890527725, -0.019649576395750046, -0.01406718511134386, -0.041324831545352936, 0.07098899036645889, 0.03252345696091652, -0.037184830754995346, -0.10082295536994934, -0.07983995974063873, 0.0453956238925457, 0.050207145512104034, -0.08648105710744858, 0.030107051134109497, 0.07094448804855347, 0.010650550946593285, -0.04192386940121651, 0.1408393234014511, -0.025919422507286072, 0.08697676658630371, -0.0034368308261036873, 0.04572318121790886, 0.10045241564512253, -0.07376512140035629, -0.030268611386418343, -0.07976175844669342, 0.011685407720506191, 0.043796151876449585, 0.12797321379184723, 0.042346954345703125, 0.06171451508998871, -0.04203370586037636, -0.003971857950091362, 0.03408821299672127, 0.14859648048877716, -0.13401983678340912, -0.06212351471185684, 0.08912163227796555, 0.03834327310323715, -0.0020282319746911526, 0.09667792916297913, -0.07589059323072433, 0.0674067884683609, -0.019253846257925034, -0.12157950550317764, -0.019284429028630257, -0.05584702640771866, 0.2103748619556427, -0.046051640063524246, 0.12780167162418365, 0.07784018665552139, 0.10594211518764496, 0.08631787449121475, 0.027653900906443596, 0.03934871032834053, -0.08950500190258026, 0.17867423593997955, 0.03500703349709511, 0.060829803347587585, -0.04356943815946579, -0.01658380776643753, -0.14611895382404327, -0.047590501606464386, -0.19005323946475983, 0.18843163549900055, 0.10145383328199387, -0.020444700494408607, -0.0370275117456913, 0.013032607734203339, -0.03976457938551903, 0.01743685081601143, -0.051862508058547974, -0.051109034568071365, 0.02566979080438614, 0.06696947664022446, 0.01621929183602333, 0.023929310962557793, 0.0036812331527471542, 0.08918646723031998, -0.10206426680088043, -0.01547485962510109, 0.2340838611125946, 0.0836777314543724, 0.05042097717523575, 0.050293974578380585, -0.01790853589773178, -0.08242342621088028, -0.08728490769863129, 0.0712786316871643, 0.11425264179706573, 0.10130814462900162, 0.029756488278508186, 0.07552603632211685, -0.040540989488363266, 0.03732337802648544, -0.12707185745239258, 0.10931535065174103, -0.05130186676979065, 0.004777360707521439, 0.02227727323770523, 0.0052487668581306934, -0.21922343969345093, -0.12763649225234985, -0.06049691513180733, 0.23104853928089142, 0.14926838874816895, 0.2025642693042755, -0.0009188539115712047, -0.1336357742547989, -0.07877780497074127, -0.020739421248435974, -0.021735215559601784, 0.0038502870593219995, -0.014931916259229183, 0.0926981121301651, -0.0298240315169096, 0.07551220804452896, -0.06216277554631233], [0.06037783622741699, 0.010229413397610188, -0.016284501180052757, 0.02011977881193161, 0.22499321401119232, 0.0936397984623909, 0.07083717733621597, 0.032438334077596664, 0.0056442683562636375, 0.00658801244571805, -0.028034871444106102, 0.0242762453854084, 0.003978890832513571, -0.0065634301863610744, 0.09663445502519608, -0.014789000153541565, -0.08076953887939453, -0.047486044466495514, 0.0016501338686794043, 0.00746621610596776, -0.02786082960665226, 0.0037739991676062346, -0.10172208398580551, 0.01767018996179104, 0.058359742164611816, 0.09261690825223923, 0.0406852550804615, -0.2129203975200653, -0.04618184641003609, 0.1755710244178772, -0.08645907789468765, 0.011819332838058472, -0.07854171097278595, -0.09061209112405777, -0.04605286568403244, -0.045239947736263275, -0.022078493610024452, -0.01491874735802412, -0.03840099647641182, -0.07820379734039307, 0.0012956376885995269, -0.010822348296642303, 0.02281009778380394, 0.03615274652838707, -0.02176918461918831, -0.16013453900814056, 0.05557016283273697, -0.018152819946408272, -0.047139160335063934, -0.02023785188794136, -0.038307297974824905, -0.012251080945134163, -0.012264392338693142, 0.01938742771744728, -0.06251157820224762, -0.10059447586536407, 0.03754650428891182, 0.011465584859251976, 0.0010615321807563305, -0.1346108615398407, -0.1005319207906723, -0.04111729562282562, -0.018286094069480896, -0.06245453283190727, 0.08013855665922165, -0.014528866857290268, -0.11016521602869034, 0.11021149903535843, 0.001364683615975082, 0.0027592468541115522, 0.0020912745967507362, -0.032795485109090805, 0.01052725501358509, -0.05824458226561546, 0.09019645303487778, -0.026083678007125854, -0.09551696479320526, -0.004042821936309338, -0.07925888150930405, -0.015204446390271187, -0.06618069857358932, 0.0426664724946022, -0.011992167681455612, 0.026255056262016296, 0.07581005245447159, 0.07259030640125275, 0.1950691193342209, -0.0021325491834431887, 0.11982034146785736, 0.19050735235214233, 0.04470770061016083, -0.03714562579989433, 0.04996437206864357, -0.007135951425880194, -0.10896622389554977, -0.04353509470820427, 0.12684382498264313, 0.08119923621416092, 0.03626567870378494, 0.010367680341005325, 0.02074584737420082, -0.05981357768177986, -0.13558363914489746, -0.06204914674162865, -0.0702759176492691, 0.02319277450442314, -0.12186244130134583, -0.04138625040650368, 0.04409389942884445, 0.012668422423303127, 0.012927932664752007, -0.021000726148486137, -0.06763904541730881, 0.029861632734537125, 0.10645559430122375, 0.19311586022377014, 0.06781545281410217, -0.09531839936971664, 0.1309172362089157, 0.08544504642486572, 0.014276317320764065, 0.1282183974981308, -0.06479638069868088, 0.011806292459368706, 0.04114077240228653, 0.01595013402402401, 0.027187466621398926, -0.04728987440466881], [-0.04985471069812775, -0.007393021136522293, -0.06745588779449463, -0.058641184121370316, 0.03930111229419708, -0.09104732424020767, 0.1300470232963562, -0.04708748683333397, -0.02880103327333927, -0.12949909269809723, -0.07883623987436295, -0.016550026834011078, 0.1561267226934433, 0.075975701212883, 0.01437697745859623, 0.04623372480273247, 0.06489594280719757, 0.017388595268130302, 0.1895207166671753, -0.05450482293963432, -0.05124427005648613, 0.17899540066719055, 0.10396283864974976, 0.07429691404104233, -0.11375195533037186, -0.06612757593393326, 0.013007490895688534, 0.030913537368178368, 0.10094549506902695, -0.08926120400428772, 0.03583802655339241, -0.09224555641412735, 0.10645542293787003, -0.011422688141465187, -0.052773136645555496, -0.0787443295121193, 0.027174193412065506, 0.0029689716175198555, 0.030962787568569183, -0.14413242042064667, 0.04098931699991226, 0.029453473165631294, 0.10235869139432907, -0.032824818044900894, 0.020244423300027847, 0.02378775179386139, -0.011692213825881481, -0.013582010753452778, 0.03077128529548645, -0.05136794596910477, -0.017025001347064972, 0.018646573647856712, -0.041974667459726334, -0.018729107454419136, 0.11873190850019455, 0.05538581684231758, -0.07450403273105621, 0.04150637984275818, 0.13286320865154266, 0.026811011135578156, 0.06618762016296387, 0.07496318221092224, -0.02869775891304016, 0.05119426175951958, 0.0951811671257019, -0.013506281189620495, 0.06621670722961426, 0.09828377515077591, -0.03176937624812126, -0.021637529134750366, 0.1721789538860321, -0.00779007887467742, 0.014991448260843754, 0.03144780918955803, 0.03472499921917915, 0.00849142950028181, 0.0008483259007334709, -0.02621733397245407, -0.0420699305832386, -0.12692005932331085, -0.06106765940785408, 0.08471672981977463, -0.07607733458280563, -0.03279438242316246, 0.015540285035967827, -0.01698221080005169, 0.03896602615714073, 0.0979851633310318, 0.031147580593824387, 0.08446383476257324, -0.0552167072892189, -0.031215418130159378, -0.018278341740369797, -0.01961088366806507, 0.06292153894901276, -0.0302396472543478, 0.1940051168203354, -0.06439473479986191, -0.02081143856048584, 0.04464034363627434, 0.03336744010448456, 0.08432402461767197, 0.14921250939369202, 0.016333138570189476, -0.021987665444612503, 0.023042673245072365, -0.04404106363654137, -0.06058922037482262, -0.0018569260137155652, -0.04793040081858635, -0.019923971965909004, 0.015559178777039051, -0.0717121884226799, -0.0006746852886863053, -0.07740022987127304, -0.09006864577531815, 0.012701299041509628, -0.08156783878803253, -0.01276837196201086, 0.003672284772619605, -0.012101217173039913, 0.08039743453264236, 0.07092379778623581, -0.08274772763252258, -0.06081436946988106, 0.028402086347341537, 0.06884289532899857, 0.030094487592577934], [-0.004070930648595095, 0.08804591000080109, -0.1647472083568573, -0.012525983154773712, -0.05931650847196579, -0.08435386419296265, -0.07442685216665268, -0.03583144396543503, -0.1357501894235611, -0.02750692330300808, 0.006041546817868948, 0.009908387437462807, -0.06214800104498863, -8.587323827669024e-05, -0.015017137862741947, -0.02322370372712612, 0.049673695117235184, 0.03267462179064751, -0.002509850775822997, 0.024249451234936714, -0.05421537905931473, -0.011898080818355083, -0.00762972142547369, -0.19770683348178864, -0.08493347465991974, -0.1107771024107933, -0.037854138761758804, 0.11210816353559494, -0.061613041907548904, -0.017118388786911964, -0.033020973205566406, -0.055288415402173996, 0.10294514894485474, 0.05890844762325287, 0.06487657129764557, 0.08652471005916595, 0.02941030077636242, -0.10322114080190659, -0.13143347203731537, 0.04712613299489021, 0.003847366664558649, 0.023719526827335358, 0.02866266667842865, -0.09975993633270264, 0.06866097450256348, 0.21410778164863586, -0.07174229621887207, -0.14353297650814056, -0.039233773946762085, -0.08010057359933853, -0.08273299038410187, -0.004423785489052534, -0.05331125855445862, 0.003852579742670059, 0.15464943647384644, -0.07753472030162811, 0.0066638789139688015, -0.04264642298221588, -0.03331753984093666, -0.15317845344543457, 0.09977205842733383, 0.019971156492829323, 0.09025529026985168, 0.03811796009540558, -0.02574622817337513, -0.06674633175134659, 0.06620058417320251, -0.16460978984832764, -0.01014662068337202, -0.02626698836684227, -0.12167666107416153, -0.0726495161652565, -0.09115796536207199, 0.006583631504327059, 0.026137568056583405, -0.005266596097499132, -0.0025439548771828413, -0.12885785102844238, 0.007266797591000795, 0.0032934311311692, 0.026533693075180054, 0.02864338643848896, -0.16345325112342834, -0.03976379334926605, 0.06920894980430603, 0.13362862169742584, -0.13012294471263885, -0.02488253451883793, -0.05528087913990021, 0.082738496363163, -0.13561896979808807, -0.13651791214942932, 0.08241460472345352, -0.06320851296186447, 0.06374918669462204, 0.20487669110298157, 0.0024820794351398945, -0.0781625434756279, 0.18840479850769043, 0.10067345947027206, -0.21907256543636322, -0.004545861389487982, -0.02961382083594799, -0.12925377488136292, -0.0174731332808733, -0.11149912327528, -0.20463748276233673, 0.04547186195850372, 0.012703971937298775, -0.08748872578144073, 0.17884793877601624, -0.0672534629702568, -0.06231243163347244, -0.0348181426525116, -0.069877490401268, 0.07588822394609451, -0.01721598394215107, 0.13465172052383423, 0.03887191787362099, -0.04829665273427963, 0.07662391662597656, -0.06913730502128601, 0.075570248067379, 0.011129706166684628, -0.08961351960897446, -0.005663392599672079, -0.058150071650743484, -0.06880341470241547], [-0.08570849150419235, 0.052345190197229385, 0.04466627165675163, -0.0018984358757734299, -0.10387538373470306, -0.044328831136226654, 0.004167013335973024, -0.005039972253143787, -0.10295763611793518, -0.007874472066760063, 0.119956374168396, -0.13853487372398376, -0.04319428279995918, -0.023962706327438354, 7.095810724422336e-05, -0.03861260041594505, -0.03205009549856186, 0.012228784151375294, -0.04652184620499611, 0.1614610254764557, 0.0619971938431263, -0.017903290688991547, 0.01723243109881878, -0.044527567923069, -0.08449994772672653, -0.11886321753263474, -0.041041482239961624, -0.00869342964142561, 0.060202423483133316, 0.013701987452805042, -0.024307038635015488, -0.028094831854104996, 0.18282188475131989, 0.00014412877499125898, 0.005494630429893732, -0.06455419212579727, -0.015593443997204304, 0.06915875524282455, 0.03728022426366806, -0.058960992842912674, 0.034468136727809906, -0.03182092681527138, 0.08845942467451096, 0.020208438858389854, -0.0030379225499927998, 0.047346148639917374, 0.04466996341943741, -0.04996780306100845, 0.05309629440307617, 0.01787654310464859, -0.06919903308153152, -0.03668631613254547, 0.015999607741832733, -0.08338449150323868, 0.09724586457014084, -0.13130275905132294, -0.12845474481582642, -0.046385955065488815, -0.0613102912902832, -0.026446862146258354, -0.03471048176288605, 0.04121535271406174, -0.08636851608753204, -0.07624457031488419, 0.0014326536329463124, -0.04040208086371422, 0.030592968687415123, -0.0850144624710083, -0.009329309687018394, 0.09951144456863403, -0.19328536093235016, -0.00900739710777998, 0.0590897798538208, -0.013971589505672455, 0.017696524038910866, -0.049466684460639954, 0.07223768532276154, 0.1591152548789978, -0.012193473987281322, -0.006251330487430096, 0.017284512519836426, 0.030808473005890846, -0.04389406740665436, -0.006166731007397175, 0.005542935337871313, 0.00616342481225729, -0.10147681087255478, 0.047658368945121765, 0.09230764955282211, 0.09066808223724365, 0.07227667421102524, 0.15895657241344452, 0.056801676750183105, 0.04681181162595749, -0.020040594041347504, -0.12993265688419342, 0.13807155191898346, 0.01806383952498436, -0.12114043533802032, 0.003913947846740484, -0.06505186855792999, 0.044292185455560684, -0.021465376019477844, 0.02008388750255108, -0.0587492398917675, 0.018305771052837372, -0.046756256371736526, 0.08693724125623703, 0.0766596868634224, 0.04651175066828728, -0.17058290541172028, -0.009417952969670296, -0.0487121120095253, -0.14998680353164673, -0.028489278629422188, 0.028805088251829147, 0.061940062791109085, -0.02265564166009426, 0.012043474242091179, -0.10865514725446701, -0.022831905633211136, -0.14098215103149414, -0.07872038334608078, 0.14440137147903442, 0.013584872707724571, -0.04427459090948105, 0.07163482904434204, -0.18427588045597076], [-0.03616563230752945, 0.006067069713026285, 0.1237950548529625, 0.019136644899845123, 0.016126146540045738, 0.15997213125228882, 0.0776592344045639, -0.013004875741899014, 0.10408341139554977, 0.10836032032966614, -0.07632382214069366, 0.024203257635235786, -0.010943247005343437, 0.10953916609287262, -0.056812603026628494, -0.1451692134141922, -0.10575094819068909, -0.03809431195259094, -0.08928073197603226, -0.10900549590587616, 0.036987803876399994, 0.157943993806839, -0.07218088954687119, 0.1021248921751976, 0.02841115929186344, -0.09329728037118912, 0.04164345562458038, 0.10457107424736023, 0.03865263983607292, -0.025920981541275978, 0.055067844688892365, -0.0502704419195652, 0.07497721910476685, -0.04318150132894516, 0.06633910536766052, -0.035908445715904236, 0.040370065718889236, 0.014586253091692924, -0.18017010390758514, 0.028826778754591942, -0.013186738826334476, 0.07154543697834015, -0.04308348149061203, 0.06334387511014938, -0.05391869321465492, 0.3103698492050171, 0.015349466353654861, 0.04131264239549637, -0.09239453822374344, 0.06221693381667137, 0.09322276711463928, 0.024714656174182892, -0.02278454788029194, -0.06620725989341736, -0.07321634143590927, -0.04275083541870117, 0.08612057566642761, 0.008616131730377674, -0.20354144275188446, -0.09429531544446945, 0.07922034710645676, -0.07692451030015945, 0.02852756902575493, 1.9855307982652448e-05, 0.045350927859544754, -0.0035315246786922216, 0.013038481585681438, 0.11732601374387741, 0.05645104870200157, -0.01818031631410122, 0.06650444865226746, 0.047059834003448486, 0.014890553429722786, 0.02039969339966774, -0.08060316741466522, 0.13642102479934692, 0.1344105303287506, 0.03524131327867508, 0.11848630756139755, -0.06368692219257355, -0.11140474677085876, -0.05043242499232292, 0.05185888707637787, 0.010416344739496708, -0.0484110563993454, 0.04426616057753563, 0.1238425076007843, 0.04131171479821205, 0.053882185369729996, -0.0038471422158181667, -0.11475186049938202, 0.02799387089908123, 0.05554001405835152, 0.1573868840932846, 0.06442949175834656, 0.0442400798201561, 0.11865478754043579, 0.1318642497062683, 0.1320541948080063, 0.0073294872418046, 0.06950144469738007, -0.02683526650071144, 0.10604365915060043, 0.01271427609026432, 0.02930593304336071, -0.08046869188547134, 0.024357900023460388, 0.09100551158189774, -0.07772364467382431, 0.023461250588297844, -0.06720875948667526, -0.05273709073662758, 0.041591618210077286, 0.019525356590747833, -0.05444182828068733, 0.10463099926710129, -0.02956313267350197, 0.029277808964252472, 0.06303134560585022, -0.04727965593338013, -0.08415904641151428, -0.014371128752827644, 0.17733633518218994, -0.026614949107170105, -0.09258653968572617, 0.05430009588599205, 0.0023973521310836077, -0.0324225090444088], [-0.24282747507095337, -0.05706271529197693, 0.04440777376294136, -0.08309882879257202, -0.3122375011444092, 0.09248659014701843, 0.00818643532693386, -0.09589837491512299, -0.042284149676561356, -0.09783346951007843, -0.1544707864522934, -0.027450505644083023, -0.12541012465953827, -0.19918376207351685, 0.05772780254483223, -0.13558974862098694, 0.1296137571334839, 0.10542169958353043, -0.1044556125998497, 0.26599621772766113, 0.13515742123126984, -0.0826788991689682, -0.0731707438826561, -0.12324058264493942, 0.0018146607326343656, -0.01313038170337677, 0.046271782368421555, 0.1711689531803131, -0.08842315524816513, -0.15388552844524384, -0.23860563337802887, -0.018098097294569016, 0.008052442222833633, 0.15998414158821106, 0.10725759714841843, -0.14919184148311615, 0.04214966297149658, -0.024460868909955025, -0.19269059598445892, -0.03291351720690727, -0.15529705584049225, -0.0014111297205090523, 0.021443551406264305, 0.047190435230731964, 0.07059051841497421, 0.19726945459842682, -0.12322159111499786, 0.01975582167506218, -0.10708320140838623, 0.0396939218044281, -0.06743524968624115, -0.01800941303372383, -0.10219581425189972, -0.1740158349275589, 0.06693285703659058, 0.0010671756463125348, -0.040060002356767654, -0.05216532200574875, -0.0893368273973465, 0.10715024173259735, 0.1150650903582573, 0.16985708475112915, 0.10947205871343613, -0.06022735312581062, 0.07581080496311188, 0.005729117896407843, 0.014142106287181377, -0.08854348957538605, -0.020823752507567406, 0.14848767220973969, 0.03938870504498482, -0.04774237051606178, -0.03301681578159332, 0.08110081404447556, 0.09123779088258743, -0.0238390751183033, -0.199150949716568, -0.11686554551124573, 0.12095481157302856, 0.16928303241729736, -0.04034556820988655, -0.015528273768723011, 0.04855719581246376, -0.053603000938892365, -0.1271880567073822, -0.01509766187518835, -0.185033917427063, -0.06629446148872375, -0.19868828356266022, -0.01755375787615776, -0.032740235328674316, -0.15341870486736298, 0.0852147564291954, 0.10516378283500671, -0.0790494754910469, -0.14136548340320587, -0.09590020030736923, 0.024365633726119995, -0.02640826627612114, 0.07096845656633377, 0.029880153015255928, 0.12964728474617004, -0.11815162748098373, 0.0076332055032253265, -0.08673053979873657, 0.06465506553649902, -0.005433274433016777, -0.03811349347233772, -0.1274101734161377, 0.0033078256528824568, -0.02402815781533718, -0.09369691461324692, -0.12355752289295197, -0.025978093966841698, -0.03771994635462761, 0.020607776939868927, -0.022866398096084595, 0.024389054626226425, -0.0065202414989471436, 0.06452701985836029, -0.00716789485886693, -0.057229623198509216, -0.19640803337097168, -0.023036887869238853, -0.0036704593803733587, -0.0011988672195002437, 0.10470922291278839, 0.08281762152910233], [-0.09648269414901733, -0.05321693792939186, -0.07874109596014023, 0.012069876305758953, 0.09601990133523941, -0.10025140643119812, 0.09877465665340424, 0.00031872920226305723, 0.1188250184059143, -0.027331814169883728, 0.07380785793066025, 0.08500941842794418, 0.02936069667339325, 0.12494371086359024, -0.0585576631128788, 0.05467326194047928, 0.0627579391002655, 0.0024920806754380465, -0.1554243266582489, -0.09495727717876434, 0.08481739461421967, 0.0733935758471489, 0.057873062789440155, 0.12039674818515778, 0.02277209982275963, 0.029073309153318405, 0.02329208515584469, 0.007346066180616617, 0.10402114689350128, 0.03013933077454567, 0.06847557425498962, 0.03938907012343407, -0.015430469065904617, 0.02355232462286949, -0.07279990613460541, -0.05577448755502701, -0.06960476189851761, 0.040131133049726486, -0.01231580413877964, -0.12406900525093079, 0.12089117616415024, 0.01842195726931095, -0.02843596413731575, 0.12310434877872467, 0.010568248108029366, -0.07346406579017639, 0.028591997921466827, -0.04568547382950783, -0.11928281933069229, 0.016949158161878586, 0.02122650295495987, -0.05631360039114952, 0.07263282686471939, -0.03094344772398472, -0.06461463123559952, 0.04798614978790283, -0.034892939031124115, 0.0735345110297203, -0.024989472702145576, 0.022453654557466507, -0.01031762920320034, 0.015144918113946915, -0.03958961367607117, 0.10710155218839645, 0.14030523598194122, -0.014090687967836857, -0.10242778062820435, 0.06317657232284546, 0.07854071259498596, 0.0671788826584816, 0.06591685861349106, -0.06735335290431976, 0.008690429851412773, 0.029636293649673462, -0.08345023542642593, 0.06062478944659233, -0.0008964485605247319, -0.029207559302449226, 0.036113377660512924, 0.049723099917173386, 0.07404560595750809, 0.0038270021323114634, -0.03437980264425278, -0.10463083535432816, 0.017545023933053017, 0.03290611505508423, 0.022825943306088448, 0.019097885116934776, -0.018261615186929703, -0.2749643921852112, -0.03956979513168335, -0.05286511778831482, -0.07410164922475815, 0.011651567183434963, -0.025012152269482613, -0.09275826066732407, 0.13549551367759705, 0.07167652994394302, -0.0745164006948471, -0.07601256668567657, 0.089158795773983, 0.03186838701367378, 0.16201245784759521, -0.0010280358837917447, -0.023491209372878075, -0.03789930418133736, -0.022186458110809326, 0.08024228364229202, 0.09564198553562164, -0.07100431621074677, -0.02132750302553177, -0.06415081024169922, -0.11141040176153183, 0.013224788010120392, -0.054293226450681686, -0.0278627872467041, 0.02769201435148716, -0.054431699216365814, 0.007675214670598507, -0.008552124723792076, -0.013451986946165562, 0.027256213128566742, 0.05248797684907913, 0.040086597204208374, 0.03200014680624008, -0.02348785474896431, 0.022042090073227882, -0.07712173461914062], [-0.04933634027838707, -0.0489414744079113, 0.010723425075411797, -0.006086901295930147, 0.08280825614929199, -0.07981178909540176, 0.13769768178462982, -0.18445773422718048, 0.024558374658226967, -0.030670274049043655, -0.014251958578824997, 0.021882642060518265, 0.13446982204914093, -0.023238305002450943, 0.06181173026561737, 0.023286277428269386, -0.0037928572855889797, 0.020400123670697212, 0.02469254657626152, -0.18818508088588715, 0.04236801713705063, 0.04847324639558792, 0.1162780299782753, 0.13578175008296967, -0.001766903791576624, -0.004591109696775675, 0.10841473191976547, -0.031335510313510895, 0.1231071874499321, -0.06674109399318695, 0.017092203721404076, -0.00046559819020330906, 0.0888875424861908, 0.144298255443573, -0.10867933183908463, -0.049692582339048386, 0.09973370283842087, 0.0449206568300724, 0.11664920300245285, -0.19357702136039734, 0.003173121716827154, 0.021096713840961456, -0.06928928941488266, 0.09978736191987991, -0.006199987605214119, -0.08764957636594772, -0.0030980147421360016, 0.13775727152824402, -0.061173610389232635, 0.10818810760974884, -0.053517263382673264, 0.04312320798635483, 0.08974730223417282, 0.04362032935023308, 0.0002636258432175964, 0.11461302638053894, 0.1632779985666275, -0.00376494275406003, 0.10763738304376602, -0.03453276678919792, -0.01985762268304825, -0.08746027946472168, 0.07596701383590698, 0.13692376017570496, 0.002205407712608576, -0.012668774463236332, 0.0888262540102005, 0.16848626732826233, 0.057413335889577866, -0.10491731017827988, -0.028229454532265663, 0.0010683145374059677, 0.052055519074201584, 0.055142875760793686, 0.03542120382189751, 0.050094492733478546, 0.04953136295080185, -0.051782410591840744, 0.064060740172863, 0.06580539047718048, -0.10385771840810776, 0.03464195877313614, -0.0938260555267334, -0.018948649987578392, 0.031047087162733078, 0.004429938737303019, 0.16213162243366241, 0.055859535932540894, 0.09104737639427185, 0.07633094489574432, -0.05889042839407921, 0.016868162900209427, 0.010222749784588814, 0.017234502360224724, -0.054440081119537354, -0.007962789386510849, 0.12384074926376343, -0.14255523681640625, 0.018353832885622978, 0.07034241408109665, 0.057544391602277756, -0.03266284987330437, 0.02926829643547535, 0.0344221256673336, 0.055416207760572433, -0.06354792416095734, 0.0024010478518903255, 0.08127863705158234, 0.01446421630680561, -0.07416632026433945, 0.018309514969587326, 0.009548569098114967, -0.09114184975624084, 0.031098978593945503, -0.05897695943713188, 0.08211034536361694, -0.07280433177947998, 0.012903544120490551, 0.06539489328861237, 0.0005284738726913929, 0.01641598902642727, 0.12021646648645401, 0.044892869889736176, 0.027332426980137825, -0.13384713232517242, -0.028433330357074738, -0.13179396092891693, -0.07127417623996735], [-0.13765674829483032, 0.15058113634586334, 0.24992255866527557, -0.2990007996559143, 0.3136065900325775, -0.2141040414571762, 0.16648028790950775, -0.051162488758563995, 0.20778299868106842, -0.05049680173397064, -0.0484386645257473, 0.08140606433153152, 0.08666646480560303, 0.31790250539779663, 0.033204585313797, -0.10068540275096893, -0.07350778579711914, -0.22053664922714233, 0.13917529582977295, -0.11101368814706802, 0.26684996485710144, 0.02983230911195278, -0.0015615728916600347, 0.11095762252807617, 0.12402836978435516, 0.1946522444486618, 0.00684661278501153, -0.3141820728778839, -0.11219192296266556, -0.009429357014596462, -0.14813114702701569, 0.10340968519449234, 0.04648381844162941, 0.1280055195093155, -0.15906552970409393, 0.1880280077457428, 0.08115535229444504, 0.02287798933684826, 0.12265355885028839, -0.19150272011756897, -0.03582435101270676, 0.017553994432091713, -0.030995897948741913, 0.07572928071022034, -0.1751885712146759, -0.17132803797721863, -0.02448253706097603, 0.030424144119024277, -0.21208831667900085, -0.20599360764026642, -0.08651723712682724, -0.008069479838013649, 0.13005594909191132, 0.188511461019516, -0.14020559191703796, 0.2908438444137573, -0.029196472838521004, 0.009570964612066746, 0.024942398071289062, -0.028185361996293068, 0.002596125705167651, -0.017750782892107964, 0.00019070318376179785, -0.008836888708174229, 0.1421094685792923, 0.015056169591844082, 0.009321903809905052, 0.03146436810493469, 0.002527690026909113, -0.13393567502498627, 0.20194853842258453, -0.1188800260424614, 0.1546199917793274, -0.22486811876296997, -0.09828302264213562, 0.1186782643198967, 0.1281728744506836, 0.07250064611434937, 0.01653449609875679, -0.19139178097248077, -0.09536144137382507, -0.12164504081010818, -0.16715894639492035, -0.10139936953783035, 0.2297385185956955, 0.10420902073383331, 0.1290472149848938, 0.21686336398124695, 0.05351617932319641, 0.27548637986183167, 0.10240738093852997, 0.3055188059806824, 0.051019251346588135, -0.17252217233181, 0.006269356235861778, 0.08588217198848724, 0.048640474677085876, 0.17328928411006927, 0.10283210873603821, 0.13408096134662628, -0.07572843134403229, 0.014596382156014442, 0.03830098733305931, 0.027595851570367813, -0.027804752811789513, -0.031155958771705627, 0.014524238184094429, -0.030603740364313126, 0.15431848168373108, 0.08637319505214691, 0.1190640777349472, 0.32674330472946167, 0.08482720702886581, -0.05757264792919159, 0.19758301973342896, 0.004563098773360252, -0.19013391435146332, 0.07047470659017563, 0.39186960458755493, 0.13080380856990814, 0.2161576747894287, 0.2507014870643616, 0.09312226623296738, 0.061913371086120605, 0.14460177719593048, 0.0745454654097557, 0.012564360164105892, 0.1576119065284729], [0.06461183726787567, -0.15330535173416138, 0.10017700493335724, 0.047069791704416275, 0.03093317709863186, 0.037255171686410904, -0.05395349860191345, 0.011794955469667912, 0.0018956282874569297, -0.05574722960591316, 0.08787433803081512, 0.0762561708688736, -0.2517746388912201, -0.20167912542819977, 0.06425932794809341, 0.02043326385319233, -0.014149254187941551, -0.10947386920452118, -0.11683377623558044, 0.02016608789563179, -0.058257415890693665, -0.013610804453492165, -0.05500372126698494, -0.11879871785640717, 0.13059426844120026, 0.09997130930423737, -0.03872581571340561, -0.01256125420331955, 0.018938062712550163, 0.1469518542289734, 0.022314978763461113, 0.040645621716976166, 0.046203065663576126, -0.059289488941431046, 0.10960445553064346, 0.09498275071382523, -0.01863967999815941, -0.0694054439663887, 0.0803459882736206, 0.14119091629981995, 0.005851595662534237, 0.05369138717651367, 0.02901753969490528, -0.14559222757816315, -0.08111130446195602, 0.10127085447311401, -0.05049567297101021, -0.08693918585777283, 0.021601442247629166, 0.013928969390690327, -0.0999973714351654, -0.022648192942142487, 0.20453234016895294, -0.05109061673283577, 0.046927012503147125, -0.036207906901836395, 0.007812809199094772, 0.05336526781320572, 0.08496936410665512, -0.12582001090049744, -0.0250631645321846, 0.023328498005867004, -0.007827275432646275, -0.03692719340324402, -0.15847119688987732, 0.051684316247701645, -0.030933773145079613, -0.05428836867213249, 0.04264538735151291, -0.1035974770784378, -0.10831836611032486, -0.002209377009421587, -0.056378789246082306, 0.11855169385671616, 0.04565770924091339, 0.04837105795741081, -0.04356755316257477, 0.026680124923586845, 0.017016097903251648, -0.03728489205241203, 0.011012961156666279, 0.11770477890968323, 0.01697089709341526, -0.13048671185970306, -0.11926550418138504, 0.055105436593294144, -0.024384859949350357, -0.06295564770698547, -0.211991548538208, -0.134568989276886, -0.08333650231361389, -0.06281137466430664, 0.1000831127166748, 0.10466992855072021, -0.08398721367120743, -0.01774572767317295, -0.17468544840812683, 0.07161343842744827, -0.15553349256515503, 0.018873276188969612, -0.0375882163643837, -0.08097376674413681, -0.02495105005800724, 0.04283352941274643, -0.08362457156181335, -0.08316620439291, 0.06966594606637955, 0.007867535576224327, -0.05117858573794365, 0.07000406086444855, -0.11147000640630722, -0.06975284218788147, -0.0022744766902178526, -0.10813400894403458, -0.01973942667245865, 0.27551665902137756, -0.06211252510547638, -0.0010230100015178323, -0.01156151108443737, -0.017335159704089165, 0.029486490413546562, -0.005462100263684988, -0.12875545024871826, 0.12986132502555847, 0.13011598587036133, 0.0775938555598259, 0.09661171585321426, -0.10899170488119125], [0.2277347296476364, -0.018911313265562057, -0.12064599990844727, -0.06573263555765152, -0.09535635262727737, 0.17440873384475708, -0.060612261295318604, -0.09789541363716125, -0.12332835048437119, 0.01481746044009924, -0.057662077248096466, 0.07680156826972961, -0.028820760548114777, -0.16252140700817108, -0.02835918590426445, -0.04934582859277725, -0.057936955243349075, 0.015531315468251705, 0.018501106649637222, 0.1917511373758316, -0.07634181529283524, -0.04127625375986099, -0.0273897647857666, -0.17596565186977386, -0.04508814215660095, -0.09636855125427246, -0.02053879201412201, 0.1860836148262024, -0.17854759097099304, -0.12213217467069626, -0.04946846514940262, 0.013360720127820969, 0.030132021754980087, 0.23347128927707672, 0.12132195383310318, 0.030965082347393036, 0.04814765974879265, 0.08860018849372864, -0.04617128521203995, 0.1831953227519989, 0.014641269110143185, 0.012699184939265251, 0.0444849357008934, 0.015561957843601704, 0.13248790800571442, 0.21466505527496338, 0.09356331825256348, 0.04561077058315277, 0.046956293284893036, -0.14659756422042847, 0.030133532360196114, -0.020186543464660645, -0.021939747035503387, -0.05364110693335533, 0.010933753103017807, -0.1005769595503807, -0.17951759696006775, -0.08350992202758789, -0.12046163529157639, 0.022786451503634453, 0.1999049186706543, -0.19463132321834564, 0.0600842610001564, -0.17783930897712708, 0.07525145262479782, 0.07032594829797745, -0.004120401572436094, -0.07368866354227066, -0.04750395938754082, 0.13517913222312927, -0.06500302255153656, -0.06112612783908844, -0.013288944959640503, 0.03393091633915901, -0.04637230187654495, 0.08292467892169952, 0.00697981845587492, -0.09289158880710602, -0.04835163429379463, -0.0444786474108696, 0.045198954641819, 0.030303293839097023, 0.07949435710906982, 0.08376272022724152, -0.03182021528482437, 0.00022089805861469358, -0.05552384629845619, -0.12320886552333832, 0.03439594432711601, 0.09199714660644531, -0.03175584599375725, -0.05313606932759285, 0.020869102329015732, -0.16216881573200226, -0.0573548786342144, -0.06448471546173096, -0.09979582577943802, -0.07573185116052628, -0.0695217102766037, 0.028757531195878983, 0.064835324883461, -0.008471737615764141, 0.0532044880092144, 0.09813157469034195, -0.03812756389379501, -0.09615582227706909, -0.07778460532426834, 0.034987594932317734, -0.03513796254992485, 0.013393131084740162, -0.11428675055503845, -0.07626356184482574, 0.05691370740532875, 0.1472746878862381, -0.08268450945615768, 0.029445022344589233, 0.2141132801771164, 0.1168796718120575, -0.21811433136463165, -0.0031715570949018, -0.030830897390842438, -0.05146370083093643, -0.12559758126735687, -0.0766587182879448, -0.05948387086391449, -0.02329424023628235, 0.09350840747356415, -0.032511577010154724], [-0.05498511344194412, 0.0013693526852875948, 0.10907742381095886, -0.033531006425619125, 0.11686905473470688, -0.0005830720183439553, 0.0840112492442131, 0.025513669475913048, 0.17481592297554016, 0.09622763097286224, 0.011393345892429352, 0.06995955854654312, -0.04375774785876274, 0.062445711344480515, -0.0020806393586099148, -0.03627218306064606, -0.14277154207229614, -0.03990233317017555, -0.13329295814037323, 0.06501729041337967, -0.048688843846321106, 0.17253823578357697, -0.028981458395719528, 0.045564599335193634, 0.10873077064752579, -0.04460194334387779, -0.04522563889622688, 0.032104697078466415, 0.08312223851680756, -0.008782085962593555, 0.022296752780675888, 0.12841637432575226, -0.09892340004444122, 0.00161948602180928, -0.12442725896835327, -0.02230009250342846, -0.1132158562541008, -0.024160180240869522, 0.011222895234823227, -0.03332838416099548, -0.03353961557149887, 0.06267301738262177, 0.11901615560054779, -0.04136672988533974, -0.03816802799701691, -0.05307980254292488, 0.021978335455060005, 0.1056634783744812, -0.06453173607587814, -0.014497981406748295, -0.018532082438468933, 0.07865379005670547, -0.09096077084541321, -0.03180837258696556, -0.11291217803955078, -0.04238882288336754, -0.07779067754745483, 0.017761915922164917, 0.24880461394786835, 0.07150288671255112, 0.05241324380040169, 0.011287270113825798, -0.01685609109699726, 0.06055831536650658, -0.05603604391217232, 0.05799265205860138, -0.03246672451496124, -0.005702280905097723, 0.056864697486162186, -0.08292718976736069, 0.2414190173149109, -0.011902332305908203, 0.08467476814985275, 0.14128249883651733, 0.03588235378265381, 0.14257706701755524, 0.1444690078496933, -0.021753545850515366, 0.006366157904267311, -0.09274411201477051, 0.006520414724946022, -0.020055413246154785, -0.022324441000819206, -0.07514911890029907, -0.11295162886381149, 0.03094257041811943, 0.05717978626489639, 0.10666179656982422, 0.05577124282717705, -0.030359068885445595, -0.11102038621902466, 0.07794366776943207, 0.024085432291030884, 0.08746282011270523, -0.06807571649551392, -0.04922637715935707, 0.06585698574781418, 0.0478370226919651, 0.06528927385807037, 0.039142362773418427, 0.17372997105121613, 0.11245060712099075, 0.1586354672908783, 0.05783890187740326, 0.05956663191318512, 0.0469067245721817, -0.04873260110616684, -0.007262911181896925, 0.040014129132032394, -0.044243987649679184, -0.021147824823856354, -0.03813275694847107, -0.0177446398884058, 0.0792580172419548, 0.006322638131678104, -0.08454219251871109, 0.03756823390722275, -0.22415749728679657, 0.012973707169294357, 0.08814850449562073, -0.1309220939874649, 0.12388107925653458, 0.22258850932121277, -0.1767359972000122, 0.06635851413011551, 0.13186129927635193, -0.037773147225379944, 0.0384318009018898], [-0.016948046162724495, 0.20550884306430817, -0.034491200000047684, -0.0008426518179476261, -0.014686674810945988, -0.12999625504016876, -0.05068891495466232, 0.050104882568120956, 0.1380101442337036, 0.020228058099746704, -0.12857331335544586, -0.062365151941776276, -0.02164549008011818, 0.21217215061187744, 0.07149161398410797, 0.1790611743927002, 0.09858710318803787, 0.03998347371816635, -0.13049693405628204, -0.16735467314720154, -0.10907091200351715, -0.012605883181095123, -0.05544484034180641, -0.20210261642932892, -0.01159645151346922, 0.13797463476657867, -0.0036091178189963102, 0.043458838015794754, 0.08136875182390213, -0.019885173067450523, -0.08065302670001984, -0.11301599442958832, 0.06263601779937744, 0.006039944011718035, -0.05989149585366249, 0.08895854651927948, 0.02017008513212204, 0.10623323917388916, 0.012553519569337368, 0.1739780753850937, -0.09396154433488846, -0.03308379650115967, -0.05790957808494568, -0.12773315608501434, -0.13644351065158844, -0.16590790450572968, 0.06666786968708038, 0.03449266031384468, 0.053336407989263535, 0.06908135116100311, 0.043831922113895416, 0.03606659919023514, -0.017496703192591667, 0.11256323009729385, 0.15979231894016266, -0.020812073722481728, -0.05707288533449173, 0.03975856676697731, -0.1126071885228157, -0.09804549813270569, 0.07924552261829376, 0.01584344543516636, -0.003813995746895671, 0.03527331352233887, -0.155034139752388, 0.009762532077729702, 0.176565483212471, 0.05319173261523247, 0.037919651716947556, -0.0851682797074318, 0.10181589424610138, -0.0944124385714531, 0.00011490744509501383, 0.12485428899526596, 0.027919422835111618, -0.017649773508310318, -0.0028532075230032206, -0.006848297081887722, -0.12215149402618408, 0.04431118443608284, -0.06216249242424965, -0.17090609669685364, 0.05812779441475868, -0.042435310781002045, -0.00035035659675486386, 0.22789403796195984, 0.06019382178783417, -0.03533051162958145, -0.04140189662575722, 0.206003338098526, 0.13208681344985962, 0.11271467804908752, -0.024345774203538895, 0.0034678897354751825, 0.04606304317712784, -0.022479329258203506, -0.14626115560531616, -0.06014130264520645, 0.02972259558737278, -0.1550760418176651, 0.11115366220474243, -0.007792091462761164, 0.02546648122370243, -0.06806691735982895, -0.16751329600811005, 0.09368954598903656, -0.02240782603621483, -0.013490193523466587, -0.003047903534024954, -0.01298606675118208, 0.01586759276688099, 0.019968140870332718, 0.09560956805944443, 0.05986114963889122, -0.08694469183683395, 0.0760444775223732, -0.029607338830828667, 0.1327705681324005, -0.03582551330327988, -0.07977274805307388, -0.057195112109184265, -0.06222597137093544, -0.010898835025727749, 0.00041966314893215895, 0.11081115156412125, -0.07302448898553848, -0.1238856390118599, -0.03930455073714256], [-0.0518014170229435, -0.002750472165644169, 0.015104337595403194, 0.06876960396766663, -0.12350267916917801, 0.10788743942975998, -0.10212578624486923, 0.1035570502281189, -0.07901552319526672, -0.12786784768104553, 0.007816546596586704, -0.04173009470105171, 0.10093185305595398, -0.06149975582957268, -0.06855174154043198, 0.2023252248764038, 0.17402982711791992, 0.01923391781747341, -0.050488732755184174, -0.09760456532239914, -0.044902775436639786, 0.1402408927679062, 0.012435986660420895, -0.04207049310207367, -0.05557695031166077, 0.027910515666007996, -0.0051210373640060425, -0.2052157074213028, -0.00481724226847291, 0.08464004844427109, -0.0993790253996849, 0.05056196451187134, 0.12007805705070496, -0.04808121547102928, 0.03486241400241852, -0.10953652858734131, -0.058940157294273376, -0.0792476087808609, 0.08113852888345718, -0.024891622364521027, 0.015280842781066895, 0.07925605773925781, 0.02882620505988598, 0.04839390516281128, 0.07083942741155624, -0.06728578358888626, 0.0029578746762126684, -0.10307462513446808, -0.05855131521821022, -0.0625542551279068, -0.0862671360373497, 0.050865039229393005, -0.04990130662918091, 0.0005188903887756169, 0.022842084988951683, -0.046201322227716446, -0.02232697792351246, 0.12246888130903244, 0.022058852016925812, -0.0504988431930542, 0.09997894614934921, -0.08296794444322586, -0.04774956777691841, -0.09096737205982208, 0.04657953232526779, -0.11308729648590088, 0.11272294819355011, -0.09956629574298859, -0.013833523727953434, -0.0632813349366188, -0.06462618708610535, 0.1623169630765915, 0.13365256786346436, 0.14143282175064087, -0.015576746314764023, 0.006567392963916063, 0.0694851353764534, -0.009891933761537075, 0.07851497828960419, -0.20946012437343597, 0.062423624098300934, -0.1214587613940239, -0.21666401624679565, -0.0594659224152565, 0.02702525444328785, -0.007295719813555479, 0.045442838221788406, -0.10694790631532669, -0.03293678164482117, 0.008462175726890564, 0.010722218081355095, -0.048083748668432236, 0.05954645574092865, 0.03372301161289215, -0.01245422288775444, 0.08032234758138657, -0.12637153267860413, 0.05218776687979698, -0.12835967540740967, 0.013420586474239826, 0.07870383560657501, 0.053499914705753326, -0.14316654205322266, 0.06760488450527191, 0.04765908792614937, 0.02746274322271347, 0.06566999107599258, -0.05213512107729912, 0.03467884659767151, 0.0638064593076706, 0.049006134271621704, 0.05096728727221489, 0.028705693781375885, -0.059488020837306976, -0.12964241206645966, -0.014098660089075565, -0.2537892460823059, -0.1748267412185669, -0.16480503976345062, -0.03813617303967476, -0.04131072387099266, -0.016611745581030846, -0.050116077065467834, -0.1404123604297638, -0.0682969018816948, 0.005318912211805582, 0.02351064421236515, 0.027299730107188225], [-0.1583058387041092, -0.24821589887142181, 0.11749271303415298, -0.10103093087673187, 0.19322508573532104, 0.16856449842453003, 0.19792869687080383, -0.0850868821144104, 0.3906843960285187, 0.15307830274105072, -0.0220039002597332, -0.12477706372737885, 0.3522120714187622, -0.14202998578548431, 0.21230988204479218, 0.0864223837852478, -0.21724151074886322, -0.023270556703209877, -0.17463666200637817, -0.2370118498802185, 0.058734722435474396, 0.16423776745796204, 0.17810091376304626, 0.6264184713363647, 0.24942044913768768, 0.10866308957338333, 0.006465916056185961, -0.2418234944343567, -0.0029804729856550694, 0.19813533127307892, 0.030880337581038475, -0.00012817536480724812, -0.032456234097480774, -0.06208023801445961, -0.0908130630850792, -0.24306973814964294, -0.04668492078781128, 0.02334737777709961, -0.033537302166223526, -0.1259089708328247, 0.17321603000164032, -0.052605580538511276, -0.07349064201116562, -0.05993669107556343, -0.06280295550823212, -0.2727580964565277, 0.029103532433509827, 0.2685474753379822, -0.099620021879673, -0.10988938808441162, -0.17883244156837463, 0.04431670531630516, 0.06518862396478653, -0.06560946255922318, -0.20623867213726044, 0.12916509807109833, 0.17691168189048767, 0.01702163740992546, 0.18794859945774078, 0.08681745082139969, -0.20820148289203644, 0.01713242568075657, 0.05537138506770134, 0.16476434469223022, 0.1521122008562088, 0.08244629204273224, 0.11607635766267776, 0.2313121110200882, 0.012428486719727516, -0.3332444429397583, 0.2508610785007477, 0.22784636914730072, 0.028644181787967682, 0.16727115213871002, 0.06824616342782974, 0.2632617950439453, -0.05542730167508125, 0.07534202188253403, 0.1264103502035141, -0.09967578202486038, -0.10021865367889404, -0.13771820068359375, 0.019311605021357536, -0.06731176376342773, 0.27227336168289185, 0.05052189156413078, 0.32354986667633057, 0.11905838549137115, 0.1781349927186966, -0.008955437690019608, -0.06736961007118225, 0.29803287982940674, 0.0877017229795456, 0.2369714230298996, -0.2914723753929138, -0.02955661155283451, 0.13571372628211975, 0.11676998436450958, 0.11074648797512054, -0.05462752282619476, 0.0470096580684185, 0.020812995731830597, 0.05720866471529007, 0.02318711392581463, -0.004851384554058313, 0.00316941668279469, -0.04002287983894348, -0.13694298267364502, 0.19018523395061493, -0.0833626240491867, 0.17150293290615082, 0.05089254677295685, 0.13343216478824615, -0.05611027404665947, 0.07245882600545883, 0.004794588778167963, -0.15868708491325378, -0.15915299952030182, 0.13613368570804596, -0.01699300855398178, -0.10641355067491531, 0.07987285405397415, 0.049440380185842514, -0.002237305510789156, 0.16986249387264252, 0.062189824879169464, -0.08172053098678589, 0.060852762311697006], [-0.0059434338472783566, -0.010439959354698658, 0.14228376746177673, 0.08202332258224487, 0.08753267675638199, 0.06359532475471497, 0.10050109773874283, 0.0009970965329557657, 0.12168966978788376, 0.11861062794923782, 0.1258724480867386, -0.018719587475061417, -0.010263334959745407, -0.03711668774485588, -0.08075569570064545, -0.05837039276957512, -0.28371554613113403, -0.07164968550205231, -0.0699155256152153, -0.05817944183945656, 0.10839922726154327, 0.13520394265651703, 0.0029047452844679356, 0.09880876541137695, 0.07521030306816101, 0.03967935964465141, 0.06348952651023865, -0.13236872851848602, 0.1716172993183136, -0.005309608299285173, 0.04409389942884445, 0.038231078535318375, 0.006697904318571091, -0.06128641590476036, -0.15897613763809204, -0.04276047274470329, -0.05782822519540787, 0.04885747656226158, 0.01333792507648468, -0.16947205364704132, 0.09194309264421463, -0.033856868743896484, 0.015188123099505901, 0.003745658090338111, -0.10572905838489532, -0.08856987208127975, 0.0356958732008934, 0.16004833579063416, -0.0009401525021530688, 0.0028553318697959185, -0.010919755324721336, 0.0031737147364765406, 0.12587106227874756, -0.13313934206962585, -0.20214134454727173, 0.12361494451761246, 0.25098916888237, 0.012363702990114689, 0.123362235724926, -0.06282636523246765, -0.1874094009399414, 0.05310561880469322, 0.18411904573440552, 0.2022450715303421, 0.02198554016649723, -0.04657312110066414, 0.03929554298520088, 0.23929063975811005, 0.10207021236419678, -0.20533011853694916, 0.08670703321695328, -0.04976658523082733, 0.11019224673509598, 0.06590279936790466, -0.05738435313105583, 0.19838078320026398, 0.05731113627552986, 0.009092054329812527, 0.02685210481286049, -0.07576505839824677, -0.049756377935409546, 0.05733782425522804, -0.023289170116186142, -0.08330096304416656, -0.11700636893510818, 0.09512312710285187, 0.0036762456875294447, 0.07488256692886353, 0.09927742928266525, 0.04446234181523323, -0.0641082376241684, 0.22899208962917328, 0.11726952344179153, 0.07394344359636307, -0.167115718126297, 0.04886472597718239, 0.1143956333398819, 0.10972854495048523, 0.09529616683721542, -0.025684690102934837, 0.10299772769212723, -0.0782940685749054, 0.141993910074234, -0.017715197056531906, 0.033275056630373, -0.00017372079310007393, 0.002004382200539112, 0.059883952140808105, 0.049105435609817505, -0.05792395770549774, 0.04626324027776718, 0.03898956626653671, 0.014297001995146275, -0.01962081529200077, 0.084572933614254, -0.003259852295741439, -0.19050408899784088, -0.24423934519290924, 0.048039503395557404, 0.013917295262217522, -0.08426252752542496, 0.11839079111814499, 0.1504492163658142, -0.06886499375104904, 0.04989297315478325, 0.06528399884700775, 0.025318192318081856, -0.09391751885414124], [-0.022717684507369995, -0.06687118113040924, 0.11052156984806061, -0.009981155395507812, 0.11573352664709091, 0.14503750205039978, 0.01576068066060543, -0.05299358069896698, 0.25220614671707153, 0.10582862794399261, 0.20901481807231903, 0.06695790588855743, -0.08178269118070602, 0.037544604390859604, -0.06202884390950203, -0.0387536883354187, -0.26933199167251587, 0.035577308386564255, -0.023923687636852264, -0.15838173031806946, 0.17476600408554077, 0.053086452186107635, -0.019566373899579048, 0.27293503284454346, 0.07754842191934586, 0.1774006187915802, 0.07410909980535507, -0.2874888479709625, 0.14489711821079254, 0.11692852526903152, -0.09131627529859543, 0.07532309740781784, 0.00729807885363698, 0.04214552044868469, -0.06205875426530838, -0.02417297475039959, -0.050114911049604416, -0.11659722030162811, -0.007985005155205727, 0.005115093197673559, 0.06482047587633133, 0.019852811470627785, 0.0418119877576828, 0.09663333743810654, -0.02785992994904518, -0.26154765486717224, 0.07560878992080688, -0.010970920324325562, -0.05886353924870491, -0.058675918728113174, -0.11447130888700485, 0.013770506717264652, 0.16106486320495605, -0.18253478407859802, -0.14657741785049438, 0.054118286818265915, 0.1375802457332611, 0.21885216236114502, 0.2163519561290741, -0.09568088501691818, -0.27637431025505066, 0.043636858463287354, -0.028279023244976997, 0.1544599086046219, 0.004643554333597422, -0.038695212453603745, 0.2871904671192169, 0.2182697355747223, 0.103984035551548, -0.24929997324943542, 0.1910257190465927, 0.046816568821668625, 0.04692411795258522, 0.06342626363039017, 0.09158190339803696, 0.15440233051776886, -0.023566260933876038, -0.03927743434906006, 0.054428067058324814, -0.003253599163144827, -0.012675079517066479, -0.03335976228117943, -0.0013369801454246044, -0.09256216883659363, -0.030235137790441513, 0.05529078096151352, -0.0412936732172966, -0.00416894955560565, -0.011485596187412739, 0.0725824311375618, -0.1970842033624649, -0.056120701134204865, -0.007198767736554146, 0.07037054002285004, -0.19355547428131104, 0.028361622244119644, 0.14015091955661774, 0.11129618436098099, 0.10465877503156662, -0.01755305752158165, 0.01505089271813631, -0.10623069107532501, 0.09416187554597855, -0.05404013767838478, -0.05757496878504753, -0.11699749529361725, -0.054941415786743164, -0.08743513375520706, 0.13775774836540222, 0.0341147854924202, -0.10021413117647171, 0.10141349583864212, -0.02027260884642601, -0.08882756531238556, -0.0375649631023407, 0.0020029728766530752, -0.010599003173410892, -0.08927886188030243, 0.07556147128343582, -0.04144379496574402, 0.006073301192373037, 0.09509380161762238, -0.010660231113433838, 0.1188904345035553, -0.0362696573138237, 0.06706424802541733, -0.049859240651130676, -0.053085003048181534], [0.1485774666070938, 0.059596966952085495, -0.16110427677631378, -0.06545981764793396, -0.1589697152376175, 0.12950943410396576, -0.06832657009363174, 0.16946503520011902, 0.09833857417106628, -0.04057849198579788, 0.025629041716456413, 0.0003414248349145055, -0.007767407689243555, -0.06561621278524399, -0.08237498998641968, 0.010033422149717808, -0.019371692091226578, -0.09081090986728668, 0.013853488489985466, -0.14497581124305725, -0.08230239152908325, -0.04393826425075531, -0.05161569267511368, -0.06557163596153259, -0.11399175226688385, 0.04873333126306534, 0.20368245244026184, -0.08280191570520401, -0.15499773621559143, 0.1047918051481247, -0.03456806764006615, -0.013545780442655087, -0.021120397374033928, -0.11192678660154343, 0.14315028488636017, -0.1818651407957077, -0.06548523157835007, 0.07279127091169357, -0.09888740628957748, 0.17324097454547882, -0.12734198570251465, -0.0539928674697876, -0.01770811900496483, 0.061637185513973236, 0.013126415200531483, -0.11234308034181595, 0.02109719254076481, 0.02520730532705784, 0.01740644872188568, 0.01718803308904171, -0.14683577418327332, 0.013585477136075497, 0.13488653302192688, 0.0024952939711511135, 0.024890299886465073, 0.050913143903017044, 0.040187228471040726, -0.0674937441945076, -0.16170896589756012, -0.035888563841581345, -0.051471538841724396, -0.039540037512779236, -0.05063134804368019, 0.01681298390030861, 0.07390306890010834, 0.05439908802509308, -0.037876248359680176, -0.23422196507453918, 0.014375411905348301, -0.011072543449699879, -0.12501493096351624, 0.05808771774172783, 0.021965114399790764, -0.11632178723812103, -0.1280030608177185, -0.10732679069042206, -0.25911858677864075, 0.01046508364379406, 0.26819363236427307, -0.20061643421649933, -0.066966213285923, -0.016169514507055283, -0.08152555674314499, -0.04671000689268112, -0.07393313944339752, -0.16012424230575562, -0.019223269075155258, -0.06394844502210617, -0.03879563882946968, 0.33908069133758545, 0.06275786459445953, 0.2608474791049957, 0.01071909535676241, 0.004112443421036005, -0.025487909093499184, -0.0716145858168602, 0.04578527808189392, 0.04916810616850853, -0.1944466531276703, 0.09749151766300201, -0.07060123234987259, -0.024254275485873222, -0.15489138662815094, -0.10977120697498322, -0.14018955826759338, 0.10470297932624817, -0.30716419219970703, -0.021606583148241043, -0.019292175769805908, -0.058141544461250305, 0.16508804261684418, 0.08554688096046448, 0.0838051438331604, -0.19549687206745148, 0.038242511451244354, -0.20126308500766754, 0.3753935694694519, 0.04104295000433922, -0.05089578405022621, -0.1259167194366455, -0.027008051052689552, 0.1542690396308899, 0.0358404777944088, -0.07657774537801743, -0.1282406598329544, -0.08963969349861145, 0.040608394891023636, 0.042941149324178696], [-0.2668948769569397, -0.23318162560462952, -0.1423145830631256, 0.03965773433446884, -0.1189207062125206, -0.1207553967833519, 0.09339568763971329, 0.10678824782371521, 0.041670072823762894, 0.07877390831708908, 0.03925569728016853, -0.050387654453516006, -0.1579292267560959, 0.13707135617733002, -0.10501585155725479, -0.08312517404556274, -0.05678447335958481, -0.10592272877693176, -0.03343847393989563, -0.03091365098953247, 0.10303547233343124, -0.11290086060762405, -0.04585001617670059, 0.09400489926338196, 0.003938631154596806, -0.03072577714920044, -0.20035342872142792, 0.16810010373592377, -0.06388119608163834, 0.02462722919881344, 0.07635247707366943, -0.0033274886664003134, 0.037242937833070755, -0.06023159995675087, -0.05831751599907875, -0.009539712220430374, 0.0403083898127079, 0.05273902043700218, -0.03731370344758034, -0.07274586707353592, 0.08650775253772736, 0.02349664643406868, 0.022350424900650978, -0.011790749616920948, 0.08026614785194397, -0.05114005133509636, -0.04429648071527481, 0.0662972629070282, -0.02203349769115448, -0.12508665025234222, -0.018102897331118584, 0.021734461188316345, 0.004582809749990702, 0.032306306064128876, 0.029624830931425095, 0.24578984081745148, -0.0869382694363594, -0.003055370645597577, 0.12658999860286713, 0.08947617560625076, -0.022730078548192978, -0.03777654469013214, 0.044650573283433914, 0.011361314915120602, 0.02074129320681095, 0.1035546213388443, 0.24216054379940033, 0.06939654797315598, -0.15579946339130402, 0.07345779985189438, -0.01281591784209013, 0.1069856584072113, -0.03390629589557648, 0.08378876000642776, -0.023285647854208946, 0.06914907693862915, -0.15366508066654205, -0.04734436422586441, 0.1311395764350891, -0.1356058418750763, 0.13420546054840088, 0.13200996816158295, -0.06363765150308609, 0.017360692843794823, 0.008689723908901215, -0.07248614728450775, 0.011776917614042759, 0.0023739770986139774, 0.14789073169231415, -0.06541161239147186, 0.10451419651508331, 0.06098533794283867, 0.07898147404193878, -0.11423032730817795, -0.07909395545721054, 0.06599676609039307, -0.08201152831315994, 0.043079081922769547, 0.16729402542114258, -0.005265009589493275, -0.04950755462050438, 0.004889748524874449, 0.0009519635350443423, 0.054362643510103226, 0.0483417883515358, 0.0019401838071644306, -0.028283176943659782, 0.005391444079577923, 0.12658771872520447, 0.026703177019953728, -0.20475971698760986, 0.1639251708984375, -0.01675678789615631, -0.06358922272920609, -0.18790042400360107, 0.12432023137807846, 0.03202301263809204, 0.09749217331409454, -0.19650298357009888, 0.0975286141037941, -0.18457980453968048, -0.019502144306898117, -0.028477806597948074, 0.07794183492660522, -0.037117812782526016, 0.01570671983063221, -0.08166025578975677, 0.02800520695745945], [0.13622255623340607, 0.06165583059191704, 0.12915834784507751, -0.047151561826467514, -0.06086002662777901, 0.32498446106910706, -0.07204120606184006, -0.056052837520837784, -0.07588043063879013, 0.05819816142320633, -0.03377290442585945, 0.006651885807514191, 0.18381720781326294, -0.08626346290111542, -0.14945055544376373, 0.04498967528343201, 0.07171273976564407, 0.14432978630065918, -0.039300933480262756, -0.07489278167486191, 0.13373534381389618, -0.10297481715679169, -0.1077243760228157, -0.06661702692508698, -0.011365769430994987, -0.07689667493104935, 0.06232181563973427, 0.13471320271492004, -0.011612609960138798, -0.09697861969470978, -0.07313405722379684, 0.1020432859659195, 0.09235811978578568, -0.0971871167421341, -0.12038181722164154, 0.1271684318780899, -0.06539122015237808, 0.12475623935461044, 0.009385678917169571, 0.005645259749144316, -0.0031110921408981085, -0.043591901659965515, -0.04061867296695709, -0.15657919645309448, 0.024581441655755043, -0.09430507570505142, -0.13186566531658173, -0.13074712455272675, 0.11890152096748352, -0.004059969447553158, -0.04013693332672119, 0.05434546619653702, -0.005506968125700951, -0.13364917039871216, -0.10379618406295776, 0.12069272249937057, -0.010896606370806694, -0.03573904559016228, -0.07732800394296646, 0.18627242743968964, -0.046977367252111435, 0.017226768657565117, -0.011509864591062069, -0.09019018709659576, -0.05065040662884712, -0.06661832332611084, 0.020601782947778702, -0.10929360240697861, -0.13924284279346466, 0.11353103071451187, -0.11803577095270157, 0.039314351975917816, 0.13811279833316803, 0.11722386628389359, 0.09535152465105057, 0.06932520121335983, 0.017541781067848206, -0.06880753487348557, -0.14934296905994415, 0.05390523374080658, 0.13823267817497253, -0.1539294719696045, -0.20213629305362701, 0.01959407329559326, 0.021970253437757492, -0.050129108130931854, -0.1205519288778305, 0.10662320256233215, 0.07727503776550293, 0.19947069883346558, 0.02413201704621315, -0.20703847706317902, 0.06523014605045319, -0.1123947873711586, 0.14805427193641663, -0.025972599163651466, -0.1917041540145874, -0.06428588181734085, 0.09999898821115494, -0.023733634501695633, -0.0728607103228569, 0.15175966918468475, 0.11546460539102554, 0.024126755073666573, -0.044330794364213943, 0.1090833768248558, -0.14394620060920715, 0.053584907203912735, -0.1326686441898346, 0.13810834288597107, -0.08808878809213638, 0.09996253252029419, 0.15728700160980225, -0.06601997464895248, -0.0759119838476181, 0.03459910303354263, -0.04324076697230339, -0.08542947471141815, -0.1695832461118698, 0.0009423354058526456, -0.06699897348880768, -0.10973310470581055, 0.06570340692996979, 0.09145266562700272, -0.011829939670860767, 0.09483158588409424, -0.07818719744682312, -0.03117421083152294], [-0.1224304735660553, 0.02697666920721531, 0.08239918947219849, -0.06358178704977036, 0.11483331024646759, 0.010882535949349403, 0.11412448436021805, -0.03745809942483902, 0.11103390157222748, 0.11786942183971405, 0.01721370220184326, -0.0215663630515337, 0.09552713483572006, -0.053639005869627, 0.06209850311279297, -0.031922925263643265, -0.08553878217935562, -0.10444210469722748, -0.030807064846158028, -0.15717428922653198, 0.06737598776817322, -0.018066901713609695, -0.03325248882174492, 0.11684339493513107, -0.04902549833059311, 0.13307195901870728, 0.05144002288579941, -0.09654200077056885, 0.059647902846336365, 0.005189571529626846, -0.03065820224583149, -0.03342774882912636, 0.004909848794341087, 0.04156772047281265, -0.024284621700644493, -0.07716426253318787, -0.05211707577109337, -0.006803058087825775, 0.020494859665632248, -0.15775880217552185, 0.05687916278839111, -0.05623409524559975, 0.0864914134144783, 0.08030349016189575, 0.026736188679933548, -0.2291729748249054, 0.007968228310346603, 0.016445355489850044, 0.06571533530950546, -0.04175812005996704, -0.12653402984142303, 0.0008987457840703428, 0.029145391657948494, -0.06597399711608887, -0.06269961595535278, 0.13565360009670258, 0.10732326656579971, 0.09214536100625992, 0.10861962288618088, 0.01532887201756239, -0.09808916598558426, 0.0662965476512909, 0.0001996223727473989, 0.11894083768129349, -0.0002771029539871961, 0.08209966868162155, 0.09604986757040024, 0.11983177810907364, 0.03560760244727135, -0.06560556590557098, 0.1386784315109253, 0.08044294267892838, 0.04440966993570328, 0.08284742385149002, 0.09223855286836624, 0.12556083500385284, 0.09404346346855164, 0.13449442386627197, 0.14137379825115204, 0.044800449162721634, -0.07173804938793182, -0.03157733008265495, 0.031506262719631195, 0.01634088344871998, 0.06989244371652603, -0.05748577043414116, 0.05333739146590233, -0.0287527646869421, 0.04370679333806038, 0.18209493160247803, 0.013266501016914845, 0.08414609730243683, -0.050566770136356354, 0.009105636738240719, -0.03292374685406685, -0.03196890652179718, 0.12119057774543762, -0.056250158697366714, 0.0027948871720582247, 0.05050366371870041, -0.08187412470579147, -0.06856495141983032, 0.023927778005599976, 0.04661186411976814, -0.030213462188839912, -0.007494417950510979, -0.02246849797666073, 0.06940130889415741, 0.14790242910385132, -0.10700057446956635, 0.12245779484510422, 0.0694195032119751, 0.02394053526222706, -0.03670554980635643, 0.0013616193318739533, -0.0790276750922203, -0.06187300756573677, 0.007805241271853447, 0.11940297484397888, -0.046235088258981705, -0.008891545236110687, -0.03775373473763466, 0.04265155643224716, 0.054372962564229965, -0.04697875678539276, 0.0004171604523435235, -0.08362609148025513, 0.009269998408854008], [0.06598441302776337, 0.01409809198230505, -0.1405109167098999, 0.012623108923435211, -0.3508019745349884, 0.08831930160522461, -0.18534474074840546, -0.23574195802211761, -0.16890515387058258, -0.07902441173791885, -0.002175308298319578, 0.0006672248127870262, -0.0013693909859284759, -0.013062439858913422, -0.13512545824050903, 0.01734486036002636, -0.07661395519971848, 0.020641954615712166, 0.02565082162618637, -0.017509380355477333, -0.015824776142835617, -0.12128856033086777, -0.21543167531490326, -0.10229142755270004, 0.05726224556565285, -0.10281268507242203, 0.04949086531996727, 0.10654222220182419, -0.01617971993982792, -0.13262207806110382, -0.13106383383274078, -0.06224390119314194, 0.09454837441444397, -0.09764518588781357, 0.13649019598960876, 0.025889573618769646, -0.048306986689567566, 0.07506585121154785, -0.08487628400325775, 0.21615657210350037, 0.019006798043847084, 0.010791370645165443, -0.10645081847906113, -0.058090969920158386, 0.05854583531618118, 0.2695949077606201, -0.0882820188999176, -0.11025194823741913, 0.04375217482447624, -0.13320863246917725, 0.01541774719953537, 0.015886913985013962, 0.023212991654872894, 0.06476840376853943, 0.1412537693977356, -0.15269820392131805, -0.06624330580234528, -0.028027601540088654, -0.13728567957878113, 0.03316863998770714, 0.026138680055737495, -0.02780863642692566, -0.05256010964512825, -0.038627058267593384, 0.016702398657798767, -0.10803968459367752, -0.09380287677049637, -0.02178066596388817, -0.008699391037225723, 0.11534541845321655, -0.07124903053045273, -0.08179865032434464, -0.14763189852237701, -0.049480073153972626, -0.09762438386678696, 0.009467021562159061, 0.0597287155687809, 0.04825504124164581, -0.0940340906381607, 0.07635443657636642, 0.060621969401836395, -0.020444490015506744, 0.13874250650405884, -0.072239950299263, -0.10066511482000351, 0.04410717263817787, -0.19409418106079102, -0.02584858052432537, -0.014966659247875214, -0.04948439076542854, -0.03275701403617859, -0.1119387075304985, 0.09582256525754929, 0.0031514368019998074, 0.005147887859493494, -0.14261624217033386, -0.11532114446163177, -0.14283114671707153, 0.03690369427204132, -0.08083643764257431, -0.07238592952489853, -0.0777437835931778, -0.016942590475082397, 0.03449693322181702, -0.12223594635725021, 0.04417246952652931, 0.09341786056756973, -0.05368240550160408, -0.014521430246531963, 0.09880425035953522, -0.016599686816334724, -0.01801961101591587, 0.004137871786952019, -0.07877612113952637, -0.047995675355196, 0.05073066055774689, 0.08091901987791061, -0.20027795433998108, -0.059129565954208374, 0.09125573188066483, -0.022059231996536255, -0.06252213567495346, -0.10167161375284195, 0.01856166683137417, -0.24953693151474, -0.030167875811457634, 0.09314260631799698, -0.08620443940162659], [-0.13213329017162323, 0.07481343299150467, -0.14114683866500854, 0.03513246402144432, 0.1297367364168167, -0.3704129755496979, 0.07465800642967224, 0.09014979749917984, 0.11760333180427551, 0.17865751683712006, 0.09895553439855576, -0.2211180478334427, 0.2519950270652771, 0.03364289551973343, -0.07893012464046478, 0.3690027594566345, 0.3200562000274658, -0.06278926879167557, 0.09007077664136887, 0.11571891605854034, 0.06996351480484009, -0.19252227246761322, -0.17340268194675446, 0.15976634621620178, -0.0009932303801178932, -0.06718803197145462, 0.33166512846946716, -0.22649195790290833, 0.01049857959151268, -0.14811767637729645, 0.1859017312526703, 0.0696592703461647, -0.04277558624744415, 0.08504273742437363, -0.028191326186060905, 0.18559476733207703, 0.03935018181800842, 0.0725979134440422, 0.21321094036102295, 0.18811240792274475, 0.009860638529062271, -0.06499356776475906, 0.04637569189071655, -0.24869075417518616, -0.2764061689376831, -0.022418906912207603, -0.0014875074848532677, 0.22730082273483276, -0.07555026561021805, 0.11128011345863342, 0.042469825595617294, 0.07843876630067825, 0.022166799753904343, 0.02527199313044548, -0.25690844655036926, 0.28796038031578064, 0.21018679440021515, -0.037677738815546036, 0.1011403501033783, 0.01880214922130108, 0.09479890763759613, 0.14849171042442322, 0.15449020266532898, -0.28058922290802, 0.09962081164121628, -0.18579119443893433, 0.2570450007915497, 0.27402645349502563, -0.014079389162361622, 0.05710142105817795, -0.05478016287088394, 0.04770544543862343, -0.059548575431108475, -0.31146398186683655, 0.2894521653652191, -0.14877094328403473, -0.13648900389671326, -0.09418296068906784, 0.3717350363731384, 0.2865552306175232, -0.13792666792869568, 0.23602083325386047, 0.3316793739795685, -0.07679357379674911, -0.45816344022750854, 0.24929648637771606, 0.041997939348220825, -0.08223268389701843, 0.18111103773117065, -0.07981203496456146, -0.2831914722919464, -0.12884873151779175, 0.10296139121055603, -0.20837025344371796, -0.022289123386144638, -0.04299577698111534, -0.09654662758111954, -0.1893467754125595, 0.09215501695871353, -0.0810188502073288, 0.14927399158477783, 0.02425333857536316, -0.28361251950263977, -0.11043489724397659, -0.022136323153972626, -0.07235988974571228, 0.08015945553779602, -0.3170389235019684, 0.34500038623809814, -0.08392203599214554, 0.03888826444745064, 0.23495614528656006, 0.004644092638045549, -0.01940944418311119, -0.2209426611661911, -0.14138172566890717, 0.08657366037368774, 0.2250228077173233, 0.1299925446510315, -0.10672182589769363, -0.2491285800933838, -0.09459126740694046, 0.16726793348789215, -0.09873383492231369, -0.011568262241780758, 0.3709222674369812, -0.04147277772426605, -0.2894684374332428], [0.12384194880723953, 0.04232155159115791, 0.054741665720939636, 0.02648015134036541, -0.1913715898990631, -0.022671008482575417, -0.30663028359413147, -0.17856499552726746, -0.06701835989952087, -0.11029807478189468, 0.04615071415901184, 0.0918179601430893, -0.02206672728061676, -0.04097853973507881, -0.10539481788873672, -0.0023398061748594046, 0.02223665826022625, 0.05313977971673012, 0.0762966051697731, 0.3083653748035431, -0.07742689549922943, 0.052821118384599686, -0.011964256875216961, -0.22000670433044434, -0.03098953701555729, -0.02398964762687683, -0.01878984086215496, 0.1466379165649414, -0.06785166263580322, -0.11272548139095306, -0.1400652825832367, -0.06701723486185074, 0.2690248489379883, -0.04610631242394447, -0.03735059127211571, 0.09822416305541992, 0.058114346116781235, -0.11569344252347946, -0.011242052540183067, 0.15666428208351135, -0.04288208484649658, 0.010720683261752129, -0.06349559128284454, -0.11711149662733078, -0.06994181871414185, 0.1383204460144043, -0.08361493796110153, -0.13633352518081665, 0.16470222175121307, -0.15465061366558075, -0.06353392452001572, -0.00550637673586607, 0.0284052025526762, -0.1881270706653595, 0.22990919649600983, 0.09235738962888718, -0.004380062222480774, -0.0019350507063791156, -0.033594559878110886, 0.04902653396129608, 0.13365969061851501, 0.03358685225248337, 0.12556587159633636, 0.10179930180311203, 0.04439576342701912, -0.036650754511356354, -0.07238096743822098, -0.18396145105361938, 0.12360509485006332, 0.1217392086982727, -0.09332572668790817, 0.03700988367199898, 0.009457130916416645, -0.03593110665678978, 0.12516741454601288, -0.01268231961876154, -0.17972023785114288, 0.026514384895563126, -0.026644986122846603, 0.0017455248162150383, -0.004974358715116978, 0.027277305722236633, 0.014405699446797371, 0.034936800599098206, -0.21364200115203857, -0.08537190407514572, 0.008603036403656006, 0.002737560775130987, 0.001909514656290412, -0.1732558161020279, 0.05414490029215813, -0.07989818602800369, -0.059080466628074646, -0.01628214865922928, -0.04621695727109909, 0.07336941361427307, -0.013647361658513546, -0.0818958729505539, -0.13310539722442627, -0.0710473284125328, -0.04677976295351982, -0.03442034497857094, 0.06743118911981583, 0.145550936460495, -0.1987844556570053, -0.06073303520679474, 0.05722217634320259, -0.03712562471628189, -0.13181644678115845, -0.007410900667309761, -0.08362284302711487, 0.015484338626265526, 0.0183677077293396, -0.016489114612340927, -0.21280275285243988, 0.17071977257728577, 0.24924466013908386, 0.045411139726638794, -0.0009609319968149066, 0.1671348214149475, 0.00904836319386959, -0.0738188773393631, 0.032468341290950775, -0.019170597195625305, 0.052784428000450134, -0.04697411134839058, -0.010962402448058128, -0.03023354522883892], [0.058885131031274796, 0.0031780055724084377, -0.18545828759670258, -0.00919274426996708, -0.2673938274383545, -0.045572586357593536, -0.04586212709546089, -0.03879017382860184, -0.15240421891212463, -0.07140500843524933, -0.0359480194747448, -0.014721650630235672, 0.04325661063194275, 0.0014257836155593395, -0.03038494661450386, -0.048908937722444534, 0.28133338689804077, 0.011812771670520306, -0.07099033892154694, 0.15249690413475037, 0.15086153149604797, -0.04597868397831917, -0.0326601080596447, 0.08706764131784439, -0.013044550083577633, -0.022526783868670464, -0.02674868330359459, -0.021540816873311996, -0.10305573791265488, -0.07507168501615524, -0.01737932860851288, 0.021723337471485138, 0.07390889525413513, 0.03784856200218201, -0.06432010978460312, -0.09804531931877136, 0.02074320614337921, -0.043867938220500946, 0.03590960428118706, 0.14725156128406525, 0.03625171631574631, -0.014188703149557114, -0.045014142990112305, 0.02207431197166443, 0.02233612909913063, 0.23342064023017883, -0.1297810971736908, -0.08671039342880249, 0.25675201416015625, -0.00599709851667285, 0.1061611995100975, -0.003253017319366336, -0.017040617763996124, -0.024244152009487152, 0.13921062648296356, -0.1002340167760849, -0.05994474142789841, 0.02700909599661827, -0.10953690856695175, 0.06256820261478424, 0.1988157033920288, 0.04244958236813545, -0.0657813623547554, -0.08442677557468414, 0.012409045360982418, 0.06380685418844223, -0.08630722016096115, -0.12207993119955063, 0.057939380407333374, 0.0455465242266655, -0.08586492389440536, -0.1374766081571579, 0.08819539099931717, 0.05047682672739029, -0.14628569781780243, -0.07198493182659149, -0.07916373014450073, -0.02367481403052807, 0.12727168202400208, -0.029876381158828735, 0.11331474035978317, 0.10840772092342377, -0.027075624093413353, 0.07051075249910355, -0.16068127751350403, 0.10777246952056885, -0.0025928306858986616, 0.04203345999121666, -0.013133959844708443, -0.07242273539304733, -0.07718589901924133, -0.005572717171162367, 0.02538876235485077, -0.010417524725198746, 0.1597677618265152, -0.012782154604792595, -0.11789684742689133, -0.024470163509249687, -0.13908323645591736, -0.01581864431500435, 0.033549945801496506, -0.04513244703412056, 0.025319917127490044, 0.0512649305164814, -0.06999395042657852, 0.0006915127742104232, -0.1277143508195877, 0.04438448324799538, -0.19525381922721863, -0.03172356262803078, -0.04289150610566139, -0.13086292147636414, -0.032362181693315506, 0.05413898080587387, -0.009959055110812187, 0.08607543259859085, 0.0011067837476730347, 0.1845839023590088, -0.017373016104102135, -0.09773159772157669, 0.08827688544988632, -0.06797115504741669, -0.0469466894865036, -0.2026253044605255, 0.08868826925754547, 0.09876524657011032, 0.1612245887517929, 0.03263913467526436], [0.028579968959093094, -0.13681289553642273, -0.09603661298751831, -0.07583155483007431, -0.21493279933929443, -0.036772679537534714, -0.044451162219047546, -0.03475202992558479, -0.2663477659225464, -0.09783615916967392, 0.08015912771224976, -0.04385868087410927, 0.025970540940761566, -0.0714137852191925, -0.019125334918498993, -0.047743622213602066, 0.10347731411457062, 0.035055384039878845, 0.08684301376342773, 0.10718785226345062, 0.001437708386220038, -0.028495805338025093, -0.01749640330672264, -0.01408048439770937, -0.08985533565282822, -0.11105621606111526, 0.07617936283349991, 0.15786156058311462, -0.1800943911075592, -0.2021287977695465, -0.07706283777952194, 0.07820939272642136, 0.08475098758935928, 0.0003363229043316096, 0.09003520756959915, 0.09035835415124893, 0.003272710833698511, -0.08959607779979706, -0.0019202582770958543, 0.1902819275856018, -0.048594437539577484, 0.04510275274515152, -0.10439574718475342, 0.022221947088837624, -0.03446376696228981, 0.4104124903678894, 0.026101285591721535, -0.005847069434821606, 0.13456346094608307, -0.06458084285259247, -0.003570913104340434, 0.06724192947149277, 0.001427204697392881, 0.08216852694749832, 0.08559803664684296, -0.07812958210706711, -0.1996399611234665, -0.09859897196292877, -0.09102405607700348, -0.11649482697248459, 0.0965559110045433, -0.02988184243440628, -0.016649354249238968, -0.015956301242113113, -0.04791301488876343, 0.00011127983452752233, -0.1612517386674881, -0.28052961826324463, 0.09199907630681992, 0.14196456968784332, -0.011198442429304123, 0.02003607526421547, 0.011006899178028107, 0.11490267515182495, -0.1428290158510208, -0.11810193955898285, -0.02220076136291027, -0.023726489394903183, -0.030917327851057053, -0.10567125678062439, 0.026825398206710815, 0.024677928537130356, 0.07724917680025101, -0.0030262006912380457, -0.1573907881975174, 0.04024701938033104, -0.03529835119843483, -0.21869105100631714, -0.04328583553433418, -0.0915302261710167, -0.052846360951662064, -0.15993501245975494, 0.0777667909860611, 0.07008921355009079, -0.0665242150425911, -0.0840272307395935, -0.15758317708969116, -0.21613144874572754, -0.003790001617744565, 0.09046361595392227, -0.11921314150094986, 0.07115713506937027, -0.15470336377620697, -0.07476071268320084, -0.10474316775798798, 0.06423047930002213, -0.12571217119693756, 0.11214786022901535, -0.10012690722942352, -0.053025614470243454, -0.10855241119861603, -0.11885256320238113, 0.07272488623857498, -0.18387313187122345, -0.03269362449645996, 0.192148819565773, 0.03839381784200668, 0.14269593358039856, -0.20331576466560364, 0.17755089700222015, 0.03751985356211662, -0.08218859136104584, -0.14854949712753296, -0.21941672265529633, 0.09269767999649048, 0.08373026549816132, -0.02508438006043434, -0.23200486600399017], [0.018725262954831123, 0.018572011962532997, 0.04426146671175957, -0.09670858085155487, -0.25940200686454773, -0.003116072155535221, -0.1582624912261963, -0.08243458718061447, -0.20830143988132477, -0.08581186830997467, 0.009180467575788498, -0.009738689288496971, -0.04403883218765259, -0.020432505756616592, 0.05766204372048378, -0.06496275961399078, 0.02455272525548935, 0.09992355108261108, 0.17651759088039398, 0.20408226549625397, 0.020322976633906364, -0.13536155223846436, -0.12743088603019714, 0.003008499974384904, -0.00862608477473259, -0.18505561351776123, -0.08216609805822372, 0.02580636367201805, -0.16059722006320953, -0.10045835375785828, 0.017800379544496536, -0.0005720408516936004, -0.03674093261361122, 0.10708847641944885, 0.049139171838760376, -0.017673330381512642, -0.06674633175134659, -0.0059792655520141125, -0.08356641978025436, 0.07774617522954941, 0.024157550185918808, -0.003831978654488921, -0.052817754447460175, 0.01254165731370449, 0.07748924195766449, 0.24122051894664764, -0.02590136229991913, 0.0737762376666069, 0.10059910267591476, 0.07269550859928131, 0.09178871661424637, 0.039970699697732925, -0.023974904790520668, -0.035370662808418274, 0.20002886652946472, -0.1299874484539032, -0.03262669965624809, 0.07583384215831757, 0.03079335018992424, -0.0015953207621350884, 0.04865514487028122, 0.04426572099328041, 0.06761853396892548, -0.02111748233437538, -0.030994851142168045, -0.025996556505560875, -0.09043192118406296, -0.19859452545642853, 0.04453430697321892, 0.05089893937110901, -0.2950693964958191, -0.1674608588218689, -0.07382810115814209, 0.017194077372550964, 0.02642219141125679, -0.040018193423748016, 0.040192682296037674, -0.11241010576486588, -0.1310054510831833, -0.03184828534722328, 0.08412108570337296, -0.011137239634990692, 0.010549703612923622, 0.15212292969226837, 0.05490560457110405, 0.016554152593016624, -0.06844253838062286, -0.2402191311120987, -0.11894436180591583, -0.18036501109600067, -0.09250571578741074, -0.1819123923778534, 0.037873174995183945, -0.10389307141304016, 0.08494997769594193, -0.1777004599571228, -0.0409865565598011, 0.013667093589901924, 0.1274571269750595, -0.09307292848825455, -0.0006208409904502332, 0.059669092297554016, -0.0840795636177063, -0.0637432187795639, -0.15447135269641876, 0.05952923372387886, 0.03682012856006622, -0.08214040100574493, -0.19433534145355225, -0.1268371045589447, -0.025802498683333397, 0.02589215710759163, -0.01897507533431053, -0.0902906060218811, -0.004871212411671877, 0.15808655321598053, 0.13747772574424744, 0.1034640446305275, -0.032038383185863495, 0.1366632878780365, 0.13179026544094086, -0.0051707117818295956, -0.05074659362435341, 0.11558973789215088, -0.09477467089891434, 0.022561483085155487, 0.024793734773993492, 0.11942765861749649], [0.026650214567780495, 0.014120230451226234, -0.02345390059053898, -0.027974288910627365, 0.041261520236730576, 0.07812333106994629, -0.05926616117358208, 0.09993655234575272, -0.025718046352267265, 0.054581791162490845, 0.03781850263476372, 0.0015745670534670353, 0.04870295152068138, -0.0795191153883934, -0.1257360577583313, -0.07592950016260147, 0.04826749488711357, 0.023598503321409225, -0.0022815149277448654, 0.02128051407635212, -0.0027289055287837982, 0.09399500489234924, -0.09624836593866348, -0.014642828144133091, -0.05996469408273697, -0.024220284074544907, -0.05160445347428322, 0.009295816533267498, -0.08209506422281265, -0.11219634115695953, -0.053599823266267776, 0.03265487775206566, 0.006618767976760864, -0.07730598747730255, -0.059952523559331894, -0.010375450365245342, -0.11136715859174728, -0.07799648493528366, -0.08336806297302246, 0.08076488226652145, 0.01369988452643156, 0.05440376326441765, 0.014059924520552158, -0.05246470868587494, -0.0022376328706741333, 0.10412540286779404, -0.04073980078101158, -0.03306010738015175, -0.12247134745121002, -0.05844515562057495, -0.09502923488616943, 0.0054396060295403, -0.055627625435590744, 0.06900637596845627, -0.010757508687675, -0.04604877531528473, -0.05600817874073982, -0.057350024580955505, 0.01684139110147953, 0.04163546860218048, 0.05794508010149002, 0.1141028106212616, -0.061089955270290375, -0.0642152726650238, 0.06476002186536789, -0.037164606153964996, -0.03764738887548447, 0.011503704823553562, 0.0033490757923573256, 0.0832759365439415, -0.01770014688372612, 0.0012488947249948978, -0.030470741912722588, 0.00052061298629269, -0.09607149660587311, -0.058389317244291306, 0.023953530937433243, 0.1270594745874405, 0.013507488183677197, -0.024466881528496742, -0.06904342025518417, -0.01994815282523632, 0.0567793995141983, 0.08019576966762543, -0.020858516916632652, 0.05638152360916138, -0.05812748149037361, 0.11579269915819168, 0.049610089510679245, 0.05688001960515976, 0.06343239545822144, 0.11763811856508255, -0.10161294788122177, 0.07758215814828873, -0.05612018704414368, 0.093284972012043, 0.04782002046704292, 0.11163973063230515, -0.03590945526957512, 0.022727785632014275, -0.055369339883327484, -0.0022401188034564257, -0.11252186447381973, 0.05488305911421776, -0.028771260753273964, -0.10650347173213959, 0.06280145049095154, -0.12528319656848907, 0.0834081694483757, -0.14793947339057922, -0.027171695604920387, -0.00019886548398062587, -0.053275927901268005, 0.012418923899531364, 0.01548701897263527, 0.12459933757781982, -0.03229186683893204, 0.09763079881668091, -0.03155392408370972, -0.012623138725757599, 0.014026413671672344, -0.01884535141289234, 0.07710020989179611, -0.018819427117705345, 0.058934226632118225, -0.040491264313459396, 0.025881506502628326, -0.07197340577840805], [0.011561516672372818, -0.1308632642030716, 0.09383265674114227, -0.05706784129142761, 0.19339585304260254, 0.07723250985145569, 0.04418636113405228, 0.030728161334991455, 0.08175964653491974, 0.0922829806804657, -0.012230689637362957, 0.0016785075422376394, 0.1466967761516571, -0.0747702345252037, -0.004927613772451878, 0.03358547389507294, -0.14001932740211487, -0.11864136159420013, -0.08611912280321121, -0.04430545121431351, 0.08011209964752197, -0.045424096286296844, 0.017240174114704132, 0.18286864459514618, 0.035640519112348557, 0.11553408205509186, 0.05290640518069267, -0.15224972367286682, 0.07185832411050797, -0.0042462716810405254, -0.08482898026704788, 0.11164046823978424, 0.13521209359169006, -0.035019829869270325, -0.026001956313848495, -0.0855296179652214, -0.1373552829027176, -0.07328350096940994, 0.07894603908061981, -0.1255103051662445, 0.054550547152757645, -0.03690309822559357, 0.0029864246025681496, 0.06329750269651413, -0.05712643265724182, -0.20546621084213257, -0.08455976098775864, 0.049388982355594635, -0.020128158852458, -0.0772278681397438, -0.018352534621953964, 0.005695031955838203, 0.0606948547065258, -0.10641710460186005, -0.11033988744020462, 0.07622484117746353, 0.04403694346547127, 0.09049724787473679, 0.13728588819503784, 0.02698710933327675, -0.1109434962272644, 0.09839693456888199, 0.0681343674659729, 0.0877406969666481, 0.10700772702693939, 0.01904364861547947, 0.11411500722169876, 0.16073249280452728, 0.014280537143349648, -0.08943086117506027, 0.11048541218042374, 0.05713176727294922, 0.055181775242090225, 0.0447673462331295, -0.05374639108777046, 0.08773108571767807, -0.05153847485780716, 0.05069519951939583, 0.03835300728678703, -0.016931695863604546, -0.05513201653957367, 0.08100314438343048, -0.02062106877565384, -0.030179977416992188, 0.006569280289113522, -0.006920160725712776, 0.13907766342163086, 0.02713106945157051, 0.09754560887813568, 0.1217108741402626, -0.06008496135473251, 0.10481332242488861, 0.08777915686368942, -0.014026157557964325, -0.005017644725739956, 0.057402484118938446, 0.19272232055664062, 0.037599142640829086, 0.06798173487186432, -0.03066863864660263, 0.09444873780012131, -0.05378062278032303, 0.14702947437763214, 0.025291208177804947, -0.01722787693142891, -0.08237609267234802, 0.008960653096437454, -0.09471072256565094, 0.05067611113190651, 0.05020615831017494, 0.05928148701786995, 0.026098351925611496, 0.02693244069814682, -0.06520917266607285, 0.06970040500164032, -0.08528204262256622, -0.0406508594751358, -0.1209973618388176, 0.014039936475455761, 0.02023863047361374, -0.12318216264247894, -0.004243665374815464, 0.063628189265728, 0.012589302845299244, -0.017533782869577408, 0.12085285037755966, -0.13789451122283936, -0.05255749449133873], [-0.06956110894680023, 0.0331893153488636, 0.04042833298444748, 0.11209551990032196, -0.0399131216108799, -0.10086433589458466, -0.018589036539196968, 0.06686768680810928, -0.191554993391037, 0.052014198154211044, -0.05517973005771637, -0.24139294028282166, -0.04290816932916641, -0.027435626834630966, 0.20086294412612915, -0.11697898805141449, 0.051405344158411026, -0.06385104358196259, -0.17901110649108887, 0.07486075162887573, 0.11339782923460007, -0.04514731466770172, 0.04870114102959633, -0.007514048367738724, 0.09133554995059967, 0.15296681225299835, -0.0662071704864502, 0.11238168925046921, -0.11129412055015564, 0.02797679230570793, -0.20452533662319183, 0.142583429813385, 0.08231311291456223, 0.1359563171863556, 0.0501476526260376, 0.06403548270463943, 0.0437837615609169, -0.03576004132628441, 0.06307371705770493, -0.003968496341258287, 0.038929153233766556, 0.025597402825951576, -0.047496989369392395, -0.18145020306110382, -0.07047901302576065, -0.13140413165092468, -0.13599072396755219, 0.0687747374176979, -0.01749958097934723, 0.033385492861270905, -0.02068736031651497, 0.055627454072237015, -0.151108980178833, 0.02790168672800064, -0.013855323195457458, -0.0717826709151268, 0.05746454745531082, 0.007852145470678806, -0.06985291093587875, -0.09897147864103317, 0.06249441206455231, -0.016321560367941856, 0.00636405311524868, 0.16407878696918488, 0.13019591569900513, 0.01709868758916855, -0.15726540982723236, -0.007891598157584667, -0.08667495846748352, -0.03525349497795105, -0.022291390225291252, -0.02180703729391098, 0.08948899060487747, 0.09238261729478836, 0.009711758233606815, -0.08491280674934387, 0.10767049342393875, 0.0039628176018595695, 0.09392118453979492, 0.07786668837070465, -0.03433431312441826, -0.06385983526706696, -0.11177681386470795, 0.008127018809318542, -0.13270610570907593, -0.11409562081098557, -0.07567884773015976, -0.04145156219601631, 0.11838898807764053, 0.04419392719864845, -0.021161288022994995, 0.06626851111650467, -0.044704098254442215, 0.06326215714216232, 0.016826311126351357, -0.04633481428027153, 0.17993055284023285, 0.03667588531970978, 0.2514045834541321, -0.02294311113655567, -0.0081280916929245, -0.034618083387613297, 0.04897007718682289, 0.09406425803899765, 0.030575325712561607, 0.09287718683481216, -0.27944308519363403, -0.16736862063407898, -0.14735347032546997, 0.10853594541549683, -0.003675762563943863, 0.013852892443537712, -0.10014554113149643, -0.05254902318120003, -0.21066789329051971, -0.009650521911680698, 0.18963517248630524, -0.08446774631738663, 0.06856206804513931, 0.049091268330812454, -0.2710246741771698, 0.003963871859014034, 0.002763747237622738, 0.013155262917280197, -0.010281500406563282, -0.03403111919760704, -0.016271261498332024, 