{"d_model": 128, "d_dict": 512, "k": 32, "encoder_weight": [[-0.08652549237012863, 0.04511004686355591, 0.016697576269507408, -0.02973903901875019, 0.04749039560556412, 0.028256529942154884, 0.09871859848499298, -0.058855343610048294, 0.07539582997560501, 0.1195128932595253, -0.03455030545592308, 0.029113618656992912, 0.1559676229953766, 0.05495971068739891, -0.03799642249941826, -0.020826147869229317, -0.11786013841629028, -0.18896499276161194, 0.06530264765024185, 0.0388609804213047, 0.06223278120160103, 0.04766782373189926, -0.04387488588690758, 0.1347792148590088, 0.02650543861091137, 0.14494772255420685, -0.017868980765342712, -0.050892118364572525, 0.09345165640115738, -0.02012800984084606, -0.017147323116660118, 0.031953468918800354, 0.04623915255069733, 0.023614196106791496, -0.08701536059379578, 0.045575834810733795, -0.03637222945690155, -0.12897387146949768, 0.15687459707260132, -0.09112193435430527, -0.03446848690509796, -0.08558377623558044, -0.10045682638883591, 0.005182683002203703, -0.08047997951507568, -0.07992866635322571, 0.02055717259645462, 0.13683103024959564, -0.016052262857556343, -0.04540496692061424, -0.14950542151927948, 0.00869214441627264, 0.08034484088420868, 0.008814940229058266, -0.05834253132343292, 0.10264361649751663, 0.0972740650177002, 0.07523535937070847, 0.11443055421113968, -0.060961078852415085, -0.20618906617164612, 0.10809697210788727, -0.005802571773529053, 0.06858765333890915, 0.04087080806493759, 0.013413481414318085, 0.0075087775476276875, 0.12848202884197235, 0.05960927903652191, -0.13113239407539368, -0.013930238783359528, 0.03373313322663307, 0.0014400874497368932, 0.10133183002471924, 0.07903958112001419, 0.16916915774345398, 0.0010658539831638336, -0.008228350430727005, 0.03734071925282478, 0.019216453656554222, -0.109481081366539, -0.08169231563806534, 0.055976349860429764, 0.07073023170232773, 0.020278403535485268, 0.022877372801303864, 0.05208509787917137, -0.053919605910778046, -0.03773957118391991, -0.027969393879175186, -0.10727287828922272, 0.14360898733139038, 0.07455317676067352, 0.07188942283391953, -0.18653099238872528, 0.052431896328926086, 0.051489461213350296, 0.06796517968177795, -0.012860896065831184, -0.020809244364500046, 0.03839372843503952, -0.01288214698433876, -0.010798066854476929, -0.04298520088195801, 0.059351880103349686, 0.011876339092850685, 0.015307224355638027, 0.04504229873418808, 0.08897683769464493, -0.1390099823474884, -0.007826539687812328, 0.00232793390750885, 0.0675596371293068, -0.0061663007363677025, 0.004079510923475027, 0.07727622240781784, -0.010433499701321125, -0.05823524668812752, 0.051337335258722305, 0.04197299852967262, -0.12129619717597961, 0.16742749512195587, 0.09642284363508224, 0.050896886736154556, -0.04636479914188385, -0.032336827367544174, -0.15058672428131104, 0.08171027898788452], [0.04063893482089043, -0.07334879785776138, 0.08063948154449463, 0.00790446251630783, 0.0032233481761068106, -0.002682909369468689, 0.003531334688887, -0.018861830234527588, -0.034072473645210266, 0.0749557763338089, -0.02573811262845993, 0.08058518171310425, 0.06108289957046509, 0.028214652091264725, -0.0709586814045906, -0.07784456759691238, -0.051063019782304764, -0.06624175608158112, -0.014034724794328213, -0.04908975958824158, 0.05555279180407524, 0.020130880177021027, 0.0233121607452631, 0.06563503295183182, -0.03575251251459122, 0.02827691100537777, 0.05992608889937401, -0.09906641393899918, 0.01470315270125866, -0.0696239247918129, 0.08324067294597626, 0.09717129915952682, -0.02720492333173752, 0.03426332771778107, -0.02064666897058487, -0.023849204182624817, -0.025966757908463478, -0.024326447397470474, 0.10571155697107315, -0.09414642304182053, 0.047881223261356354, 0.027447659522294998, 0.0010914216982200742, -0.016805440187454224, -0.00475521944463253, -0.014465305022895336, -0.019410207867622375, 0.06852856278419495, 0.039861418306827545, -0.07490716129541397, -0.08921057730913162, 0.09322327375411987, 0.06140923500061035, -0.12318446487188339, -0.1425461322069168, -0.013589597307145596, 0.03412315249443054, 0.030085165053606033, 0.12069793045520782, 0.010609645396471024, -0.15689465403556824, 0.035165950655937195, -0.05543890967965126, 0.010001564398407936, 0.061378415673971176, 0.017718464136123657, 0.07376565784215927, 0.026479072868824005, 0.04440319538116455, -0.06423816084861755, 0.021552512422204018, 0.0040547652170062065, 0.07679881155490875, 0.007922487333416939, 0.05334783345460892, 0.004607484210282564, -0.01751680113375187, 0.026223236694931984, 0.012628035619854927, 0.03912726417183876, -0.050319232046604156, 0.02698521316051483, -0.09424977749586105, 0.025053031742572784, 0.08238261193037033, -0.03151753917336464, 0.05112505704164505, 0.02108394354581833, -0.010766124352812767, 0.07994627952575684, -0.03663565218448639, 0.018029168248176575, 0.02056427113711834, -0.0622175857424736, -0.04299229010939598, 0.002190342405810952, 0.042103953659534454, -0.05884009972214699, -0.015432637184858322, -0.015492670238018036, -0.015617512166500092, -0.014126135967671871, 0.021057188510894775, -0.10805200785398483, 0.017614709213376045, 0.014245050959289074, -0.08622542768716812, -0.09534937888383865, 0.1423543393611908, -0.042004700750112534, 0.09959739446640015, 0.04277897626161575, -0.016721613705158234, 0.041229866445064545, 0.021590186282992363, -0.007407068274915218, 0.04252323508262634, -0.05897107347846031, 0.025277357548475266, 0.12044132500886917, 0.0007399744936265051, 0.07031871378421783, 0.0417461059987545, 0.01740255393087864, -0.05910374969244003, 0.07375825196504593, -0.05534519627690315, 0.05431852489709854], [-0.021765325218439102, 0.019387148320674896, 0.020014826208353043, -0.08658184856176376, 0.1798037737607956, 0.03348715603351593, 0.21293221414089203, -0.09254858642816544, 0.16290445625782013, 0.10009085386991501, 0.04307161271572113, 0.002927695866674185, 0.0845625102519989, 0.03282452002167702, 0.047943856567144394, -0.06400608271360397, -0.20815353095531464, -0.1536661833524704, -0.04974273592233658, -0.23225875198841095, 0.16523848474025726, 0.020394889637827873, 0.1147572249174118, 0.3019746243953705, 0.04969152435660362, 0.11966737359762192, 0.025112375617027283, -0.09321372210979462, 0.10440519452095032, 0.054439082741737366, 0.09104456752538681, 0.11315064877271652, -0.05444582179188728, 0.10190920531749725, 0.05967538058757782, -0.10882211476564407, -0.07931743562221527, -0.12825161218643188, 0.008942595683038235, -0.12168552726507187, 0.04813121631741524, 0.025559747591614723, -0.09209482371807098, 0.08200249075889587, -0.07271025329828262, -0.23112468421459198, 0.10789194703102112, 0.06628628820180893, 0.03070681542158127, -0.04447508975863457, -0.10830598324537277, 0.06524861603975296, 0.04758786782622337, -0.11881259083747864, -0.19036073982715607, 0.09199459850788116, 0.17185549437999725, 0.08830724656581879, 0.15688733756542206, 0.06940154731273651, -0.09851381182670593, 0.1285872906446457, -0.029007915407419205, 0.0821501836180687, -0.03311486914753914, 0.04436493292450905, 0.20335634052753448, 0.1014028787612915, -0.031856756657361984, -0.11643615365028381, 0.1910410225391388, 0.04251648858189583, 0.04455936700105667, 0.07315627485513687, 0.03811781480908394, 0.14514167606830597, 0.04617910459637642, 0.0503215454518795, 0.07919508218765259, -0.02275150455534458, -0.08915524184703827, -0.04734816774725914, 0.035736385732889175, 0.0980605036020279, -0.025111619383096695, -0.017832351848483086, 0.0820421501994133, -0.059067774564027786, 0.014835926704108715, 0.08457879722118378, -0.04661618918180466, 0.09785428643226624, 0.01530863530933857, 0.11382035166025162, -0.289690226316452, 0.06425708532333374, 0.18969611823558807, 0.09991147369146347, 0.07350315898656845, -0.07853369414806366, 0.012954154051840305, -0.05882580578327179, 0.09673243761062622, 0.0054430970922112465, -0.026723045855760574, -0.022131463512778282, 0.10049380362033844, -0.07762779295444489, 0.018785947933793068, -0.009597502648830414, -0.02049662359058857, 0.10434462875127792, 0.029378794133663177, -0.11564105749130249, 0.046087026596069336, -0.18189597129821777, -0.13935407996177673, -0.1517045795917511, -0.06904147565364838, 0.09041716158390045, -0.09108816832304001, 0.069553442299366, 0.11084885895252228, 0.07592330873012543, -0.08133907616138458, 0.02520150877535343, -0.046247679740190506, 0.016137918457388878], [-0.1753084510564804, 0.01348447147756815, 0.00027273118030279875, -0.0595976784825325, 0.015651170164346695, 0.06046438217163086, 0.05003921687602997, 0.040067408233881, 0.1722121685743332, 0.1578507423400879, 0.0051309531554579735, -0.01827855221927166, 0.1327941119670868, -0.052546314895153046, -0.037010978907346725, -0.047497618943452835, -0.14144115149974823, -0.08000729978084564, -0.10509361326694489, -0.18722283840179443, 0.13723890483379364, 0.08416768908500671, -0.06449933350086212, 0.2238685041666031, 0.1792350560426712, 0.058351390063762665, 0.05286357179284096, -0.10394622385501862, 0.12863467633724213, 0.05286533385515213, 0.028195155784487724, 0.006430121138691902, -0.00946476124227047, 0.027367448434233665, -0.053892701864242554, 0.03153504431247711, -0.10695154219865799, -0.0541476234793663, -0.009148765355348587, -0.14559490978717804, 0.057302504777908325, 0.04097982496023178, 0.0015567097580060363, 0.13176584243774414, 0.003410905599594116, -0.15273651480674744, -0.09328216314315796, 0.19389097392559052, 0.006038507912307978, -0.05428481101989746, 0.013233956880867481, 0.06576703488826752, 0.01660749688744545, -0.05455632880330086, -0.12891681492328644, 0.11138433963060379, 0.100817009806633, 0.07822540402412415, 0.1693892478942871, -0.03329285606741905, -0.1791432797908783, 0.07426653802394867, -0.09833221137523651, -0.0033886930905282497, 0.08821684867143631, 0.040013741701841354, 0.049434103071689606, 0.059050653129816055, 0.07796139270067215, -0.05514194443821907, 0.13869644701480865, 0.08970452845096588, -0.003931860905140638, -0.0012197375763207674, 0.007133571896702051, 0.13045714795589447, 0.01146808359771967, -0.005271109286695719, 0.06687469035387039, -0.013348366133868694, -0.06900843232870102, -0.10085564851760864, -0.05654465779662132, 0.000957799784373492, 0.13287486135959625, -0.026065152138471603, 0.05247461423277855, 0.037332769483327866, 0.08524034917354584, 0.008688091300427914, -0.05100218579173088, 0.08523757755756378, 0.002366866683587432, 0.049086909741163254, -0.2323220819234848, 0.04288109391927719, 0.1147165298461914, -0.013279070146381855, 0.02282114513218403, 0.006140277720987797, 0.08475640416145325, -0.10891133546829224, -0.037231914699077606, -0.0006293583428487182, 0.0670994222164154, -0.01576227881014347, 0.08958388864994049, 0.08433160185813904, 0.04917408525943756, -0.06941819936037064, 0.15996518731117249, 0.008620176464319229, 0.05233505740761757, 0.023811746388673782, 0.040424421429634094, -0.0635935515165329, -0.11780476570129395, -0.13747377693653107, 0.06170423701405525, 0.05819753184914589, -0.1608479619026184, 0.11117373406887054, 0.19605998694896698, -0.059817079454660416, 0.025074485689401627, -0.01745631918311119, -0.1470280885696411, 0.07501520216464996], [-0.21273384988307953, 0.19063882529735565, 0.27662965655326843, -0.14117999374866486, -0.037271808832883835, -0.5039240121841431, 0.20186543464660645, -0.04065059870481491, -0.07750992476940155, -0.29559043049812317, 0.12002333253622055, -0.16431818902492523, -0.16719666123390198, -0.04758122190833092, 0.22096294164657593, 0.15449175238609314, -0.5287099480628967, -0.46342596411705017, -0.05731205642223358, -0.03483499214053154, 0.2335561364889145, -0.008002114482223988, -0.04712977260351181, -0.5718755125999451, 0.1757931113243103, -0.04942726343870163, 0.27614733576774597, -0.39649346470832825, 0.12387601286172867, 0.08891458064317703, 0.08932983130216599, 0.09415793418884277, 0.018091769888997078, 0.2515982389450073, 0.15761329233646393, -0.17253175377845764, 0.3229348957538605, 0.10572635382413864, 0.355315625667572, -0.29678893089294434, -0.03840316832065582, 0.09744220227003098, -0.0405692383646965, 0.14742311835289001, 0.13449545204639435, -0.3286564350128174, -0.04091700538992882, 0.04211341217160225, 0.2882491648197174, 0.2582727372646332, 0.41737785935401917, 0.19188034534454346, -0.18325261771678925, 0.07342063635587692, -0.1741277128458023, -0.16351152956485748, -0.8834859132766724, 0.01873083971440792, -0.2868621349334717, -0.020930878818035126, -0.035427842289209366, 0.008219038136303425, -0.23419159650802612, -0.12194676697254181, -0.34956955909729004, 0.4088873267173767, 0.3422729969024658, -0.2216653823852539, -0.008636371232569218, -0.2346505969762802, -0.1975172609090805, 0.14759461581707, 0.397438645362854, 0.3039306104183197, -0.05358586087822914, 0.017312873154878616, -0.10936728119850159, -0.1887439787387848, 0.4529481828212738, 0.23595820367336273, 0.025512954220175743, 0.23297306895256042, -0.007333687972277403, 0.28513622283935547, 0.09589210897684097, 0.09537109732627869, -0.23853981494903564, -0.11759017407894135, -0.04134382680058479, 0.13783004879951477, -0.38186776638031006, -0.0073866816237568855, 0.2021731585264206, -0.42175760865211487, 0.28508079051971436, 0.10431734472513199, 0.2793347239494324, -0.025601742789149284, -0.045776285231113434, 0.23422138392925262, 0.41214653849601746, 0.07091224938631058, -0.08315008878707886, 0.14731159806251526, 0.5530850291252136, -0.20635636150836945, -0.5383476614952087, 0.16112908720970154, -0.5344645380973816, 0.6224813461303711, -0.40324652194976807, -0.03417572006583214, -0.051117438822984695, -0.2089156061410904, -0.7552370429039001, -0.05505292862653732, 0.33555954694747925, 0.1105804592370987, -0.3649079501628876, 0.38131189346313477, -0.20054037868976593, -0.33745548129081726, -0.40238305926322937, 0.04406316950917244, 0.29039227962493896, 0.09481222182512283, -0.11260243505239487, -0.029841303825378418], [-0.03589095175266266, 0.05211279168725014, 0.027575641870498657, 0.007405438926070929, 0.10080648213624954, 0.0462978333234787, 0.19417449831962585, -0.09488074481487274, 0.07992559671401978, 0.06130906939506531, 0.0500820092856884, -0.06717813014984131, 0.16370528936386108, 0.006102544255554676, -0.03292138874530792, -0.10889020562171936, -0.018912142142653465, -0.16914987564086914, -0.0020636210683733225, -0.0652863010764122, 0.12227541208267212, 0.04464889317750931, -0.08178195357322693, 0.1318475306034088, 0.03617217019200325, 0.12045983225107193, 0.03047710843384266, -0.05447159707546234, 0.03884294256567955, -0.020836643874645233, -0.019206898286938667, 0.014456596225500107, 0.10584313422441483, 0.14348609745502472, 0.04191923141479492, 0.012677215039730072, -0.009532035328447819, -0.06316253542900085, 0.008679410442709923, -0.12154573202133179, -0.014790283516049385, -0.06687946617603302, -0.027467496693134308, 0.005747945513576269, 0.022251447662711143, -0.11611327528953552, -0.05846593528985977, 0.11718519032001495, -0.036592017859220505, -0.08734515309333801, 0.008461005985736847, 0.034192007035017014, 0.019341299310326576, -0.0866837203502655, -0.11037985235452652, 0.10565801709890366, 0.10550078749656677, -0.013970972038805485, 0.10980236530303955, -0.02005564235150814, -0.10309123247861862, 0.017181549221277237, 0.08779588341712952, 0.12763619422912598, 0.03387626260519028, -0.009122141636908054, 0.04615990072488785, 0.12122661620378494, 0.009390718303620815, -0.12020622193813324, 0.09065010398626328, 0.05051868408918381, -0.002196144312620163, 0.033686380833387375, 0.07111888378858566, 0.07901696115732193, 0.02651522308588028, -0.0037348715122789145, 0.06389149278402328, 0.05431593954563141, -0.03781851381063461, -0.07031969726085663, 0.046238090842962265, 0.13549688458442688, 0.043243128806352615, -0.00045434522326104343, 0.12485644221305847, -0.04591111093759537, 0.11448360234498978, 0.0017184230964630842, -0.05780303105711937, 0.02958909422159195, -0.11719620227813721, 0.0672619491815567, -0.07389362156391144, -0.0025760666467249393, 0.07864578068256378, 0.028910275548696518, 0.10464035719633102, 0.0022182257380336523, 0.06014503911137581, -0.03348314389586449, 0.0581408366560936, -0.06983670592308044, 0.001462124870158732, -0.09043951332569122, -0.026237409561872482, -0.030566152185201645, 0.03906658664345741, -0.051704149693250656, 0.041053351014852524, -0.02209223248064518, -0.02220865897834301, 0.07863075286149979, -0.011796601116657257, -0.05664857104420662, -0.02036331035196781, -0.013222629204392433, 0.05289936438202858, 0.02027404122054577, -0.05580191686749458, 0.19947296380996704, 0.09574655443429947, 0.04148997738957405, -0.03575357049703598, -0.08448631316423416, -0.08436886221170425, -0.08524686843156815], [-0.011491302400827408, -0.0726715549826622, 0.03678368777036667, -0.18017332255840302, -0.21135681867599487, -0.013834112323820591, 0.06550762802362442, 0.00042606625356711447, -0.05982278659939766, 0.04232732206583023, 0.12981045246124268, 0.16256090998649597, -0.005316267255693674, -0.0691276267170906, 0.07191947102546692, 0.008926177397370338, 0.09236215054988861, 0.01309245266020298, -0.12543556094169617, 0.03353521600365639, 0.1339663863182068, 0.04295432195067406, 0.014669855125248432, 0.002415125723928213, 0.10424434393644333, -0.023614060133695602, 0.009081011638045311, 0.02214791253209114, 0.0558653250336647, -0.03417869284749031, -0.10149240493774414, 0.046118028461933136, -0.17864777147769928, -0.12685999274253845, 0.01529442798346281, 0.11288264393806458, -0.10616540163755417, -0.07974904775619507, 0.05721188709139824, 0.09009001404047012, -0.013695942237973213, -0.002562430687248707, 0.02202664501965046, -0.09344668686389923, -0.0184756089001894, -0.01849590241909027, 0.10090962797403336, -0.11116375774145126, -0.03815637156367302, -0.15828454494476318, -0.0338357575237751, 0.05973736196756363, 0.06928247958421707, 0.08696090430021286, -0.06904187053442001, 0.08830798417329788, 0.14935831725597382, 0.416104257106781, -0.20665773749351501, -0.02374633029103279, -0.05574904382228851, -0.13323600590229034, 0.09195864200592041, -0.2128220796585083, 0.04455713927745819, -0.11961915343999863, 0.010684309527277946, -0.07994009554386139, -0.029316136613488197, -0.08487631380558014, -0.13265646994113922, -0.04439602047204971, 0.014046300202608109, -0.1291152983903885, 0.09613068401813507, 0.08887115120887756, 0.008969596587121487, 0.13303376734256744, -0.015258374623954296, -0.05761628970503807, 0.18038423359394073, -0.15186548233032227, -0.06541246920824051, 0.0517730638384819, 0.09343568980693817, -0.005102951545268297, 0.101170614361763, -0.023936303332448006, -0.11627651751041412, 0.028914358466863632, -0.0706610381603241, 0.3674190938472748, -0.11902167648077011, -0.0867566466331482, 0.007068965118378401, -0.1618049442768097, 0.20080795884132385, 0.012110024690628052, 0.05518054962158203, 0.18790236115455627, -0.09550014138221741, -0.040177639573812485, 0.051688697189092636, -0.0999004915356636, -0.026291517540812492, 0.0019017737358808517, 0.13290202617645264, -0.056074246764183044, -0.057256415486335754, -0.07541318982839584, -0.18695922195911407, 0.11487775295972824, 0.10745400190353394, 0.09381897002458572, -0.1074184998869896, -0.11563628911972046, -0.13804632425308228, 0.0671946182847023, -0.176163449883461, 0.21518824994564056, 0.12013829499483109, 0.18128162622451782, 0.07568562775850296, 0.02076328732073307, -0.010262049734592438, -0.019922060891985893, -0.003163770539686084, 0.05719269812107086], [-0.020248984917998314, 0.026216762140393257, 0.019461996853351593, -0.040006525814533234, 0.035791970789432526, -0.03367944806814194, 0.002132852328941226, -0.09397884458303452, 0.007957410998642445, 0.07669243216514587, 0.001365800155326724, -0.006944229360669851, 0.1297004222869873, -0.03218276426196098, -0.02236783877015114, -0.021933164447546005, -0.02811010181903839, -0.1882525384426117, 0.020331434905529022, -0.06078402325510979, 0.09684888273477554, -0.01817501150071621, -0.021039623767137527, 0.11788897216320038, 0.004800702910870314, 0.11961451172828674, 0.033979471772909164, -0.13753832876682281, -0.01080747414380312, 0.02626064047217369, -0.0030964945908635855, -0.019329534843564034, 0.028835518285632133, 0.07776515930891037, -0.009739836677908897, -0.007060270756483078, -0.04687490686774254, -0.067172110080719, 0.045613013207912445, -0.09228914231061935, 0.11157792061567307, 0.06597082316875458, -0.011297797784209251, -0.017722005024552345, -0.06206967681646347, -0.13093361258506775, -0.009046941995620728, 0.1631997674703598, 0.038428813219070435, 0.09709598869085312, -0.16210666298866272, 0.09402238577604294, 0.09268396347761154, -0.024822233244776726, -0.137421652674675, 0.050033025443553925, 0.053314290940761566, 0.10542360693216324, 0.12886840105056763, -0.09623946249485016, -0.05918966978788376, 0.05602853745222092, -0.0035732316318899393, 0.014301679097115993, 0.008490137755870819, 0.10124338418245316, 0.0628599151968956, 0.05873929709196091, 0.017243806272745132, -0.10514390468597412, 0.06356707960367203, 0.05507620424032211, -0.006089392583817244, 0.003572412533685565, -0.025939302518963814, 0.04547713324427605, -0.05797458067536354, -0.037801895290613174, 0.045090481638908386, -0.025605380535125732, -0.12236116081476212, -0.03909255564212799, 0.06420370936393738, 0.025608135387301445, 0.03929537534713745, 0.0022075206506997347, 0.14799293875694275, 0.0660313218832016, 0.10062941163778305, 0.09248752892017365, -0.030666803941130638, 0.042117394506931305, 0.027689948678016663, -0.03051929920911789, -0.20184530317783356, 0.0996810719370842, 0.07454705238342285, 0.014698107726871967, -0.03393986448645592, -0.00861845351755619, -0.03773355856537819, -0.06700089573860168, -0.008723819628357887, -0.07772411406040192, 0.03959856554865837, -0.06535297632217407, -0.04719267040491104, -0.036699987947940826, 0.014800910837948322, -0.05602075159549713, 0.032106682658195496, -0.017928283661603928, 0.04938114434480667, -0.12032216042280197, -0.06807295233011246, -0.08820705860853195, -0.01179234217852354, 0.01401523221284151, -0.01376335322856903, 0.04045974090695381, 0.014865752309560776, -0.028990283608436584, 0.03803502768278122, 0.07600145787000656, -0.031693268567323685, -0.017983054742217064, -0.05784044787287712, -0.05889926850795746], [-0.14609184861183167, -0.09672272950410843, -0.04552324488759041, -0.33749598264694214, 0.20630691945552826, 0.13411074876785278, -0.28004446625709534, 0.12977465987205505, -0.01754879206418991, -0.00661276001483202, 0.06138160079717636, 0.07984061539173126, -0.23366549611091614, -0.3979458808898926, 0.3099057674407959, -0.08842844516038895, -0.37593069672584534, 0.3348923325538635, 0.15487737953662872, 0.24772489070892334, -0.4617170989513397, 0.1728346198797226, 0.22532381117343903, 0.3999324142932892, 0.0030170169193297625, -0.1715439260005951, -0.3311501741409302, -0.3337829113006592, 0.06634653359651566, 0.3259504437446594, -0.2919228672981262, -0.0586971640586853, 0.15203988552093506, -0.08026514947414398, -0.0731666162610054, -0.11957566440105438, -0.09546653926372528, -0.29621443152427673, -0.15032744407653809, 0.4359712600708008, 0.12531152367591858, 0.05708719789981842, -0.026156987994909286, 0.035808265209198, 0.17119599878787994, -0.08120889216661453, 0.07826335728168488, 0.0019770930521190166, -0.18947117030620575, -0.06100316345691681, 0.2821256220340729, 0.041081398725509644, -0.3407106399536133, 0.08466034382581711, -0.2472277730703354, -0.07801193743944168, -0.24288707971572876, 0.15771180391311646, -0.05406741052865982, 0.27717167139053345, -0.18592120707035065, 0.3824812173843384, -0.06244164705276489, 0.016198433935642242, 0.11503713577985764, 0.05803130567073822, 0.1660251021385193, -0.2740218937397003, 0.04304174333810806, -0.5971636772155762, 0.3759852647781372, 0.43114715814590454, 0.17494134604930878, -0.06532831490039825, 0.1638600081205368, -0.07333870977163315, -0.023698359727859497, -0.31600481271743774, -0.081702820956707, -0.22228218615055084, -0.33652710914611816, -0.4019828140735626, -0.4255763590335846, -0.06751624494791031, 0.5459492802619934, 0.10708190500736237, -0.027894582599401474, 0.13065244257450104, 0.6521638035774231, 0.1584440916776657, 0.0660114735364914, -0.15331551432609558, -0.24619397521018982, 0.281311571598053, -0.1948254108428955, 0.13699506223201752, -0.4480574131011963, -0.0031022592447698116, -0.012415468692779541, -0.23558084666728973, -0.08943942189216614, 0.38360118865966797, 0.1723901331424713, 0.05899940803647041, -0.24663956463336945, -0.13052205741405487, 0.24520975351333618, -0.10610450804233551, 0.09374534338712692, 0.7570965886116028, -0.1121610552072525, -0.3350873589515686, 0.2535537779331207, -0.2866021394729614, 0.01818292774260044, -0.40044137835502625, 0.761827290058136, -0.09292983263731003, -0.009595723822712898, 0.4800611138343811, -0.08467023819684982, 0.1872667372226715, 0.4522301256656647, -0.6077833771705627, 0.3236648440361023, -0.15546004474163055, 0.09168162196874619, -0.22506919503211975], [-0.16875623166561127, -0.20538833737373352, 0.44260597229003906, 0.19855612516403198, -0.07282277941703796, -0.04943128675222397, -0.1804099828004837, 0.49705925583839417, -0.4497866630554199, 0.4240359663963318, -0.15087875723838806, 0.0789855569601059, -0.16904233396053314, -0.5577892065048218, -0.3129555881023407, -0.10190936177968979, 0.23319298028945923, 0.08103548735380173, -0.06589367240667343, -0.25259044766426086, 0.3040930926799774, -0.05305725708603859, 0.37602436542510986, 0.6510452628135681, -0.07749373465776443, 0.02885562554001808, 0.5243898034095764, 0.14198021590709686, -0.4908735454082489, 0.18819595873355865, 0.04833324998617172, -0.2863059341907501, 0.3430996239185333, 0.025099650025367737, 0.11345095932483673, 0.33922499418258667, -0.03808752819895744, 0.016415942460298538, -0.08253103494644165, 0.07976068556308746, 0.041699569672346115, -0.11440549045801163, 0.19842208921909332, 0.1376122087240219, -0.05905253812670708, -0.14279146492481232, -0.22163347899913788, -0.08471585810184479, 0.26399463415145874, -0.27864301204681396, -0.21918584406375885, -0.025364035740494728, 0.035588230937719345, -0.16310884058475494, 0.4993564486503601, 0.2979135811328888, 0.2205001562833786, 0.0507187694311142, -0.41988101601600647, 0.40041008591651917, 0.02696588821709156, 0.038561854511499405, -0.010364601388573647, 0.109488345682621, 0.17058905959129333, 0.0709303542971611, 0.39489245414733887, 0.16529123485088348, -0.05796291306614876, 0.44639766216278076, 0.22685620188713074, 0.6615904569625854, -0.5203420519828796, 0.07011284679174423, 0.07271013408899307, 0.2961350977420807, -0.06889066845178604, 0.16274325549602509, 0.4868243932723999, -0.0920858383178711, -0.3182376027107239, -0.2968958020210266, 0.42803817987442017, 0.12185132503509521, 0.14419326186180115, -0.07350821793079376, 0.16744689643383026, -0.47236624360084534, -0.1224750280380249, 0.4028651714324951, -0.3243505656719208, 0.3075701594352722, -0.24759869277477264, -0.10785038769245148, 0.2832117974758148, 0.13196687400341034, -0.4304061233997345, -0.06980974227190018, -0.790193498134613, 0.24334987998008728, -0.048077017068862915, -0.11410866677761078, 0.153513565659523, -0.3790302872657776, 0.3759046196937561, 0.18141253292560577, 0.08741166442632675, 0.11627005785703659, 0.04110477492213249, -0.26634716987609863, 0.3910060524940491, -0.1442136913537979, -0.23392541706562042, 0.29739460349082947, -0.23172424733638763, 0.12072786688804626, 0.5447738170623779, 0.09473344683647156, 0.06116868183016777, 0.3426154553890228, 0.08572759479284286, 0.06274516135454178, -0.2934979796409607, 0.6259903907775879, 0.3337743878364563, 0.1822262853384018, -0.2698346972465515, -0.05340991169214249], [-0.17451679706573486, 0.03163111209869385, 0.0011120104463770986, 0.04615751653909683, -0.041715461760759354, 0.017524220049381256, 0.06811884045600891, 0.06068936362862587, 0.02993825264275074, -0.02463989146053791, -0.005337943322956562, -0.07691951841115952, 0.11828816682100296, -0.066745825111866, 0.14258070290088654, -0.029440300539135933, -0.02064831182360649, -0.05197449028491974, -0.007463010493665934, 0.23111943900585175, -0.0989363044500351, 0.06260257959365845, -0.1502131074666977, -0.045437704771757126, 0.010636194609105587, 0.05475124716758728, 0.03481711447238922, 0.10517051815986633, -0.11456498503684998, -0.06778843700885773, 0.14939627051353455, 0.06652423739433289, 0.09209169447422028, 0.08144517987966537, 0.03410046175122261, 0.038750793784856796, 0.014873925596475601, 0.07672163844108582, -0.1843721866607666, -0.21526099741458893, 0.10130526125431061, 0.019175058230757713, 0.01749926246702671, -0.008448021486401558, 0.08767499029636383, -0.12469958513975143, -0.017029639333486557, 0.0016874661669135094, 0.18507932126522064, 0.08389398455619812, 0.11460085958242416, 0.027644354850053787, -0.08830703049898148, 0.04907272756099701, 0.07873701304197311, -0.06131763011217117, 0.10393647849559784, -0.00264574121683836, -0.09259478002786636, 0.13228988647460938, 0.037732966244220734, -0.020752346143126488, -0.02565600536763668, -0.010751625522971153, 0.0557638518512249, 0.0579986497759819, -0.11383151262998581, 0.17410363256931305, -0.08069241791963577, -0.06085081771016121, -0.028101708739995956, 0.14230035245418549, -0.11646966636180878, 0.028736259788274765, 0.05349034070968628, 0.10140863060951233, -0.1454755812883377, -0.2185763269662857, 0.005651418119668961, -0.0779895931482315, 0.08541550487279892, -0.156547412276268, -0.2607007622718811, 0.09664919972419739, -0.1761309951543808, 0.010067776776850224, 0.08806493878364563, -0.10135867446660995, -0.15757188200950623, -0.07435332983732224, 0.04531322419643402, -0.006089388858526945, 0.10707095265388489, -0.06274441629648209, -0.16295509040355682, -0.13228650391101837, -0.06337878853082657, 0.08074210584163666, -0.10863223671913147, -0.0627475306391716, 0.030446520075201988, -0.017490103840827942, 0.13245250284671783, 0.03899330273270607, -0.1261184960603714, 0.015550862066447735, -0.17151542007923126, -0.05329551547765732, -0.11986156553030014, -0.08775699883699417, 0.03351297974586487, 0.08034262806177139, -0.051063172519207, 0.06085747480392456, -0.05514310300350189, -0.1219363585114479, -0.03369941934943199, -0.05927979201078415, 0.01208374835550785, 0.042515598237514496, 0.07663421332836151, -0.07666384428739548, 0.3310631513595581, -0.08020087331533432, 0.07652527093887329, 0.0821363776922226, 0.16530613601207733, -0.19522255659103394], [0.04108690842986107, -0.013541312888264656, -0.003790700575336814, -0.06076136231422424, 0.0564531572163105, 0.09060103446245193, 0.10858982056379318, 0.01209443248808384, 0.20249170064926147, 0.11585406959056854, 0.042675696313381195, 0.0016071124700829387, 0.17313620448112488, -0.0059111397713422775, 0.09262630343437195, 0.056586846709251404, -0.20114797353744507, -0.12429113686084747, -0.15977703034877777, -0.10517939925193787, 0.05805380642414093, -0.021346215158700943, 0.11062677204608917, 0.17504529654979706, 0.08244556933641434, 0.04537659510970116, 0.014957748353481293, -0.069268137216568, -0.09298679232597351, 0.027136726304888725, 0.0507006011903286, 0.05238008871674538, 0.030504776164889336, 0.08032504469156265, 0.05853015556931496, 0.09846034646034241, -0.028284301981329918, 0.009314266964793205, 0.016018684953451157, -0.15600503981113434, -0.013922762125730515, -0.0038948042783886194, -0.025296038016676903, 0.03919721022248268, -0.03660501912236214, -0.09486547857522964, -0.02563302405178547, 0.1753052920103073, -0.004354941658675671, -0.007886724546551704, -0.10921154916286469, 0.05669093877077103, 0.07643640041351318, -0.09169906377792358, -0.16408079862594604, 0.05376094952225685, 0.13125713169574738, 0.07962628453969955, 0.2065802365541458, -0.011608632281422615, -0.15606705844402313, 0.006527821999043226, -0.06610628217458725, 0.11186106503009796, 0.11150386929512024, -0.003998334985226393, 0.06587372720241547, 0.11664098501205444, -0.0024564091581851244, -0.15275262296199799, 0.16685903072357178, 0.03552597016096115, -0.024403342977166176, 0.11677850782871246, 0.01180145051330328, 0.18296615779399872, -0.05377696454524994, -0.014802654273808002, 0.02255559153854847, -0.02034398540854454, -0.11416543275117874, -0.1423860490322113, 0.04847850278019905, 0.16265758872032166, 0.08966147899627686, -0.007577541749924421, 0.18071356415748596, 0.07903104275465012, 0.054987672716379166, 0.06371496617794037, -0.031435348093509674, 0.023579580709338188, 0.013940486125648022, 0.06299839913845062, -0.3069855272769928, 0.10518386214971542, 0.13118426501750946, 0.14058692753314972, 0.023486074060201645, -0.13213308155536652, 0.059319719672203064, -0.07404688745737076, 0.131048783659935, -0.128081813454628, 0.053402576595544815, -0.13225987553596497, -0.004778118804097176, 0.05638367682695389, 0.0709758996963501, 0.039041973650455475, 0.03023630380630493, -0.00511661171913147, 0.1327148973941803, -0.030608706176280975, -0.03786691650748253, 0.042066920548677444, -0.14514589309692383, -0.029383601620793343, -0.01785116270184517, 0.011581739410758018, -0.07827246934175491, 0.10297057032585144, 0.05144040659070015, 0.09928520023822784, -0.0791516825556755, 0.0723661333322525, -0.11424437165260315, -0.03935576230287552], [-0.16215801239013672, 0.08457504212856293, -0.35584625601768494, -0.2117633819580078, -0.0407659113407135, -0.1119021400809288, 0.1115875318646431, -0.3774164021015167, -0.034072231501340866, -0.31069788336753845, 0.08132421225309372, -0.22259505093097687, -0.2614652216434479, -0.11736034601926804, 0.0016085418174043298, 0.003930606879293919, -0.139150932431221, -0.4329655170440674, 0.03991853445768356, 0.020515676587820053, 0.10497788339853287, -0.18894116580486298, 0.03436766937375069, -0.048845238983631134, -0.47203528881073, 0.37559428811073303, 0.1282021552324295, 0.04846867546439171, 0.18032178282737732, -0.08489034324884415, -0.09993472695350647, 0.055648528039455414, 0.20874616503715515, 0.5200594067573547, 0.09991494566202164, -0.12682723999023438, -0.06144304946064949, -0.0688217431306839, -0.1429276466369629, -0.06032184511423111, -0.14952392876148224, -0.06740615516901016, 0.06660913676023483, 0.23155727982521057, 0.4122070074081421, -0.4444912374019623, 0.11119627207517624, 0.0566401369869709, 0.25906485319137573, -0.5224791169166565, -0.21743205189704895, 0.01796962507069111, -0.18929769098758698, -0.04073794558644295, -0.17325647175312042, 0.1537613719701767, -0.06607624143362045, 0.2569751441478729, 0.06510438024997711, -0.3720964193344116, 0.14461013674736023, 0.14360344409942627, -0.1198573112487793, -0.3227592408657074, -0.000442786724306643, -0.06097949296236038, -0.028903095051646233, -0.48739537596702576, 0.09435071796178818, -0.5194151997566223, -0.14454971253871918, -0.047383829951286316, -0.08635982871055603, 0.1880241334438324, -0.0956704169511795, -0.13060572743415833, 0.06995730102062225, -0.08513611555099487, 0.10021919757127762, 0.23516851663589478, -0.226356640458107, -0.15074512362480164, 0.04862122982740402, -0.14922459423542023, 0.44328269362449646, 0.49141427874565125, -0.6502625942230225, 0.17542631924152374, -0.02744332142174244, 0.6134964823722839, -0.09748443216085434, -0.17320983111858368, -0.3779039978981018, 0.009837403893470764, 0.07341672480106354, 0.37138649821281433, -0.25072383880615234, 0.32883045077323914, -0.03794901818037033, 0.18376237154006958, -0.06287882477045059, 0.13422968983650208, -0.19844433665275574, -0.0386807844042778, -0.18395468592643738, 0.08097779750823975, -0.18684473633766174, 0.2925040125846863, -0.1837748885154724, -0.27140623331069946, 0.3902060389518738, 0.18435287475585938, 0.1228506937623024, 0.3196553885936737, -0.11320877820253372, 0.0773232951760292, -0.2712729871273041, 0.22711223363876343, -0.0770292729139328, -0.1804349720478058, 0.2438182234764099, 0.057057060301303864, 0.1080075204372406, 0.40650758147239685, -0.025922900065779686, 0.37446704506874084, -0.12841898202896118, -0.03334030508995056], [0.007628930266946554, -0.06948956102132797, 0.01735548861324787, -0.01104621309787035, 0.16118694841861725, 0.1303849220275879, 0.09150129556655884, -0.01649703085422516, 0.15196317434310913, -0.0011711753904819489, 0.0092322314158082, -0.006538115907460451, 0.08859067410230637, -0.0667177066206932, 0.0528176873922348, -0.07115187495946884, -0.18654319643974304, -0.23525917530059814, -0.16141510009765625, -0.1590983122587204, 0.09005419909954071, 0.05826014280319214, -0.06307556480169296, 0.2221788763999939, 0.04536033794283867, 0.0802634209394455, 0.07295884937047958, -0.1441086381673813, 0.0050904895178973675, -0.053372930735349655, -0.06715899705886841, 0.0009382691932842135, -0.03507870435714722, 0.198994979262352, -0.046094682067632675, -0.05502885580062866, -0.046657342463731766, -0.004021934233605862, 0.061991918832063675, -0.061884984374046326, 0.06881958991289139, 5.987292024656199e-05, -0.10358381271362305, 0.07585371285676956, -0.06881940364837646, -0.2592441737651825, -0.038283370435237885, 0.11547239124774933, -0.0013713861117139459, 0.007765256799757481, -0.13984179496765137, 0.03252653777599335, 0.11610386520624161, -0.08303603529930115, -0.19591906666755676, 0.11199549585580826, 0.19708843529224396, 0.04816747084259987, 0.1632031947374344, -0.052483927458524704, -0.14043812453746796, -0.008702966384589672, -0.06976461410522461, 0.01636897586286068, 0.0541098415851593, 0.1568802297115326, 0.04495353624224663, 0.04705022647976875, 0.041610341519117355, -0.14077070355415344, 0.10230740159749985, 0.039071980863809586, -0.0019740634597837925, -0.012395041063427925, 0.052873607724905014, 0.06105482205748558, 0.01826523430645466, -0.0027349586598575115, 0.08840475976467133, -0.03926824778318405, -0.09806390106678009, -0.043231211602687836, 0.05094006285071373, -0.007164349779486656, 0.13256439566612244, 0.007934590801596642, 0.03824631869792938, 0.01404813677072525, 0.10147473961114883, 0.12385372072458267, 0.018630672246217728, 0.05711059644818306, 0.057004138827323914, 0.11927752196788788, -0.24176600575447083, 0.11416473239660263, 0.07472100108861923, 0.08036762475967407, -0.09046617895364761, 0.0351608581840992, -0.03145661950111389, -0.08830089867115021, -0.010295744054019451, -0.05806482210755348, 0.1334584355354309, -0.06453867256641388, -0.01818729378283024, 0.04885385185480118, 0.06256065517663956, -0.02292470633983612, 0.0771188959479332, 0.05250071361660957, -0.007401220500469208, 0.027972910553216934, 0.028333263471722603, 0.052139271050691605, -0.1344374269247055, -0.06269538402557373, 0.06152569130063057, -0.01995234750211239, -0.0007798107108101249, 0.09495125710964203, 0.10215126723051071, -0.045892778784036636, 0.04541623592376709, 0.004553829785436392, 0.022286156192421913, -0.09520092606544495], [0.056012410670518875, 0.13157731294631958, 0.1426496058702469, -0.11441408842802048, -0.07476070523262024, -0.3260987102985382, -0.36434316635131836, 0.06401190906763077, 0.5575153231620789, 0.09559106081724167, -0.3827589154243469, 0.36180174350738525, 0.260555237531662, 0.2833685576915741, 0.06581979244947433, 0.04440562427043915, 0.058571238070726395, 0.03994184359908104, -0.12416202574968338, -0.14615769684314728, -0.34670862555503845, 0.18603594601154327, -0.06891903281211853, 0.1321439892053604, -0.14788229763507843, -0.2120797038078308, 0.2251596450805664, -0.007913603447377682, -0.11858805269002914, 0.3504076898097992, 0.14347131550312042, -0.26171720027923584, 0.03576074168086052, 0.08748152107000351, -0.08341877162456512, 0.32199203968048096, 0.11290225386619568, 0.30559754371643066, 0.21825219690799713, 0.2382471263408661, 0.08432440459728241, 0.06812789291143417, 0.19543424248695374, -0.17269496619701385, 0.422574520111084, 0.18581558763980865, -0.10778139531612396, 0.1262182742357254, -0.4218861758708954, -0.04055457562208176, -0.058243609964847565, -0.001997812185436487, -0.10084106773138046, 0.0660429447889328, -0.1411442905664444, 0.03961833566427231, -0.345729798078537, 0.16326463222503662, 0.20184320211410522, 0.1470932960510254, 0.009596112184226513, 0.2007368803024292, 0.07750988006591797, 0.01757223531603813, -0.07816758006811142, -0.1036485880613327, -0.2089347243309021, -0.09489448368549347, 0.5048021674156189, 0.20119699835777283, -0.182370126247406, -0.1435137242078781, -0.13493432104587555, -0.28896698355674744, 0.03048940747976303, 0.24294576048851013, -0.20149900019168854, -0.2012847363948822, 0.03889084607362747, 0.16664808988571167, -0.08811415731906891, -0.003869221778586507, 0.09508727490901947, -0.011646210215985775, -0.14137203991413116, -0.18693341314792633, 0.597104549407959, 0.008777202107012272, -0.21279898285865784, 0.7679175138473511, 0.33168187737464905, -0.10899597406387329, 0.11119196563959122, -0.07535190880298615, -0.06524471193552017, 0.04984935745596886, 0.12145597487688065, -0.755375325679779, -0.09499066323041916, -0.0770811215043068, -0.22313378751277924, -0.26554062962532043, -0.10616793483495712, 0.04523393139243126, 0.029210932552814484, -0.2382400780916214, -0.27850887179374695, -0.05124660208821297, 0.11773688346147537, 0.11050575971603394, -0.025191977620124817, -0.09162963926792145, 0.06294005364179611, 0.3055715262889862, 0.22943997383117676, 0.28043970465660095, 0.19644561409950256, 0.2141789197921753, 0.09114114195108414, 0.09287556260824203, 0.025481408461928368, 0.04140688478946686, -0.19267669320106506, -0.04180724546313286, -0.13083738088607788, -0.12224186956882477, -0.13333064317703247, -0.027810074388980865], [-0.0025077038444578648, 0.02134530432522297, 0.02927960827946663, 0.013000721111893654, 0.1595180779695511, 0.11160746961832047, 0.10339010506868362, -0.19641338288784027, 0.19653458893299103, 0.15172553062438965, 0.01098240539431572, -0.006454298738390207, 0.1263146847486496, 0.017231471836566925, 0.042176030576229095, -0.031314484775066376, -0.17913685739040375, -0.19101499021053314, -0.12599897384643555, -0.24268260598182678, 0.11016528308391571, 0.00685893464833498, 0.09766270965337753, 0.1813732534646988, 0.09489758312702179, 0.09939519315958023, 0.11290428042411804, -0.16277509927749634, 0.04955659806728363, 0.0355653390288353, 0.01878083124756813, 0.05101490765810013, -0.03538088500499725, 0.08444983512163162, -0.0491374209523201, 0.021451707929372787, -0.09864629805088043, -0.04598335921764374, 0.08004506677389145, -0.10553321242332458, 0.020017316564917564, 0.002240942558273673, -0.03520724177360535, 0.051201555877923965, -0.07975753396749496, -0.18830430507659912, -0.09329872578382492, 0.23746126890182495, 0.02346503920853138, -0.049209702759981155, 0.016477173194289207, 0.03021700121462345, 0.12019803375005722, -0.0339105948805809, -0.10365516692399979, 0.1734478920698166, 0.20200829207897186, 0.1336274892091751, 0.22231237590312958, 0.011529027484357357, -0.18392972648143768, 0.04001593589782715, -0.06517739593982697, -0.019762659445405006, 0.06179916113615036, -0.00018349276797380298, 0.0031981735955923796, 0.16154377162456512, 0.1082458421587944, -0.1932692974805832, 0.1451154500246048, 0.15015909075737, 0.020619267597794533, 0.06263723224401474, 0.063605897128582, 0.12892550230026245, -0.04940515756607056, 0.03635530546307564, -0.05752651393413544, 0.05304339900612831, -0.07835347950458527, 0.048798538744449615, -0.13221581280231476, -0.03243504837155342, 0.1820007860660553, -0.00806462299078703, 0.0840342715382576, 0.025475135073065758, 0.1739957630634308, 0.052438654005527496, -0.17876970767974854, 0.16448110342025757, -0.08551423251628876, 0.07206957787275314, -0.31052035093307495, -0.04243173450231552, 0.08162771165370941, 0.06297167390584946, -0.14272655546665192, -0.019456876441836357, 0.00783513206988573, -0.096443772315979, 0.07036329060792923, 0.0530252642929554, 0.024871688336133957, -0.08924248814582825, -0.06954705715179443, 0.09413687884807587, 0.007373076863586903, -0.04920244216918945, 0.0295674130320549, 0.045699551701545715, 0.07532612979412079, 0.012891673482954502, 0.09095117449760437, -0.023743921890854836, -0.03834335133433342, -0.13356555998325348, -0.01727508194744587, 0.03900057077407837, -0.13698790967464447, 0.14643263816833496, 0.17058128118515015, 0.0509566031396389, -0.01104477047920227, -0.014231043867766857, -0.09131661057472229, -0.08885102719068527], [-0.006379546131938696, 0.05246880650520325, -0.005530091002583504, -0.03519150987267494, 0.04247792065143585, 0.11848840862512589, 0.04252032935619354, -0.14348727464675903, 0.07151613384485245, 0.06533566117286682, -0.009938705712556839, 0.06109148636460304, 0.04739256575703621, -0.04109088331460953, -0.016160964965820312, -0.0006338066305033863, -0.15467235445976257, -0.1256401240825653, -0.11795585602521896, -0.09701360762119293, 0.12991762161254883, 0.036601535975933075, 0.04395095258951187, 0.18669332563877106, 0.04313055798411369, 0.08954571932554245, 0.010588078759610653, -0.14940227568149567, -0.004515355918556452, 0.11801915615797043, 0.012784215621650219, 0.09234143048524857, -0.018861623480916023, -0.01736302301287651, -0.03173922002315521, -0.07789186388254166, -0.10220985859632492, -0.06977516412734985, 0.029710259288549423, -0.048066455870866776, 0.06212689355015755, -0.03710805997252464, -0.016352776437997818, -0.013777438551187515, -0.1180310845375061, -0.11887182295322418, 0.04501025378704071, 0.11112719029188156, -0.03814241662621498, 0.022872241213917732, -0.04393157362937927, 0.04548322409391403, 0.06477612257003784, -0.07488817721605301, -0.10425511002540588, 0.03454659506678581, 0.020695915445685387, 0.08884749561548233, 0.1698894500732422, 0.02359015867114067, -0.08871801197528839, 0.021806737408041954, -0.06002131104469299, 0.06925011426210403, 0.074122853577137, 0.029524298384785652, -0.020055506378412247, 0.1167316809296608, -0.01827787049114704, -0.059032462537288666, 0.08673211187124252, 0.05883294716477394, 0.025311673060059547, 0.03256341442465782, 0.017563140019774437, 0.07304777950048447, -0.011995695531368256, 0.011763501912355423, 0.03860323876142502, 0.0004240730486344546, -0.09299024194478989, -0.04065752774477005, -0.0015445214230567217, 0.03609556332230568, 0.05238158255815506, -0.04816090315580368, 0.07151200622320175, 0.0025708507746458054, 0.042552825063467026, 0.07669857889413834, -0.1587693840265274, 0.05486248433589935, -0.026438666507601738, 0.14216399192810059, -0.21893592178821564, 0.10499399900436401, 0.06994667649269104, 0.11631066352128983, -0.011343911290168762, -0.05269831046462059, 0.0913243219256401, 0.002177808666601777, 0.0948745459318161, -0.014007942751049995, 0.022933615371584892, 0.06097704917192459, 0.05762122943997383, -0.019706351682543755, -0.0007449998520314693, 0.04532244801521301, 0.09480978548526764, 0.02268846705555916, -0.0009395186207257211, 0.03204280510544777, 0.06049611046910286, -0.01808665320277214, -0.04099796339869499, -0.0504036471247673, 0.05240350589156151, -0.011146403849124908, -0.003980932291597128, 0.08495374768972397, 0.09438380599021912, -0.08723294734954834, 0.029859043657779694, -0.02875334769487381, -0.11337623000144958, 0.03361263871192932], [-0.06406909972429276, -0.06075742468237877, 0.029512066394090652, -0.007652110420167446, 0.04578728973865509, 0.0689372792840004, 0.09783857315778732, -0.06477601081132889, 0.12530095875263214, 0.08992920070886612, 0.0037645946722477674, 0.02606683410704136, 0.0855884701013565, -0.014796663075685501, -0.01376253366470337, -0.014260582625865936, -0.12649324536323547, -0.05722085386514664, -0.10930629074573517, -0.0864933654665947, 0.16680161654949188, 0.06272498518228531, -0.016659874469041824, 0.20167529582977295, 0.11885681003332138, 0.11270889639854431, 0.0038133191410452127, -0.13335376977920532, 0.13187725841999054, 0.02462288737297058, 0.02207639068365097, -0.00039775847108103335, 0.05700433626770973, 0.029592914506793022, -0.001696267630904913, -0.07997585088014603, -0.015214844606816769, -0.06735797226428986, 0.006614889018237591, -0.2076830267906189, 0.09413953870534897, 0.021626487374305725, -0.009812610223889351, 0.08075527846813202, 0.0797911137342453, -0.1446658819913864, -0.05721310153603554, 0.04352642223238945, -0.008048130199313164, 0.010682257823646069, -0.03486982733011246, 0.024000680074095726, 0.03425320237874985, -0.008554631844162941, -0.08520397543907166, 0.13357894122600555, 0.18991684913635254, 0.0137895867228508, 0.15590621531009674, -0.020319143310189247, -0.050504155457019806, 0.1063498854637146, -0.0024197346065193415, 0.0356370247900486, 0.01129936147481203, 0.04420676454901695, 0.03821977227926254, 0.037623997777700424, 0.009259817190468311, -0.08437221497297287, 0.04277346655726433, 0.006683782208710909, 0.07782913744449615, 0.0994834303855896, 0.013725724071264267, 0.10245673358440399, -0.07100240141153336, 0.07219891250133514, 0.09493842720985413, 0.026140935719013214, 0.05270473286509514, -0.0071772304363548756, -0.04495501145720482, 0.02647433988749981, 0.07493691891431808, 0.03156488016247749, 0.11560586839914322, 0.017363065853714943, 0.08530813455581665, 0.017799261957406998, 0.011567090637981892, 0.06653834879398346, 0.03136483579874039, 0.14348693192005157, -0.024536166340112686, -0.00856362096965313, 0.08761405944824219, -0.039291076362133026, 0.06912553310394287, 0.040116701275110245, 0.02333047240972519, 0.007963445968925953, -0.010477771051228046, 0.06782026588916779, 0.0377921424806118, -0.11360972374677658, -0.025241592898964882, 0.0896940529346466, 0.05764985829591751, -0.10121142119169235, 0.011290142312645912, 0.027655063197016716, 0.03487851098179817, -0.03947574272751808, 0.00034004563349299133, 0.017517585307359695, 0.002438425784930587, -0.030653150752186775, 0.0007280051941052079, -0.050275709480047226, -0.07468660175800323, 0.08444608002901077, 0.042462870478630066, -0.0419122613966465, -0.010367793962359428, -0.055753305554389954, -0.08402111381292343, -0.05292792618274689], [-0.01970362477004528, -0.021674245595932007, 0.04829348623752594, 0.04940975829958916, 0.050428301095962524, 0.12518660724163055, 0.021035226061940193, -0.10731825977563858, 0.040983960032463074, -0.017433777451515198, 0.09951024502515793, -0.07574328035116196, 0.12286797910928726, -0.09116405993700027, -0.006639449391514063, -0.11054369062185287, -0.1858757734298706, -0.1624983698129654, -0.05519190430641174, -0.1345623880624771, 0.044339150190353394, 0.08910085260868073, -0.01485281903296709, 0.20890609920024872, 0.11093413829803467, 0.16409416496753693, -0.0534718856215477, -0.09540750086307526, 0.1805591881275177, -0.07534860074520111, 0.04672975465655327, -0.04499770328402519, 0.05546954274177551, 0.1680462807416916, -0.14263109862804413, 0.026946160942316055, -0.1562984585762024, -0.03534529730677605, 0.1423606425523758, -0.0996999740600586, 0.044382914900779724, -0.016240360215306282, -0.052370645105838776, -0.001899111201055348, 0.02404935099184513, -0.13120828568935394, -0.05968276038765907, 0.1502118557691574, 0.016416000202298164, -0.06700355559587479, 0.030655987560749054, 0.03964994102716446, 0.15900857746601105, -0.018569404259324074, -0.06758861243724823, 0.20511217415332794, 0.06891071796417236, 0.06591404229402542, 0.22420638799667358, -0.03909720480442047, -0.2277083694934845, -0.036231234669685364, 0.0002809078723657876, 0.11198800057172775, 0.14601421356201172, 0.06885828822851181, 0.09250722825527191, 0.064503975212574, 0.07085790485143661, -0.07907656580209732, 0.14223511517047882, 0.024630187079310417, 0.05753446742892265, 0.09148318320512772, 0.12021535634994507, 0.18390724062919617, -0.027659554034471512, 0.035848695784807205, 0.05919759348034859, 0.06495269387960434, -0.12666678428649902, -0.024941399693489075, 0.1054224893450737, 0.00493851350620389, 0.13765586912631989, 0.01658102497458458, 0.19636762142181396, 0.10987108945846558, 0.14315056800842285, 0.09372936934232712, 0.018359661102294922, 0.09273689240217209, 0.0669017881155014, 0.11542470008134842, -0.28988322615623474, -0.05458790063858032, 0.19924770295619965, -0.10936190187931061, -0.01631014049053192, 0.026264922693371773, -0.137125164270401, -0.0219679307192564, 0.08389978110790253, 0.058701880276203156, -0.07417993247509003, -0.14426150918006897, -0.060655415058135986, 0.012369467876851559, 0.09743275493383408, -0.0735749751329422, 0.0327407643198967, 0.061978936195373535, -0.00641746586188674, -0.06380967795848846, 0.023826712742447853, 0.008171833120286465, -0.08143237978219986, -0.057831790298223495, 0.047865599393844604, -0.040756311267614365, -0.0998571440577507, 0.1767289638519287, 0.20162135362625122, 0.03826313838362694, -0.05168871209025383, -0.05351124331355095, -0.0980169028043747, 0.0799286738038063], [0.04343239217996597, -0.26734665036201477, -0.04324241727590561, 0.0011450363090261817, -0.21300464868545532, -0.0013182464754208922, -0.1481017917394638, -0.0680316910147667, -0.3598828613758087, -0.15003466606140137, 0.05024125427007675, 0.15762901306152344, -0.011987511068582535, -0.039504241198301315, -0.05134718492627144, 0.3181781768798828, -0.08031477779150009, 0.025281736627221107, -0.3063342273235321, 0.2858704924583435, 0.38609763979911804, -0.11535871028900146, 0.16812795400619507, -0.33586999773979187, 0.18999707698822021, -0.49978107213974, 0.07854722440242767, -0.3714691400527954, 0.3412010967731476, -0.12453895807266235, 0.4684828519821167, -0.3009871244430542, 0.10028162598609924, 0.04868301376700401, 0.25535285472869873, -0.020126938819885254, -0.20722649991512299, -0.1772698611021042, 0.09974300861358643, -0.40028297901153564, -0.05494636669754982, -0.026682907715439796, 0.09074582904577255, 0.0584852434694767, 0.22861537337303162, 0.015300057828426361, 0.20156486332416534, 0.2695499062538147, 0.4637860953807831, -0.0564570352435112, 0.2873974144458771, -0.07975973933935165, 0.19692333042621613, -0.033475108444690704, 0.20524325966835022, -0.03343847766518593, -0.2273426204919815, 0.10300958901643753, 0.005010376684367657, 0.04799933359026909, -0.24813194572925568, -0.2499847114086151, -0.31632405519485474, -0.224613219499588, 0.22265267372131348, -0.20730264484882355, 0.07025158405303955, 0.0375976637005806, -0.06460651755332947, -0.017562851309776306, 0.2393944263458252, 0.21224866807460785, 0.139865905046463, 0.2395624965429306, 0.06307977437973022, 0.18434302508831024, -0.1797490119934082, 0.30732443928718567, -0.07729792594909668, 0.20341485738754272, -0.06638731062412262, 0.04948100447654724, -0.4212366044521332, -0.21606016159057617, 0.003386107739061117, 0.10665357112884521, -0.06879062205553055, 0.07158151268959045, 0.19805778563022614, 0.40697339177131653, -0.009503629989922047, -0.22315578162670135, 0.17560774087905884, -0.3561544120311737, 0.1278960406780243, 0.06756658107042313, -0.10514312982559204, 0.364862322807312, -0.10503016412258148, -0.09243185073137283, 0.1311444193124771, 0.150382861495018, 0.1997939646244049, 0.09802616387605667, -0.0646989494562149, -0.012724494561553001, 0.1796179562807083, 0.2521393299102783, -0.0464225709438324, 0.31183353066444397, 0.04022037610411644, -0.11488500982522964, 0.16408425569534302, -0.3031354248523712, -0.08293861895799637, -0.1571190357208252, 0.03439059108495712, -0.4281265437602997, 0.006457556504756212, -0.17848961055278778, -0.08069435507059097, 0.026925761252641678, -0.11269096285104752, 0.41291967034339905, -0.00971470307558775, -0.3775494396686554, -0.3695005178451538, -0.08837482333183289], [-0.03376045823097229, -0.34817203879356384, 0.009945506229996681, -0.10938677936792374, -0.1266707479953766, 0.04347039386630058, 0.45873746275901794, 0.055557139217853546, 0.17114225029945374, 0.09216838330030441, -0.06658942997455597, 0.0660402849316597, 0.15305808186531067, 0.06792456656694412, -0.18936827778816223, 0.3508400619029999, -0.20984143018722534, -0.5908914804458618, -0.17957136034965515, -0.7556856274604797, -0.16201619803905487, 0.12160074710845947, 0.25632229447364807, -0.08275030553340912, 0.11530731618404388, 0.5705335140228271, -0.14936870336532593, -0.20043623447418213, 0.059809811413288116, -0.14138293266296387, 0.006740891840308905, 0.3058014512062073, 0.11852056533098221, -0.07247615605592728, 0.0235180351883173, 0.07992532849311829, -0.25782275199890137, -0.20190389454364777, 0.18014651536941528, -0.16048409044742584, 0.2574223279953003, -0.0991198942065239, -0.3388049006462097, -0.12676408886909485, 0.1978282630443573, 0.07548007369041443, 0.004275467712432146, -0.0859183669090271, -0.11958739906549454, 0.1317240446805954, -0.2233162820339203, 0.1157338097691536, 0.12097037583589554, -0.22952166199684143, -0.5575655102729797, -0.06425857543945312, -0.3697044551372528, -0.0196513794362545, 0.1625373363494873, -0.32013875246047974, -0.42143964767456055, 0.187834233045578, -0.08806701004505157, 0.12547065317630768, -0.07187645137310028, -0.10840234905481339, -0.06313561648130417, -0.06658627837896347, -0.016944609582424164, -0.16236180067062378, 0.29541170597076416, -0.14557404816150665, 0.5648087859153748, -0.018803857266902924, -0.10337242484092712, -0.3142492175102234, 0.13945221900939941, 0.3963206708431244, 0.22358956933021545, 0.18903200328350067, 0.039930664002895355, 0.02604004181921482, -0.24609677493572235, 0.07385508716106415, 0.334052175283432, -0.005465875845402479, -0.07375546544790268, 0.09148204326629639, 0.31067606806755066, 0.16734716296195984, 0.036320775747299194, 0.11237762868404388, 0.19648133218288422, 0.08249258995056152, -0.19360582530498505, 0.40018925070762634, 0.15655018389225006, 0.01288177352398634, -0.07521627098321915, -0.1012604683637619, -0.22544820606708527, -0.0879267081618309, -0.3283764719963074, 0.040303464978933334, 0.1522274911403656, 0.1326938420534134, 0.2400256097316742, 0.0647004246711731, 0.23701494932174683, 0.06640081107616425, 0.18580661714076996, 0.03512373939156532, -0.06498287618160248, -0.004324257839471102, -0.18176160752773285, -0.16721472144126892, -0.30679991841316223, -0.28415921330451965, -0.015819277614355087, -0.26018044352531433, 0.07545972615480423, 0.6193579435348511, 0.20446573197841644, 0.16182415187358856, 0.05403916910290718, -0.0020463024266064167, -0.2697918117046356, -0.14582236111164093], [-0.014958259649574757, 0.09691229462623596, 0.014771069400012493, 0.08477205038070679, 0.0027687782421708107, 0.04731811210513115, -0.028046438470482826, -0.054881397634744644, -0.12421560287475586, 0.06464849412441254, 0.014464720152318478, -0.029853973537683487, 0.0236454326659441, 0.057797908782958984, 0.07357827574014664, 0.11279904097318649, -0.09866053611040115, -0.18504638969898224, 0.06148591265082359, -0.020607443526387215, -0.14160752296447754, 0.1425434648990631, -0.0600397065281868, 0.04595699906349182, 0.018237244337797165, -0.044676218181848526, 0.21484783291816711, 0.13768672943115234, 0.02240833267569542, 0.10622178018093109, 0.03383120149374008, 0.18704688549041748, -0.0736706331372261, 0.0539608933031559, 0.09375908970832825, 0.17685645818710327, 0.18002165853977203, 0.041396379470825195, -0.1263958066701889, 0.12648643553256989, -0.2730772793292999, -0.07200562953948975, -0.010341593995690346, -0.018116220831871033, 0.15059293806552887, 0.06912878155708313, 0.11028477549552917, 0.03459969535470009, 0.1415816992521286, 0.06315132975578308, -0.02251012809574604, -0.018538419157266617, 0.04996364191174507, -0.08517365157604218, -0.19913087785243988, -0.08859866857528687, -0.12667109072208405, 0.0589255727827549, -0.11764579266309738, -0.046360451728105545, -0.0003875098191201687, 0.17391973733901978, 0.08345895260572433, 0.08795016258955002, -0.06362506002187729, -0.05077507719397545, 0.05403360724449158, -0.050799041986465454, 0.1321466863155365, 0.020457204431295395, 0.009754050523042679, -0.04801343381404877, 0.1613272875547409, -0.026515396311879158, 0.1648981273174286, 0.09799261391162872, 0.09523139148950577, -0.01536415982991457, 0.04590848088264465, -0.06403418630361557, -0.28440383076667786, -0.021663352847099304, -0.15253865718841553, -0.037018097937107086, 0.021695703268051147, 0.06744145601987839, 0.1687570959329605, 0.06323110312223434, 0.1451549232006073, -0.025021037086844444, -0.15625134110450745, -0.045043181627988815, 0.10316252708435059, -0.006266952492296696, 0.027995439246296883, -0.08984185010194778, -0.2133294939994812, 0.0004133241600356996, -0.006643296685069799, -0.06657101958990097, -0.07586760818958282, 0.052204955369234085, -0.03684385493397713, -0.09831813722848892, 0.00739146675914526, -0.02413194626569748, -0.08985592424869537, -0.08605997264385223, -0.07925792783498764, 0.0062269181944429874, 0.06538242846727371, 0.050006523728370667, -0.3606460690498352, 0.016370968893170357, 0.01138927973806858, -0.037921030074357986, 0.005938008427619934, -0.25100797414779663, 0.10924386233091354, -0.04290150851011276, -0.1790904402732849, -0.16263031959533691, -0.26606306433677673, -0.1327042430639267, -0.020184680819511414, 0.050588466227054596, 0.15830671787261963, -0.09590186178684235], [-0.0001360829483019188, 0.05953962728381157, 0.12220866978168488, -0.028844548389315605, 0.035562172532081604, 0.05058616027235985, 0.11730808019638062, -0.014715121127665043, 0.12941718101501465, 0.11276426911354065, 0.051842860877513885, -0.12582050263881683, 0.10278060287237167, 0.031400058418512344, -0.007517969235777855, -0.021312203258275986, -0.2179272174835205, -0.1770540177822113, 0.06402962654829025, -0.10789433121681213, 0.07071871310472488, 0.0843050628900528, -0.016230933368206024, 0.2681363523006439, 0.0712943896651268, 0.03158799186348915, 0.020863017067313194, -0.15123379230499268, -0.009768632240593433, 0.09940885007381439, 0.07833757251501083, 0.13459624350070953, 0.03163237124681473, 0.07867990434169769, 0.006639545317739248, -0.04119584709405899, -0.15145343542099, -0.05416960269212723, 0.04809469357132912, -0.05976274982094765, 0.12116102129220963, -0.0054646763019263744, -0.008225777186453342, 0.041457146406173706, -0.053371530026197433, -0.16344095766544342, 0.00439614849165082, 0.15208838880062103, -0.013669479638338089, -0.119560107588768, -0.06210537999868393, 0.07702533155679703, 0.03975915163755417, 0.04116618633270264, -0.2035207599401474, 0.13776074349880219, 0.02625773847103119, 0.05691581591963768, 0.20564965903759003, -0.0168271753937006, -0.17097143828868866, 0.06625528633594513, 0.049960434436798096, 0.029890546575188637, 0.05364324897527695, -0.09391932189464569, 0.05007258802652359, 0.09085485339164734, 0.001059131813235581, -0.15944282710552216, 0.1281423270702362, 0.04945332929491997, -0.035363517701625824, 0.025235017761588097, 0.04316776245832443, 0.06657843291759491, -0.04296548664569855, -0.07160283625125885, 0.025348922237753868, 0.010493619367480278, -0.10116705298423767, -0.02013361267745495, 0.010999259538948536, 0.058494098484516144, 0.06004635989665985, 0.0003737937659025192, 0.17692497372627258, 0.025403274223208427, 0.026921527460217476, 0.09042400121688843, -0.08247135579586029, 0.045343369245529175, 0.01589031144976616, 0.2198992371559143, -0.08310069143772125, 0.07016753405332565, 0.09244878590106964, -0.0368073545396328, 0.018132008612155914, -0.045384448021650314, 0.04807773232460022, -0.08194699883460999, -0.04022357240319252, -0.13385474681854248, -0.0017635859549045563, -0.06314293295145035, -0.027663454413414, 0.023418236523866653, 0.07801253348588943, 0.015200978145003319, 0.08396089822053909, 0.06272943317890167, 0.029064273461699486, -0.0396513007581234, 0.051986489444971085, -0.03746265918016434, -0.15537692606449127, -0.014278384856879711, -0.008219882845878601, -0.000218492146814242, -0.05688561871647835, 0.10878258943557739, 0.056312195956707, 0.04759596288204193, -0.08339142054319382, 0.09571930021047592, -0.12044668942689896, -0.021961864084005356], [0.0007696182583458722, -0.15528318285942078, 0.22986482083797455, -0.12620246410369873, 0.02332376129925251, -0.09920775890350342, -0.05341257527470589, 0.02571689896285534, 0.12395155429840088, -0.3091811239719391, 0.024149365723133087, 0.26862844824790955, 0.1760784089565277, -0.20999862253665924, 0.305652379989624, 0.345575749874115, -0.3446514904499054, 0.023232892155647278, 0.14105123281478882, 0.0028223791159689426, -0.3746095895767212, 0.08199752867221832, 0.23786549270153046, 0.3637266457080841, 0.14063312113285065, 0.32226353883743286, 0.1553894728422165, -0.31246137619018555, 0.2072906792163849, 0.3291175663471222, -0.18573503196239471, 0.5389675498008728, 0.14179351925849915, 0.38499388098716736, 0.10579393804073334, 0.013794388622045517, -0.1042821928858757, -0.002830080920830369, -0.0868297889828682, 0.19354797899723053, 0.19377708435058594, -0.058408644050359726, 0.02045535109937191, 0.21889260411262512, 0.2723868191242218, -0.037345465272665024, -0.29442816972732544, 0.4054827392101288, -0.1192486435174942, -0.3349103629589081, 0.21012884378433228, 0.0065511600114405155, -0.1550426185131073, 0.2622142434120178, -0.17877788841724396, -0.04499364644289017, -0.077775739133358, 0.34836697578430176, -0.026887675747275352, -0.39666152000427246, -0.6659568548202515, 0.07813356816768646, -0.19582276046276093, 0.5306199789047241, -0.03277024254202843, 0.1019570454955101, 0.26695090532302856, 0.1170540302991867, -0.09546510875225067, -0.7125710248947144, 0.4075709581375122, 0.14522245526313782, 0.07724010944366455, -0.08249621093273163, -0.13757918775081635, -0.10971518605947495, 0.21084006130695343, -0.27816131711006165, -0.05863534286618233, -0.08960006386041641, -0.5401230454444885, -0.39611753821372986, -0.06730630993843079, 0.07824971526861191, 0.8608644604682922, 0.34462451934814453, 0.020457932725548744, 0.014225282706320286, 0.09850940853357315, -0.1891479343175888, -0.3056057095527649, 0.2160707712173462, -0.24309499561786652, 0.10924586653709412, -0.2546180188655853, 0.2642364203929901, -0.14164046943187714, 0.09055984765291214, 0.10611739009618759, -0.42422404885292053, -0.2775130867958069, 0.3608131408691406, 0.23778319358825684, -0.2744273245334625, -0.38733649253845215, -0.23978087306022644, 0.2884138524532318, 0.09209940582513809, 0.22297266125679016, 0.2139204442501068, 0.14016933739185333, -0.3592538833618164, -0.014196847565472126, -0.5673831701278687, 3.713724436238408e-05, -0.4142014682292938, 0.23601152002811432, -0.1415090560913086, 0.10682982951402664, -0.41320696473121643, 0.1399918496608734, 0.24069862067699432, 0.6701729893684387, 0.24292169511318207, -0.04350094869732857, 0.19106504321098328, -0.2868465483188629, 0.04480959102511406], [-0.051666438579559326, 0.02344362996518612, -0.05726732686161995, 0.05189904198050499, 0.12130458652973175, 0.07953857630491257, 0.08226260542869568, 0.004917104262858629, 0.03729446232318878, 0.0240834578871727, 0.038492217659950256, -0.017921514809131622, 0.1573203206062317, 0.06563176214694977, 0.1278364062309265, -0.03726784512400627, -0.13360550999641418, -0.16758157312870026, -0.03501693159341812, -0.0834733247756958, 0.11441099643707275, 0.09744472056627274, -0.012819021008908749, 0.21025285124778748, 0.05399271845817566, 0.20333299040794373, 0.028948741033673286, -0.02604973129928112, 0.07235697656869888, 0.06256059557199478, 0.02242789976298809, 0.058833152055740356, -0.033188145607709885, 0.13331641256809235, -0.011377534829080105, 0.01638886332511902, -0.13486424088478088, 0.027001025155186653, 0.10817606747150421, -0.0640326514840126, 0.059891872107982635, 0.011094662360846996, 0.005490222480148077, 0.0439932607114315, -0.01650087907910347, -0.14299684762954712, 0.013755705207586288, 0.10878610610961914, 0.05607868731021881, 0.005488166119903326, -0.05074205994606018, 0.00020931886683683842, 0.1127847284078598, -0.07881291955709457, -0.17470164597034454, 0.0554184764623642, 0.0553663931787014, 0.11454790085554123, 0.19980090856552124, -0.03380288556218147, -0.21623772382736206, 0.07354851812124252, -0.02575644478201866, 0.0228621494024992, 0.06251660734415054, 0.12060817331075668, 0.12792661786079407, 0.09331810474395752, 0.10536148399114609, -0.22797821462154388, 0.14065609872341156, -0.05245683714747429, 0.025393692776560783, 0.057035353034734726, 0.002073229756206274, 0.1259853094816208, 0.06943096965551376, 1.588352461112663e-05, 0.04489649087190628, -0.030284563079476357, -0.14856305718421936, 0.03757684677839279, 0.028313932940363884, -0.07468785345554352, 0.1056801974773407, 0.022375144064426422, 0.06979789584875107, 0.07300236076116562, 0.05831349268555641, 0.0852275937795639, -0.00255180592648685, 0.05162731185555458, -0.04277835413813591, -0.020019588991999626, -0.2586882412433624, -0.035074565559625626, 0.026351673528552055, -0.0036072353832423687, -0.024566292762756348, 0.06686539947986603, 0.023434806615114212, -0.10196084529161453, 0.0777207762002945, -0.04204356670379639, -0.05276333540678024, -0.09356917440891266, -0.07672218978404999, 0.11469481140375137, 0.16406962275505066, -0.10803988575935364, 0.03949261084198952, 0.05438739433884621, -0.07005509734153748, -0.08432874828577042, -0.013499712571501732, 0.11646847426891327, -0.03276459872722626, -0.07716519385576248, 0.08917507529258728, 0.044272612780332565, -0.01843765750527382, 0.14296922087669373, 0.15995380282402039, 0.03550941124558449, -0.013263017870485783, 0.07647920399904251, -0.07566657662391663, -0.04126149043440819], [-0.03885730355978012, 0.09159832447767258, 0.0762024000287056, -0.08639650791883469, 0.1803331971168518, -0.017387980595231056, 0.14899615943431854, -0.03497615456581116, 0.09045536071062088, 0.018878405913710594, 0.053646646440029144, -0.020233236253261566, 0.12851601839065552, -0.053379300981760025, 0.005812229588627815, 0.01301055308431387, -0.1211262047290802, -0.13186272978782654, -0.10457488894462585, -0.2661314010620117, 0.07470136880874634, 0.11392480134963989, 0.05804762616753578, 0.15062019228935242, 0.1528361588716507, 0.13406427204608917, 0.10934507846832275, -0.17533493041992188, 0.1227310374379158, 0.10470638424158096, -0.0077851638197898865, 0.048721134662628174, -0.06072903051972389, 0.05904107540845871, -0.0648641288280487, 0.09845203906297684, -0.11119081825017929, -0.014862751588225365, 0.01906048133969307, -0.12150087207555771, 0.07934076339006424, -0.05997892841696739, -0.046918123960494995, 0.08758191019296646, -0.023170994594693184, -0.27538979053497314, -0.10231980681419373, 0.17881156504154205, 0.06059147045016289, 0.05043216422200203, -0.1290111392736435, 0.06558467447757721, 0.13273701071739197, -0.14991866052150726, -0.14027079939842224, 0.17615514993667603, 0.06350139528512955, 0.08279380947351456, 0.1838550567626953, -0.11301497370004654, -0.19303156435489655, 0.06504334509372711, -0.04865206405520439, -0.0073722051456570625, 0.10907724499702454, 0.04276184365153313, 0.15364913642406464, 0.1094265952706337, 0.23425862193107605, -0.17096462845802307, 0.037951018661260605, 0.11134470999240875, 0.033286016434431076, 0.01528793666511774, 0.02472097799181938, 0.17797847092151642, 0.05172529071569443, -0.05160265415906906, 0.04641464725136757, -0.047591306269168854, -0.035234492272138596, -0.03446260839700699, 0.16026544570922852, 0.0121291633695364, 0.03362419456243515, 0.014837286435067654, 0.04453851655125618, 0.03493167832493782, 0.03999852016568184, 0.09176517277956009, -0.0640401765704155, 0.09478945285081863, -0.06546930968761444, 0.06978770345449448, -0.176927387714386, 0.04775816574692726, 0.0463351309299469, 0.15854890644550323, 0.05944645777344704, -0.06221219152212143, 0.06782423704862595, -0.061833128333091736, 0.03162769228219986, -0.06471505761146545, 0.1396341174840927, 0.014669603668153286, -0.005655651446431875, 0.0670594647526741, 0.11408057063817978, -0.09866317361593246, 0.06866607069969177, -0.08289110660552979, 0.008375209756195545, -0.16512243449687958, -0.06222618371248245, -0.027759922668337822, -0.04506257176399231, -0.09654245525598526, 0.09636285156011581, 0.00706487474963069, -0.10423769801855087, 0.09118436276912689, 0.174482062458992, -0.009898856282234192, 0.0009541417239233851, 0.06208200380206108, -0.1514144092798233, -0.02906772308051586], [-0.13262267410755157, -0.10666564106941223, 0.14055509865283966, -0.07723954319953918, 0.1403772234916687, 0.043254200369119644, 0.25577497482299805, -0.027496149763464928, 0.16886545717716217, 0.17094145715236664, 0.048148032277822495, -0.06540980190038681, 0.04960642755031586, -0.053761668503284454, 0.00542290648445487, -0.04465600103139877, -0.08281409740447998, -0.03111659362912178, -0.06281260401010513, -0.1691070795059204, 0.1049797534942627, 0.05552355572581291, -0.053918179124593735, 0.19186897575855255, 0.11204488575458527, 0.2178869992494583, 0.0275750569999218, -0.11413930356502533, 0.20202793180942535, 0.014726732857525349, 0.00538246612995863, 0.05701084062457085, -0.01517011784017086, 0.07588320225477219, -0.04988778010010719, -0.041786205023527145, -0.04187940061092377, -0.04959137737751007, 0.06515933573246002, -0.1937035769224167, -0.04085949808359146, -0.018970618024468422, -0.010272422805428505, 0.0722186490893364, -0.08182060718536377, -0.07847541570663452, -0.03879142180085182, 0.17078512907028198, -0.02070745639503002, -0.08281542360782623, -0.09285930544137955, 0.06289339065551758, 0.11496981233358383, 0.023607583716511726, -0.09432252496480942, 0.18540415167808533, 0.10246720165014267, 0.055855799466371536, 0.20328208804130554, 0.0031971854623407125, -0.057008594274520874, 0.05941922217607498, -0.06449895352125168, 0.030519990250468254, 0.06815747916698456, 0.03073088638484478, 0.12260320037603378, 0.139267697930336, 0.10052721202373505, -0.08245459198951721, 0.17006605863571167, 0.08287445455789566, 0.03072630800306797, 0.030752982944250107, 0.06831579655408859, 0.049290455877780914, 0.08526966720819473, 0.01378775853663683, 0.06541439145803452, 0.08477041870355606, -0.049441125243902206, 0.011713642627000809, 0.10704557597637177, -0.0366852805018425, 0.014985530637204647, 0.05177157744765282, 0.10596702247858047, 0.1356888711452484, 0.010783468373119831, 0.008835631422698498, -0.24053429067134857, 0.08781923353672028, 0.0561128705739975, 0.11677312105894089, -0.20634490251541138, 0.0021462987642735243, 0.03148293122649193, 0.04258214682340622, 0.00827657151967287, 0.011497581377625465, 0.0021597789600491524, -0.08095838874578476, 0.037477366626262665, -0.051730927079916, 0.1046082004904747, 0.007439589127898216, 0.001097239088267088, 0.010910259559750557, 0.09953011572360992, -0.07180046290159225, -0.020385872572660446, -0.020960524678230286, 0.031852949410676956, 0.003194117918610573, 0.04782469943165779, 0.03955904021859169, -0.1260068118572235, -0.02115093544125557, -0.003670212347060442, 0.024838045239448547, -0.03413330018520355, 0.15708614885807037, 0.09863633662462234, 0.058905065059661865, 0.09231682866811752, 0.03603731468319893, -0.129055455327034, 0.011033086106181145], [-0.008677592501044273, 0.02496509626507759, 0.021682681515812874, -0.0779595896601677, 0.10754294693470001, 0.04461951553821564, 0.058254629373550415, -0.0877966657280922, 0.1154382973909378, -0.014834458008408546, 0.07542253285646439, -0.06792420148849487, 0.10510454326868057, -0.05548238381743431, 0.049059052020311356, -0.045525334775447845, -0.055667195469141006, -0.1280941665172577, 0.048768505454063416, -0.0730346217751503, 0.029356034472584724, 0.07727779448032379, -0.015828261151909828, 0.09232541918754578, 0.04832623526453972, 0.015434798784554005, 0.11277244985103607, -0.05324539914727211, 0.06411989033222198, -0.00409914692863822, -0.017236502841114998, 0.08406122028827667, 0.021337350830435753, 0.14014436304569244, -0.12268956005573273, 0.09943628311157227, -0.09710292518138885, 0.04762258008122444, -0.007133109960705042, -0.07525645196437836, -0.029992202296853065, 0.03657260537147522, -0.05101592466235161, -0.03476803004741669, -0.0916564017534256, -0.13719657063484192, 0.002339343074709177, 0.10309304296970367, 0.004050858784466982, -0.009607157669961452, -0.09569955617189407, 0.09221724420785904, 0.11933279782533646, -0.014238825999200344, -0.017027458176016808, 0.16801786422729492, 0.09474717825651169, 0.05090305581688881, 0.20916259288787842, -0.011657314375042915, -0.09212726354598999, -0.008503741584718227, -0.06604935228824615, 0.01250826008617878, -0.036224279552698135, 0.10306768864393234, 0.06307823956012726, 0.007906975224614143, 0.01975143328309059, -0.20279957354068756, 0.06338917464017868, 0.0708971619606018, -0.021779991686344147, 0.04448046162724495, 0.07868898659944534, 0.100791335105896, -0.03832356259226799, -0.009374517016112804, 0.15421748161315918, 0.06056741997599602, -0.0324920229613781, -0.0035177813842892647, -0.00961952656507492, 0.019802551716566086, 0.15386471152305603, -0.03705285117030144, 0.18982012569904327, 0.031174030154943466, 0.06857826560735703, 0.1596011370420456, -0.028387529775500298, 0.03997127339243889, -0.005929986014962196, 0.06667733192443848, -0.1253703534603119, 0.01819470152258873, 0.1201636791229248, -0.004191732965409756, 0.07190049439668655, 0.03143201395869255, -0.0003240410005673766, -0.04339641332626343, 0.0742727518081665, -0.055953484028577805, 0.0684552788734436, -0.02689838781952858, -0.05818577855825424, 0.05619334802031517, 0.07142341881990433, -0.021090777590870857, 0.048651836812496185, 0.06674586981534958, 0.05621553584933281, 0.028408106416463852, 0.08003454655408859, -0.03606794402003288, -0.06260477006435394, 0.04005402699112892, 0.04872164502739906, 0.01623193360865116, -0.11176804453134537, 0.0554618313908577, 0.0031140779610723257, 0.011069398373365402, -0.022552596405148506, 0.050216615200042725, -0.11650300025939941, 0.017007017508149147], [-0.03916458040475845, 0.015407483093440533, 0.05140960216522217, -0.02178368531167507, 0.10866392403841019, 0.09059620648622513, 0.09261901676654816, -0.08506625890731812, 0.21809601783752441, 0.1247248649597168, 0.045832742005586624, 0.04745130613446236, 0.18363378942012787, 0.06787898391485214, 0.028319861739873886, 0.016755888238549232, -0.0928775742650032, -0.11636189371347427, -0.0357988141477108, -0.16220097243785858, -0.022229177877306938, 0.04815501719713211, -0.04105983301997185, 0.2159348875284195, 0.11783748120069504, 0.1387125700712204, 0.06735578179359436, -0.2001410573720932, 0.08143884688615799, -0.023382266983389854, 0.027466734871268272, 0.19264839589595795, 0.0676708072423935, -0.024760933592915535, -0.11148561537265778, 0.045025065541267395, -0.033999498933553696, 0.04647308215498924, 0.09495364874601364, 0.007967101410031319, 0.10535368323326111, -0.05369745194911957, -0.09035512804985046, 0.12271635979413986, -0.020138228312134743, -0.1381760984659195, -0.03211979195475578, 0.09761431813240051, -0.08362945169210434, 0.0488567054271698, -0.160546213388443, 0.06935659050941467, 0.11601006984710693, -0.05327845364809036, -0.030147895216941833, 0.207777202129364, 0.03383488580584526, 0.07084062695503235, 0.18840458989143372, -0.0801544338464737, -0.17496836185455322, -0.0403386652469635, 0.0175035260617733, 0.12607738375663757, -0.018475592136383057, 0.011821211315691471, 0.1207539364695549, 0.04178089275956154, 0.015193517319858074, -0.1351659744977951, 0.07479602843523026, 0.034179192036390305, -0.021298445761203766, -0.013321700505912304, 0.08789755403995514, 0.034547559916973114, -0.029198233038187027, 0.04632854089140892, 0.0055896514095366, 0.021276306360960007, -0.12044934183359146, 0.0585675910115242, -0.01642659306526184, 0.06822110712528229, 0.09804413467645645, -0.032577116042375565, 0.07268784195184708, 0.03136766329407692, 0.06613894551992416, 0.04528438299894333, -0.021338872611522675, 0.15541845560073853, 0.034092977643013, 0.04600342735648155, -0.22587253153324127, -0.08305622637271881, 0.13290394842624664, -0.03474889323115349, -0.09029203653335571, 0.09918548911809921, 0.017826339229941368, -0.042808398604393005, -0.020446665585041046, -0.107224240899086, 0.07142430543899536, 0.015705177560448647, -0.015035355463624, 0.013515911065042019, -0.021824903786182404, -0.09110651910305023, 0.15628640353679657, 0.06631874293088913, 0.035710353404283524, -0.10124991089105606, 0.05035412311553955, -0.05954749509692192, -0.11401891708374023, -0.07435408234596252, 0.08479976654052734, -0.00136758282314986, -0.05486499145627022, 0.15399260818958282, 0.08389680087566376, 0.0633310079574585, -0.11945220082998276, -0.020332342013716698, -0.08500754088163376, 0.03527524322271347], [-0.0748114064335823, -0.01761825941503048, 0.06703170388936996, 0.025159450247883797, 0.17499272525310516, 0.07594837248325348, 0.01670069433748722, -0.009874391369521618, 0.18233716487884521, 0.12391672283411026, 0.00332208932377398, -0.024995766580104828, 0.12657472491264343, -0.0345052145421505, -0.008463487029075623, 0.023047588765621185, -0.0962587520480156, -0.08110792934894562, -0.038585033267736435, -0.18499673902988434, 0.0996146872639656, 0.0864514708518982, -0.10954704135656357, 0.16213656961917877, 0.09600400924682617, 0.07652145624160767, 0.09728774428367615, -0.17331832647323608, 0.07539694756269455, 0.025777367874979973, 0.0025131232105195522, -0.014389635063707829, -0.006721446290612221, 0.030207887291908264, -0.021868005394935608, 0.039813075214624405, -0.06416983157396317, -0.06682806462049484, 0.07464852184057236, -0.12210652977228165, 0.06186351552605629, -0.08322935551404953, -0.0531124547123909, 0.06094653904438019, -0.06813015043735504, -0.14965304732322693, -0.00041221443098038435, 0.08735799044370651, 0.010291694663465023, -0.017357707023620605, -0.08256129920482635, -0.02464170567691326, 0.09783514589071274, -0.001642680959776044, -0.17670591175556183, 0.08996077626943588, 0.10575640201568604, 0.005990928038954735, 0.06806251406669617, -0.007869678549468517, -0.15734609961509705, 0.03040899895131588, 0.0015257663326337934, -0.024424782022833824, 0.11158830672502518, 0.011346107348799706, 0.08309175074100494, 0.06309983879327774, 0.0768398568034172, -0.06454592943191528, 0.12606658041477203, 0.04557645320892334, -0.06147482618689537, -0.015538515523076057, -0.05125368759036064, 0.026899972930550575, 0.013335318304598331, 0.0010896294843405485, 0.05554889142513275, 0.029867427423596382, -0.0690588429570198, 0.04429633915424347, 0.06842423975467682, 0.05027952790260315, 0.010783886536955833, -0.003170109586790204, 0.023695707321166992, -0.0037843126337975264, 0.05721350386738777, 0.01761820539832115, -0.08436868339776993, 0.128574401140213, -0.057028695940971375, 0.10990495979785919, -0.14638370275497437, 0.07280047237873077, 0.024418441578745842, 0.0228559747338295, 0.004107137210667133, -0.006203798111528158, 0.015861833468079567, -0.12517836689949036, -0.06706536561250687, -0.040792688727378845, -0.01620517112314701, -0.1188615933060646, 0.026241106912493706, -0.0313277505338192, 0.012072511948645115, -0.046270594000816345, 0.10245122015476227, -0.05875231698155403, -0.030859889462590218, -0.05981823801994324, -0.03602495416998863, 0.028071073815226555, -0.16241243481636047, -0.012245170772075653, 0.07497616857290268, -0.039091676473617554, -0.11597901582717896, 0.12572121620178223, 0.0814642384648323, 0.07703370600938797, 0.0577535443007946, 0.049706850200891495, -0.020396394655108452, -0.024300675839185715], [0.006594051141291857, -0.019752442836761475, 0.09990139305591583, 0.0673242136836052, 0.13852721452713013, 0.10351261496543884, 0.12381348013877869, -0.004176487680524588, 0.14184638857841492, 0.129908487200737, 0.034491464495658875, -0.06317101418972015, 0.21718819439411163, -0.0535135418176651, 0.02406446821987629, 0.11114458739757538, -0.05558513477444649, -0.03320497274398804, -0.06067376211285591, -0.13353145122528076, 0.1477489024400711, 0.12405169755220413, -0.0353609062731266, 0.24893945455551147, 0.131705641746521, 0.1426159292459488, 0.00972895510494709, -0.17393861711025238, 0.053951364010572433, 0.013267610222101212, -0.0628703311085701, -0.03401065617799759, 0.08222327381372452, 0.10918551683425903, -0.09345850348472595, -0.021342365071177483, -0.06565970182418823, -0.035453181713819504, -0.027381079271435738, -0.12233958393335342, 0.13354985415935516, -0.059464242309331894, 0.0720633789896965, 0.12964871525764465, -0.09631143510341644, -0.143644779920578, 0.04046677425503731, 0.2084220051765442, -0.026617836207151413, -0.11059992015361786, -0.18424493074417114, -0.022133508697152138, 0.028300870209932327, -0.09663531184196472, -0.09938634932041168, 0.11930873245000839, 0.11210646480321884, 0.13102245330810547, 0.20706699788570404, -0.10374441742897034, -0.1612669825553894, 0.02091219834983349, -0.0037863722536712885, 0.013938060961663723, 0.15131404995918274, -0.018110809847712517, 0.07020088285207748, 0.061671651899814606, 0.04574302211403847, -0.25800180435180664, 0.16953489184379578, 0.06296295672655106, 0.034849029034376144, 0.07158215343952179, 0.11406154930591583, 0.0906582921743393, 0.010470617562532425, -0.025859186425805092, 0.03532010316848755, 0.11393801122903824, -0.15317000448703766, 0.039472632110118866, -0.04882190003991127, -0.06760218739509583, 0.06843999773263931, 0.07236935943365097, 0.06309016793966293, 0.01446434948593378, 0.12187790125608444, 0.058064885437488556, -0.01770748943090439, 0.0719362124800682, 0.010090325027704239, 0.043034859001636505, -0.16579072177410126, 0.06905630230903625, 0.027276698499917984, 0.050224050879478455, 0.13679778575897217, 0.08897213637828827, 0.09061098098754883, -0.10769789665937424, -0.0107571417465806, 0.007375120185315609, 0.030108321458101273, -0.14297699928283691, 0.004699297249317169, 0.10454125702381134, 0.08738115429878235, -0.04158078506588936, 0.05893542617559433, -0.03463544324040413, 0.02256709523499012, -0.012250452302396297, -0.06376714259386063, -0.010434138588607311, -0.13151487708091736, 0.01138702966272831, 0.00417947955429554, 0.005956246051937342, -0.021829580888152122, 0.1809520125389099, 0.23927848041057587, 0.04007446765899658, 0.03680456429719925, 0.16615687310695648, -0.13264618813991547, 0.08409223705530167], [-0.04080919548869133, -0.02997126430273056, 0.053471874445676804, -0.061098095029592514, 0.03501410409808159, 0.13536889851093292, 0.141396626830101, 0.10237637162208557, 0.11824909597635269, 0.05912473425269127, 0.061217669397592545, -0.07806101441383362, 0.06945514678955078, -0.01876039244234562, 0.07446683198213577, -0.0687088891863823, -0.1275070607662201, -0.1398618072271347, -0.03648488596081734, -0.061050571501255035, 0.10589807480573654, 0.05332007259130478, -0.008523061871528625, 0.041624926030635834, 0.02332131937146187, 0.10266365855932236, 0.026638157665729523, -0.0568709671497345, 0.0818357914686203, 0.037541985511779785, 0.06484389305114746, 0.038721367716789246, 0.03324214369058609, 0.05215824395418167, 0.06959269195795059, 0.00264464458450675, -0.13658158481121063, -0.12866461277008057, 0.025837939232587814, -0.10352107137441635, 0.046509359031915665, -0.0385158434510231, 0.11325500905513763, 0.10167736560106277, -0.044686030596494675, -0.05512166768312454, 0.00973314605653286, 0.04496489465236664, 0.046352650970220566, -0.10254768282175064, 0.03162677213549614, 0.021869506686925888, 0.14435479044914246, 0.004205223172903061, -0.12755464017391205, 0.11982610076665878, 0.08338361978530884, 0.06769131124019623, 0.1686539351940155, -0.017797604203224182, -0.06165321543812752, 0.11518020927906036, 0.04113493487238884, 0.028209885582327843, 0.09244972467422485, -0.02156909741461277, 0.119574174284935, 0.11582595109939575, 0.06125061959028244, -0.14514385163784027, 0.16308055818080902, 0.021722791716456413, -0.01129274070262909, 0.04553227499127388, 0.03180950880050659, 0.0732552632689476, -0.10261713713407516, -0.004194310866296291, -0.028820741921663284, -0.009267464280128479, -0.02183227427303791, 0.010929709300398827, 0.033855706453323364, 0.04442552477121353, 0.15007807314395905, -0.02243899181485176, 0.17946358025074005, 0.059774190187454224, 0.15758121013641357, 0.003663146635517478, 0.002516774693503976, 0.06972026079893112, 0.08201616257429123, 0.06664390861988068, -0.2729804515838623, -0.0039841714315116405, 0.11253083497285843, 0.02081110142171383, 0.024988260120153427, -0.06908100098371506, 0.045553211122751236, -0.029243919998407364, 0.04689987748861313, -0.02550583705306053, -0.09981195628643036, -0.041235506534576416, -0.03754856809973717, -0.04567157104611397, 0.12940220534801483, -0.07174361497163773, 0.048334650695323944, 0.03460974991321564, -0.039669185876846313, -0.028180735185742378, -0.013270027004182339, -0.007741380017250776, -0.15073049068450928, -0.030101314187049866, 0.01583045721054077, 0.05361223220825195, -0.03181600198149681, 0.1076139286160469, 0.16393162310123444, 0.01642688922584057, 0.08512134104967117, 0.004642623942345381, -0.045614663511514664, 0.06208410859107971], [-0.04069012776017189, -0.1316780298948288, -0.0582570917904377, 0.010233421809971333, -0.08908659964799881, 0.0008231156971305609, 0.08800836652517319, -0.10781680792570114, 0.09965218603610992, 0.07076466828584671, -0.13392572104930878, -0.1763465404510498, 0.018293624743819237, -0.04946955665946007, 0.009904311038553715, -0.2706727981567383, 0.0337102897465229, -0.031172942370176315, 0.0001490586728323251, -0.09304901212453842, -0.11592008918523788, 0.08624548465013504, 0.11935786157846451, 0.025534359738230705, 0.10059871524572372, 0.07032252848148346, 0.14771705865859985, 0.06941188871860504, 0.1808241307735443, -0.06696859747171402, 0.04520673677325249, 0.32822421193122864, -0.12971985340118408, -0.12377049773931503, -0.022981466725468636, -0.25834402441978455, 0.13576076924800873, 0.11333253234624863, -0.14815400540828705, 0.1578909307718277, -0.018776901066303253, 0.050493285059928894, 0.008595944382250309, -0.13905850052833557, -0.1468530148267746, -0.009325054474174976, 0.1777743250131607, 0.06887371838092804, 0.02743578888475895, -0.16090071201324463, 0.08467911183834076, -0.0904972106218338, 0.05875736102461815, -0.08310648053884506, -0.07799242436885834, -0.029670851305127144, -0.12525497376918793, 0.3082294464111328, 0.1994294822216034, 0.06310630589723587, 0.11217716336250305, 0.14228619635105133, -0.06402363628149033, -0.036463841795921326, 0.09173993766307831, 0.05815570056438446, -0.027648931369185448, 0.09755494445562363, 0.08198641985654831, -0.0521995984017849, 0.013203256763517857, -0.027824295684695244, 0.011947150342166424, -0.11494283378124237, -0.02057039551436901, -0.16730400919914246, 0.07755043357610703, -0.04329991713166237, -0.04496678709983826, -0.0668281689286232, 0.13357003033161163, -0.1345377266407013, 0.22475562989711761, 0.014882977120578289, -0.004469677340239286, -0.1571304053068161, 0.011090794578194618, -0.037356313318014145, 0.06691354513168335, -0.02356850728392601, 0.12452254444360733, -0.009161100722849369, -0.09176494926214218, -0.11894992738962173, 0.14892753958702087, 0.04999363049864769, 0.006099333520978689, -0.08029311150312424, -0.09444567561149597, 0.07048466801643372, -0.017069261521100998, -0.026270639151334763, 0.046292565762996674, -0.15058334171772003, -0.0053831711411476135, -0.11703646928071976, 0.08405829221010208, 0.19117721915245056, 0.056102365255355835, -0.06415916979312897, 0.1336059421300888, -0.08866102993488312, -0.24735984206199646, -0.03443513438105583, 0.043707191944122314, 0.07332941144704819, -0.08646214753389359, -0.11110731214284897, 0.06126236543059349, 0.045062895864248276, -0.10525178909301758, -0.1408775895833969, 0.26076528429985046, -0.03161529824137688, 0.07119264453649521, -0.1658034771680832, 0.007500923238694668, -0.1806371659040451], [-0.07547720521688461, -0.10862855613231659, 0.11373451352119446, 0.007198832463473082, 0.18212035298347473, 0.16136620938777924, 0.0786115825176239, -0.09394359588623047, 0.16170485317707062, 0.06111948937177658, 0.043566685169935226, -0.0900626853108406, 0.11543282121419907, -0.004970942158252001, -0.0060547757893800735, -0.04623422771692276, -0.14010947942733765, -0.07313206791877747, -0.195582315325737, -0.16471584141254425, 0.07426862418651581, -0.03357360139489174, -0.06512950360774994, 0.26560071110725403, 0.06125852093100548, 0.14314837753772736, 0.062295928597450256, 0.05888957530260086, 0.10695328563451767, 0.013188323937356472, -0.051894817501306534, 0.11515086144208908, -0.06183233857154846, 0.02136973664164543, 0.04632384702563286, -0.06860832870006561, -0.004174426198005676, -0.023898368701338768, 0.0726630762219429, -0.10985595732927322, 0.10742156207561493, -0.05191752314567566, -0.04363451153039932, 0.05631532892584801, -0.08539465814828873, -0.017346680164337158, -0.01630282774567604, 0.04005460441112518, 0.03482635319232941, 0.04369845613837242, -0.05927442014217377, 0.01342734694480896, 0.15208277106285095, -0.06034073233604431, -0.21549539268016815, 0.16025204956531525, 0.22165262699127197, 0.1281183809041977, 0.18274419009685516, -0.06341754645109177, -0.009990505874156952, 0.05100099742412567, 0.00701034814119339, -0.014879073016345501, 0.08082721382379532, -0.03102393075823784, 0.07300660014152527, 0.03785664215683937, 0.035626787692308426, -0.1741248071193695, 0.18191374838352203, 0.2300887256860733, -0.01580304652452469, 0.07727406173944473, 0.0019359717844054103, 0.07913167774677277, 0.05212384834885597, 0.011691848747432232, 0.04267227649688721, -0.1214267835021019, -0.10491230338811874, -0.032574303448200226, 0.0348999984562397, -0.0697682797908783, 0.15305736660957336, 0.011631487868726254, 0.1569421887397766, 0.09730127453804016, 0.07654933631420135, -0.03828263282775879, -0.026510637253522873, 0.07965946197509766, -0.021500201895833015, 0.02360581047832966, -0.23908431828022003, 0.06164201721549034, 0.1179146021604538, 0.058075062930583954, 0.039037927985191345, -0.01316973939538002, 0.03310457989573479, 0.013129478320479393, 0.04596400633454323, -0.045380495488643646, -0.038351211696863174, -0.0530255064368248, -0.07773573696613312, 0.016368690878152847, 0.08814361691474915, 0.010102076455950737, 0.02266591228544712, -0.02744446136057377, 0.08720161765813828, 0.07506951689720154, 0.04850627854466438, -0.05322908237576485, -0.08270376175642014, -0.08642857521772385, -0.012758195400238037, -0.04959152638912201, -0.026248805224895477, 0.20059877634048462, 0.2402072697877884, 0.021161356940865517, 0.040220145136117935, 0.032738760113716125, -0.15554293990135193, -0.013021846301853657], [0.09554057568311691, 0.021991008892655373, 0.07327527552843094, -0.17703138291835785, -0.08856923133134842, -0.41092267632484436, 0.022616606205701828, -0.207770437002182, -0.2092984914779663, -0.27301448583602905, -0.07746539264917374, 0.02094203233718872, 0.3023544251918793, 0.19579635560512543, -0.2016391158103943, 0.13699932396411896, 0.2520034611225128, 0.07757310569286346, 0.25182273983955383, 0.030904652550816536, -0.3472258150577545, 0.17785677313804626, -0.04929539933800697, -0.20107413828372955, -0.24178573489189148, 0.13792531192302704, 0.2054964005947113, -0.24754513800144196, 0.3794569969177246, -0.038756366819143295, -0.0258334893733263, 0.1930062621831894, 0.02949678525328636, -0.2639428973197937, 0.045051831752061844, -0.27277636528015137, 0.035491447895765305, 0.3617493212223053, 0.1851736605167389, -0.20701982080936432, 0.08177325874567032, 0.01655607670545578, -0.042144693434238434, -0.009703516028821468, -0.26162731647491455, -0.21789298951625824, 0.08765946328639984, -0.11446510255336761, 0.15126796066761017, 0.027370257303118706, -0.10280150175094604, 0.08234918862581253, 0.007949535734951496, 0.0022812418173998594, 0.21276907622814178, 0.056739404797554016, -0.20141492784023285, 0.23569335043430328, 0.030036671087145805, 0.06250122934579849, -0.22464169561862946, -0.15288664400577545, -0.254218727350235, 0.14340877532958984, -0.05091370642185211, 0.11495794355869293, 0.20717215538024902, -0.09056519716978073, 0.23176202178001404, 0.1774877905845642, -0.2244536280632019, -0.16260282695293427, 0.015415015630424023, 0.22875738143920898, -0.22544637322425842, -0.004301090724766254, 0.020573263987898827, 0.055091459304094315, -0.10413462668657303, 0.2633538544178009, -0.4047074019908905, -0.213088721036911, -0.10537862777709961, -0.03111911378800869, 0.26022905111312866, -0.11525293439626694, 0.010326256975531578, -0.0317024365067482, -0.22655095160007477, 0.0793822780251503, 0.2761562168598175, -0.23165251314640045, 0.09641753137111664, -0.003085220232605934, -0.10520163923501968, -0.04866596311330795, -0.2720189094543457, 0.17113706469535828, -0.07114254683256149, -0.08077474683523178, 0.2262406200170517, 0.22928433120250702, -0.09492270648479462, -0.03726523369550705, 0.2154577076435089, 0.061090417206287384, 0.17938950657844543, -0.08347795158624649, -0.237849161028862, 0.07545962929725647, -0.10588845610618591, 0.11708719283342361, -0.22563274204730988, 0.3238701820373535, -0.774483323097229, 0.2510203421115875, -0.21613304316997528, 0.05138421803712845, -0.15259958803653717, -0.024039365351200104, -0.36404597759246826, -0.024785855785012245, 0.11154533177614212, 0.039351824671030045, -0.006151089910417795, 0.29374122619628906, 6.038916762918234e-05, 0.13625310361385345], [0.1454847902059555, -0.05421290546655655, 0.07482965290546417, -0.0844612568616867, 0.2990378141403198, 0.10207002609968185, 0.10317818820476532, -0.07552319765090942, -0.012730589136481285, -0.029649363830685616, 0.1753798872232437, -0.03894782066345215, 0.057745061814785004, 0.19240878522396088, 0.0955490916967392, 0.0741305723786354, 0.0007478267652913928, 0.18248313665390015, -0.06468835473060608, 0.007097248919308186, -0.04050600528717041, -0.03196368366479874, 0.018933158367872238, -0.048457298427820206, 0.24666674435138702, -0.10231644660234451, -0.17642785608768463, -0.07770761847496033, 0.016226934269070625, -0.07291900366544724, -0.058757320046424866, -0.13788029551506042, -0.11313482373952866, 0.038177553564310074, -0.005310283042490482, -0.12181249260902405, -0.027825741097331047, 0.03893193602561951, -0.003993796184659004, -0.047025732696056366, -0.10636672377586365, -0.014925271272659302, -0.03504651412367821, 0.061659183353185654, -0.09336963295936584, -0.022189507260918617, -0.03403085842728615, 0.08402490615844727, -0.09050142019987106, -0.08563567698001862, -0.01739402487874031, -0.036751218140125275, 0.10600542277097702, -0.07377240061759949, -0.0660194456577301, 0.12783381342887878, 0.06391099840402603, 0.04195491969585419, -0.26024171710014343, -0.09355159848928452, -0.10927692800760269, 0.203190416097641, 0.06808409094810486, 0.09869994223117828, -0.06393710523843765, 0.0934770405292511, -0.011761433444917202, -0.01189605612307787, -0.06375858187675476, -0.04273704066872597, -0.002583652501925826, 0.005413507577031851, -0.2658831775188446, -0.08365772664546967, -0.19082586467266083, 0.029609903693199158, -0.05334797501564026, 0.06424573808908463, -0.047031696885824203, 0.01989961601793766, 0.13798414170742035, -0.09868083894252777, 0.004583678673952818, -0.00786397885531187, 0.003659917740151286, -0.26595914363861084, -0.131291463971138, -0.18894846737384796, 0.10910679399967194, 0.08542970567941666, 0.02966800145804882, -0.032001860439777374, -0.12434234470129013, 0.009403075091540813, 0.08571074157953262, -0.08610394597053528, 0.014674996957182884, 0.17967692017555237, -0.02822241559624672, -0.03322482481598854, 0.15511099994182587, -0.040074869990348816, -0.032921817153692245, 0.08307543396949768, -0.15717844665050507, 0.1353096067905426, -0.19623221457004547, -0.044848132878541946, 0.061873659491539, -0.04992270469665527, 0.008250012993812561, 0.0589492991566658, -0.06875216215848923, 0.03273724764585495, -0.07409325242042542, 0.0697735920548439, -0.20794834196567535, 0.04043704643845558, 0.006150028668344021, -0.06484762579202652, 0.11243553459644318, 0.057009220123291016, -0.08796323090791702, 0.09591738134622574, 0.02285517379641533, 0.08446456491947174, 0.022277388721704483, -0.09141084551811218], [0.02380296215415001, -0.16805213689804077, 0.05264420434832573, -0.04162151739001274, 0.2065006047487259, 0.12180041521787643, 0.009582770988345146, 0.026450367644429207, 0.2188088446855545, 0.06727717071771622, -0.10913130640983582, -0.04186517372727394, 0.014238851144909859, 0.08396058529615402, -0.036264389753341675, -0.11535966396331787, -0.20940139889717102, 0.15970918536186218, 0.17201095819473267, 0.03267946094274521, 0.0779728963971138, 0.15400178730487823, -0.2196274846792221, 0.11693524569272995, -0.007246270775794983, -0.18664418160915375, 0.04699819162487984, -0.03984658420085907, 0.041973572224378586, 0.06766679883003235, 