{"d_model": 128, "d_dict": 512, "k": 96, "encoder_weight": [[-0.09236770868301392, -0.08447419852018356, 0.024906080216169357, -0.006413082592189312, 0.1921936273574829, 0.14316415786743164, 0.08854568749666214, -0.09583927690982819, 0.0725124403834343, 0.08125662058591843, 0.031335365027189255, -0.0038990811444818974, 0.0391804501414299, -0.10254746675491333, 0.053277093917131424, -0.0027889003977179527, -0.1943356990814209, 0.023924296721816063, -0.07384335994720459, -0.15037775039672852, 0.0533173531293869, 0.042972926050424576, 0.008931822143495083, 0.16811570525169373, 0.12444017082452774, 0.016504457220435143, -0.0272703655064106, -0.09120947122573853, 0.09386768192052841, 0.08148355782032013, 0.05739118531346321, 0.015496807172894478, -0.02281603030860424, 0.1494862288236618, -0.08370193839073181, -0.09867262840270996, -0.14692065119743347, 0.007811901159584522, -0.014577429741621017, -0.13347092270851135, 0.05264519900083542, 0.029978306964039803, -0.07679928094148636, 0.24720093607902527, -0.07925736159086227, -0.21344181895256042, -0.08985298871994019, 0.0631641298532486, -0.06316959112882614, -0.024510804563760757, -0.06187351047992706, -0.026126867160201073, 0.11533793807029724, -0.035396598279476166, -0.124176986515522, 0.0654592365026474, 0.24480926990509033, 0.008205493912100792, 0.22973446547985077, -0.06448503583669662, -0.11122991889715195, 0.009224114939570427, 0.013871201314032078, 0.1346728801727295, 0.058510150760412216, -0.03505716100335121, 0.09982805699110031, 0.11046247184276581, 0.0008383107488043606, -0.21514268219470978, 0.23984134197235107, 0.12244036048650742, -0.07777927815914154, 0.09965509921312332, 0.03725900501012802, 0.1239076480269432, 0.0459844172000885, -0.011608009226620197, 0.06825863569974899, -0.0015433672815561295, -0.14793740212917328, 0.05377431958913803, 0.032587289810180664, -0.09135597944259644, 0.0766979232430458, 0.004049088805913925, 0.07744525372982025, 0.06808722019195557, 0.030167749151587486, 0.0884375274181366, -0.026420729234814644, 0.07468444108963013, -0.0027179070748388767, 0.09781438857316971, -0.08118037134408951, -0.06038668379187584, 0.05766830965876579, 0.012243226170539856, -0.012048589996993542, 0.03788137808442116, 0.13482308387756348, -0.04235988110303879, 0.06423774361610413, -0.023482702672481537, 0.008276650682091713, -0.1374010294675827, 0.08097068220376968, 0.08237890899181366, 0.04319705441594124, -0.10098500549793243, 0.013566670939326286, 0.07434285432100296, -0.01806771568953991, -0.007488627918064594, 0.14670835435390472, -0.10679644346237183, -0.0775107890367508, -0.06321873515844345, 0.07679258286952972, -0.007494972087442875, -0.060733191668987274, 0.07987591624259949, 0.04380472004413605, 0.013899274170398712, -0.019372010603547096, 0.023023022338747978, 0.010479369200766087, 0.060242436826229095], [0.14985805749893188, -0.09685543924570084, -0.05865751579403877, -0.049998264759778976, 0.07220599800348282, 0.4675064980983734, 0.02231171354651451, 0.6643930077552795, 0.042082224041223526, -0.18139271438121796, 0.05342686176300049, 0.021409999579191208, -0.21880559623241425, 0.2716189920902252, 0.05357998609542847, 0.1729518473148346, -0.23361465334892273, 0.07226977497339249, 0.3419012427330017, -0.041136424988508224, -0.049432653933763504, 0.22957785427570343, -0.06444117426872253, -0.27390235662460327, 0.15133358538150787, -0.17173705995082855, 0.16021952033042908, 0.14651262760162354, -0.1270931363105774, 0.18545709550380707, -0.2136961668729782, 0.22824962437152863, 0.5184136033058167, 0.11493465304374695, 0.35991328954696655, 0.011827195063233376, -0.17301934957504272, 0.24770909547805786, 0.035162974148988724, -0.13524694740772247, -0.055966272950172424, 0.10288862138986588, -0.679650068283081, 0.2697158455848694, 0.12810592353343964, -0.37795788049697876, 0.008877363987267017, -0.12212525308132172, 0.21173922717571259, -0.17106947302818298, 0.20874342322349548, 0.17996323108673096, 0.16414774954319, -0.34311380982398987, 0.14128057658672333, 0.13434237241744995, 0.03756990283727646, 0.20925994217395782, -0.10291937738656998, 0.25711771845817566, 0.07626422494649887, 0.11237765103578568, 0.0378386564552784, 0.21697689592838287, 0.5248978137969971, 0.01426516380161047, 0.14857396483421326, 0.051678769290447235, 0.47869640588760376, 0.02937895804643631, 0.21539725363254547, 0.14384368062019348, 0.12603434920310974, -0.25176364183425903, -0.24238447844982147, 0.2903008759021759, 0.10051897168159485, -0.09426511079072952, -0.023355968296527863, 0.11939556151628494, -0.17121310532093048, 0.15114548802375793, 0.10266494750976562, 0.23441468179225922, -0.08006756752729416, 0.2276238203048706, 0.004089917987585068, -0.14636869728565216, 0.19393932819366455, 0.35601675510406494, 0.12603682279586792, 0.08630241453647614, 0.07335192710161209, -0.25391098856925964, 0.13259775936603546, 0.15011774003505707, -0.30206799507141113, -0.016984308138489723, 0.42905792593955994, 0.4432929754257202, 0.22345906496047974, 0.13110938668251038, 0.2715371251106262, -0.0022909361869096756, 0.15419849753379822, -0.06052768602967262, 0.28554388880729675, 0.23824946582317352, -0.26399728655815125, 0.27109843492507935, -0.23551389575004578, -0.06176359951496124, -0.1618487536907196, 0.018927784636616707, 0.09890872240066528, 0.07927168160676956, -0.034040678292512894, -0.19012871384620667, -0.2885190546512604, 0.12833493947982788, -0.13641320168972015, 0.06749746203422546, 0.04419109225273132, 0.5127339959144592, -0.2062542587518692, 0.20286504924297333, -0.17454881966114044, 0.025263583287596703], [-0.28429579734802246, 0.1839870810508728, 0.22711384296417236, -0.12419874966144562, -0.21597252786159515, -0.12874048948287964, -0.3295483887195587, 0.18487189710140228, 0.1490972340106964, 0.011658577248454094, 0.005576046649366617, -0.10018886625766754, 0.025606922805309296, -0.3231794834136963, 0.3430519700050354, 0.1425843983888626, -0.12870050966739655, -0.16589941084384918, -0.3871425986289978, 0.20445434749126434, 0.32841458916664124, 0.12009447067975998, 0.24840489029884338, 0.02592289261519909, -0.005652551539242268, 0.15002642571926117, -0.051171936094760895, -0.3389672040939331, -0.07586110383272171, 0.25962427258491516, -0.12621380388736725, -0.05502641201019287, -0.06015549972653389, -0.10987785458564758, 0.03673253953456879, 0.05448876693844795, -0.14931802451610565, -0.4148867726325989, 0.1259099245071411, -0.1709716022014618, -0.17638908326625824, -0.039738964289426804, 0.001861876924522221, -0.3861440122127533, -0.06503802537918091, 0.027912557125091553, 0.037026870995759964, 0.13830383121967316, -0.08474942296743393, -0.17832478880882263, 0.22865206003189087, 0.017149444669485092, -0.05996344983577728, 0.06264809519052505, 0.03770803287625313, 0.2819688022136688, -0.14070415496826172, -0.1883043348789215, -0.08106879889965057, -0.03786737099289894, 0.027068961411714554, 0.17101392149925232, -0.35629937052726746, -0.2105208784341812, -0.24945072829723358, 0.09779364615678787, -0.055553387850522995, 0.08124780654907227, -0.05720445513725281, -0.2707459330558777, -0.004252335987985134, -0.1709529310464859, 0.2961328625679016, 0.3714902698993683, -0.1833941638469696, 0.054844196885824203, 0.10649575293064117, -0.06294379383325577, 0.33322420716285706, -0.053515031933784485, 0.032518014311790466, 0.015273123048245907, -0.36732175946235657, -0.03201783075928688, -0.04541913419961929, 0.020383860915899277, -0.10948285460472107, 0.13582411408424377, -0.3139841556549072, 0.37199726700782776, -0.11305546760559082, 0.1831478625535965, 0.03884822875261307, -0.29924869537353516, 0.31849205493927, -0.054940346628427505, -0.33917656540870667, -0.1666039377450943, -0.02385716326534748, 0.39317774772644043, 0.024179643020033836, -0.03139723464846611, -0.4542844891548157, -0.06795752793550491, 0.09879398345947266, 0.09865149110555649, -0.10575378686189651, 0.14854784309864044, -0.266999214887619, 0.14412862062454224, 0.1863485872745514, -0.22731627523899078, -0.014948136173188686, -0.016515683382749557, -0.029106950387358665, 0.412349671125412, 0.11176073551177979, -0.0859222337603569, 0.20476673543453217, -0.2989988327026367, 0.13707669079303741, -0.09713426232337952, -0.0778234526515007, 0.19279249012470245, 0.3875662088394165, 0.009668998420238495, 0.02476656250655651, 0.11679748445749283], [-0.12605158984661102, -0.04002515971660614, 0.02728557027876377, 0.010398516431450844, 0.10929109901189804, 0.03729835897684097, 0.08121077716350555, 0.057378657162189484, 0.08741337060928345, 0.08593568205833435, 0.08775851130485535, -0.048656970262527466, -0.002657851669937372, -0.003949220757931471, 0.07217331975698471, 0.006521256640553474, -0.06451858580112457, -0.016517767682671547, -0.024693388491868973, -0.12585081160068512, 0.029099376872181892, 0.0143838319927454, -0.03713476285338402, 0.07011397927999496, 0.04638126119971275, -0.025364356115460396, -0.01077098399400711, -0.03793318569660187, 0.05888430029153824, 0.054129164665937424, -0.08763561397790909, -0.006814897991716862, 0.05928483232855797, 0.05014679953455925, -0.08299991488456726, -0.06428329646587372, -0.12235318124294281, 0.0038476858753710985, -0.00428386963903904, -0.11865854263305664, 0.017744185402989388, 0.030811795964837074, 0.020495152100920677, 0.09569429606199265, -0.033028602600097656, -0.16200174391269684, -0.040186334401369095, 0.0912201777100563, -0.07265245914459229, -0.0664391964673996, 0.056203436106443405, -0.0023093591444194317, 0.06554436683654785, -0.045957911759614944, -0.11124194413423538, 0.15723705291748047, 0.08802706748247147, 0.09450346231460571, 0.20169655978679657, 0.0382937453687191, 0.04839649796485901, 0.025211354717612267, 0.0031815466936677694, 0.03436356410384178, 0.0012120429892092943, -0.007247285917401314, 0.1835019439458847, 0.07981649041175842, 0.07080423086881638, -0.058223068714141846, 0.09746932983398438, 0.19311878085136414, -0.03073655068874359, 0.008707783184945583, 0.060165900737047195, 0.07938352227210999, 0.10283489525318146, 0.017577659338712692, 0.041414909064769745, -0.017479222267866135, -0.0476924367249012, 0.02279028482735157, 0.04891717806458473, 0.02385895885527134, 0.04442989453673363, 0.0176263265311718, 0.1653435081243515, 0.07318385690450668, 0.11120085418224335, 0.05556616559624672, -0.053118348121643066, -0.044399701058864594, -0.022616488859057426, 0.0240959320217371, -0.06953838467597961, -0.03414814546704292, 0.11148128658533096, 0.0770641341805458, 0.048226695507764816, 0.05890563502907753, 0.10763253271579742, -0.026717662811279297, 0.052009861916303635, 0.08707791566848755, 0.03671878203749657, 0.013111133128404617, 0.04296722635626793, -0.04322565346956253, 0.1073913425207138, -0.12574689090251923, 0.0062689161859452724, -0.008067280054092407, -0.03353207930922508, 0.010188444517552853, 0.04635624587535858, -0.03826018422842026, -0.04060860350728035, -0.09324251115322113, 0.03785649314522743, -0.06167785823345184, -0.07764796912670135, 0.10154511034488678, 0.12640655040740967, 0.0009301109239459038, 0.040453601628541946, -0.039952024817466736, -0.08834642171859741, 0.01837550476193428], [-0.0324096716940403, 0.05147319659590721, 0.1080162450671196, -0.12233546376228333, 0.21026349067687988, 0.04531595855951309, 0.024481507018208504, 0.14325100183486938, 0.09773340076208115, 0.1116340383887291, -0.01831883378326893, 0.011064247228205204, 0.17556513845920563, -0.15460757911205292, -0.017894256860017776, -0.03419814631342888, -0.09774325042963028, -0.03284986689686775, -0.06416358053684235, -0.18602979183197021, 0.10577235370874405, 0.053042180836200714, -0.21555572748184204, 0.14363043010234833, 0.09069519490003586, 0.08104786276817322, 0.0027515790425240993, -0.13153843581676483, 0.04716727137565613, -0.09360510855913162, -0.09678065031766891, 0.21486711502075195, 0.1078873798251152, -0.09189832955598831, -0.16762137413024902, 0.007054606918245554, -0.09524212777614594, -0.08393049985170364, 0.06507808715105057, -0.015364745631814003, 0.0989604964852333, 0.03304563835263252, -0.10835263133049011, 0.1195322796702385, -0.04657036438584328, -0.06435991823673248, -0.010906428098678589, 0.19460509717464447, -0.18155845999717712, -0.04106782749295235, -0.010348702780902386, 0.03628859296441078, 0.16718140244483948, 0.06502930819988251, -0.11461333185434341, 0.06597687304019928, 0.008966805413365364, 0.01883653737604618, 0.31517234444618225, -0.042619287967681885, -0.21576157212257385, 0.09367774426937103, -0.08735626190900803, -0.008629502728581429, 0.006798616144806147, 0.09145822376012802, -0.0017259425949305296, 0.11151319742202759, 0.2058693766593933, -0.16750405728816986, 0.12686118483543396, -8.574430830776691e-05, 0.04417595639824867, -0.10712404549121857, 0.02050027810037136, -0.046236634254455566, -0.13652467727661133, 0.17941711843013763, 0.02420624904334545, 0.10841187089681625, -0.001675181440077722, 0.04549934342503548, -0.040601108223199844, -0.05105399712920189, 0.19245368242263794, -0.020025039091706276, 0.15360943973064423, -0.016379311680793762, 0.08172287046909332, 0.13465607166290283, 0.007919728755950928, -0.01269306056201458, 0.10503513365983963, -0.10423995554447174, -0.3818718194961548, 0.10237035155296326, 0.15235990285873413, -0.08537907898426056, 0.056204311549663544, 0.008592923171818256, -0.004754641558974981, -0.015666041523218155, -0.03236430138349533, 0.00701005756855011, 0.11147518455982208, -0.20930135250091553, -0.00726730702444911, -0.0667119026184082, 0.14543595910072327, -0.16003865003585815, 0.10180935263633728, -0.005998356733471155, -0.05195609852671623, 0.03994455561041832, -0.024012422189116478, -0.008921829052269459, -0.14784054458141327, -0.026743194088339806, -0.09966367483139038, -0.029689693823456764, 0.0013740463182330132, 0.17170245945453644, 0.1783938705921173, -0.16362304985523224, -0.02405436709523201, 0.09308062493801117, -0.14961403608322144, -0.03860246390104294], [-0.152570903301239, 0.20006012916564941, -0.011752447113394737, -0.05282663181424141, -0.10208019614219666, -0.00236380472779274, 0.2390788048505783, 0.05384954810142517, -0.1466318517923355, 0.283612996339798, 0.062293484807014465, 0.038810472935438156, 0.30919739603996277, 0.04569162428379059, 0.01524270512163639, -0.05900261551141739, -0.09875267744064331, -0.07312674820423126, 0.057715948671102524, -0.16113664209842682, -0.11650101840496063, 0.15636460483074188, -0.31930962204933167, -0.2654638886451721, -0.0637783482670784, 0.17105844616889954, 0.0006767847226001322, -0.018053213134407997, 0.12965786457061768, -0.055422842502593994, 0.03692947328090668, 0.06589499861001968, 0.24471783638000488, 0.012075912207365036, 0.25398242473602295, -0.12352482974529266, 0.2363702952861786, 0.1622494012117386, 0.14692573249340057, -0.01488441601395607, -0.02918185293674469, -0.045922502875328064, 0.07633375376462936, 0.1346684992313385, 0.035424116998910904, 0.02774043194949627, 0.07070164382457733, 0.15510791540145874, -0.06112891435623169, 0.01682242378592491, -0.1638740450143814, 0.04028652235865593, 0.001521374681033194, 0.08009206503629684, -0.0907401442527771, 0.11804309487342834, 0.2414124608039856, -0.10760223865509033, 0.11606931686401367, 0.0633833184838295, 0.08581961691379547, -0.18314838409423828, 0.20368222892284393, 0.027880646288394928, 0.02695908211171627, 0.11527486145496368, 0.07626467198133469, 0.2866719663143158, 0.08088302612304688, -0.0788530483841896, 0.27680474519729614, 0.08072631061077118, 0.13932906091213226, 0.07768905162811279, 0.0024601698387414217, -0.0894055962562561, 0.014103399589657784, -0.3429812788963318, -0.04285173490643501, -0.24928008019924164, -0.048430655151605606, 0.24226884543895721, -0.09457192569971085, -0.006591278128325939, -0.05287662893533707, 0.09293517470359802, 0.17587916553020477, -0.12167119979858398, 0.054149288684129715, -0.028194574639201164, 0.17961394786834717, 0.25227266550064087, -0.04760964587330818, -0.18388986587524414, -0.06407757103443146, 0.1280432790517807, -0.11043692380189896, 0.194306880235672, -0.10899773240089417, -0.0675869807600975, -0.01702870987355709, 0.0990179181098938, 0.10537164658308029, -0.050838861614465714, 0.01155862957239151, -0.04095209762454033, -0.05887559428811073, -0.14501585066318512, -0.026482531800866127, 0.11534391343593597, 0.3594741225242615, -0.15740381181240082, 0.1073218286037445, -0.17463140189647675, 0.03843945637345314, -0.006968912202864885, 0.12838459014892578, 0.07126488536596298, 0.005312370602041483, -0.024051379412412643, 0.05026107653975487, -0.18663036823272705, 0.051290806382894516, -0.03838536888360977, 0.00530141219496727, 0.04251650720834732, -0.31779196858406067, -0.02071905881166458], [-0.0956331416964531, -0.03956818953156471, -0.17237788438796997, -0.19910776615142822, -0.3655723035335541, 0.4343739449977875, 0.20487134158611298, 0.03390068560838699, 0.05569075047969818, 0.15682129561901093, -0.12381630390882492, 0.06889724731445312, 0.057710740715265274, -0.08640589565038681, 0.14179542660713196, 0.426182359457016, -0.20937477052211761, 0.08091535419225693, 0.13221698999404907, -0.17164798080921173, 0.13981445133686066, -0.2225046455860138, -0.30028387904167175, -0.0012171652633696795, 0.06296219676733017, 0.007732687052339315, -0.24834513664245605, 0.01681632176041603, 0.010153868235647678, -0.2320665419101715, -0.17288970947265625, -0.12536649405956268, 0.07110612839460373, 0.03250202536582947, 0.026917871087789536, -0.018467377871274948, 0.16748717427253723, -0.12637905776500702, 0.22090019285678864, -0.021701160818338394, -0.21950124204158783, 0.0884580910205841, -0.0006552184349857271, 0.17876997590065002, 0.217886283993721, -0.19703245162963867, 0.02980014868080616, 0.054105836898088455, 0.3719909191131592, -0.03425799310207367, -0.0447513572871685, -0.08760368078947067, 0.09698999673128128, 0.2310284525156021, -0.2751348614692688, -0.24256911873817444, -0.08478666096925735, 0.09288107603788376, 0.3377852439880371, -0.1477155089378357, 0.02513132244348526, -0.031525615602731705, 0.029952721670269966, -0.04121674969792366, 0.10172535479068756, 0.17336994409561157, -0.039062220603227615, 0.18987996876239777, 0.08652959018945694, -0.11706770211458206, -0.03909241780638695, -0.32886189222335815, 0.013110173866152763, -0.053534384816884995, 0.07911931723356247, 0.02408335544168949, -0.06961847096681595, 0.21743902564048767, 0.22351126372814178, -0.105422243475914, -0.07855348289012909, -0.0787171795964241, 0.1064940020442009, -0.017612069845199585, -0.1494017392396927, 0.033823687583208084, 0.0006584106013178825, -0.12863828241825104, 0.21400761604309082, 0.11091870814561844, 0.027367938309907913, -0.4090118110179901, 0.2111249566078186, -0.09559166431427002, -0.2210550308227539, -0.022918345406651497, -0.02629380114376545, 0.029282256960868835, 0.1455805003643036, -0.09568703919649124, -0.098114512860775, -0.008135156705975533, 0.2239660769701004, -0.007581289391964674, -0.29129984974861145, 0.024201897904276848, -0.1488920897245407, -0.03318410366773605, 0.07622247189283371, 0.03224892541766167, -0.2224166840314865, -0.15462005138397217, 0.027594564482569695, 0.024107707664370537, 0.0015126732178032398, -0.10776238888502121, 0.19969548285007477, 0.08740242570638657, -0.2376689314842224, 0.2268204689025879, -0.1354459524154663, 0.09703309088945389, -0.21501524746418, -0.04800114408135414, 0.17022712528705597, -0.16493502259254456, 0.09221531450748444, 0.0577787384390831], [0.083326056599617, 0.07990475744009018, 0.10246903449296951, -0.1377362459897995, 0.011535568162798882, -0.2828736901283264, -0.39561915397644043, -0.05403774976730347, 0.5700027346611023, 0.11153916269540787, -0.3682340979576111, 0.3743196725845337, 0.24749265611171722, 0.2427351176738739, 0.05579238757491112, -0.13298502564430237, 0.03137528896331787, -0.041022274643182755, -0.017885921522974968, -0.13967619836330414, -0.4111194312572479, 0.2092781811952591, -0.10871273279190063, 0.21125535666942596, -0.19094893336296082, -0.16012455523014069, 0.14292822778224945, 0.06241337209939957, -0.16797420382499695, 0.36295759677886963, 0.17441435158252716, -0.21872283518314362, -0.16767841577529907, 0.06151564419269562, -0.08390092104673386, 0.373392254114151, 0.2133432775735855, 0.3232496380805969, 0.23318734765052795, 0.2808339297771454, 0.10037267953157425, 0.08488227427005768, 0.2003687471151352, -0.18511299788951874, 0.3539179265499115, 0.2820618450641632, -0.0922040268778801, 0.22216664254665375, -0.46180471777915955, -0.02048598788678646, -0.1064353659749031, 0.009819300845265388, -0.1407361477613449, 0.05653586983680725, -0.13506478071212769, -0.011127101257443428, -0.4458085894584656, 0.17781999707221985, 0.2737465798854828, 0.1722273975610733, 0.08733773231506348, 0.165371373295784, 0.1937863528728485, 0.016870222985744476, -0.10421919822692871, -0.021666403859853745, -0.36790624260902405, -0.16354668140411377, 0.44568467140197754, 0.19813932478427887, -0.13832107186317444, -0.170889750123024, -0.17752017080783844, -0.320889949798584, 0.025897279381752014, 0.2658054828643799, -0.26959410309791565, -0.2213035225868225, -0.006126718129962683, 0.1147926077246666, -0.1260080486536026, -0.10982861369848251, 0.13709233701229095, -9.540972678223625e-05, -0.2502731382846832, -0.15782663226127625, 0.585742175579071, 0.06200245022773743, -0.3731630742549896, 0.8067206144332886, 0.254080593585968, -0.08738504350185394, 0.20901954174041748, 0.06261692941188812, -0.16160038113594055, 0.16629505157470703, 0.2390507012605667, -0.7111769318580627, -0.07568605244159698, -0.032314855605363846, -0.10742365568876266, -0.23880861699581146, -0.2204759120941162, 0.059601958841085434, -0.05194718390703201, -0.2561613619327545, -0.21070092916488647, -0.0766339972615242, 0.10849844664335251, 0.10632499307394028, -0.01344653032720089, -0.09990371018648148, 0.06021033227443695, 0.4668519198894501, 0.25533246994018555, 0.3700283467769623, 0.1753971427679062, 0.2398069202899933, 0.006248648278415203, 0.058827828615903854, -0.00845933984965086, 0.19770726561546326, -0.21429561078548431, -0.015564238652586937, -0.06039825826883316, -0.19459733366966248, -0.1283382922410965, -0.008941061794757843], [0.018716443330049515, 0.13463068008422852, 0.45233771204948425, 0.029998019337654114, 0.17647139728069305, 0.04429340362548828, 0.016889996826648712, 0.03965029492974281, -0.05071859061717987, 0.08297290652990341, -0.027297290042042732, -0.2564268410205841, -0.09513133019208908, 0.05090363323688507, 0.3161841928958893, 0.10805380344390869, -0.18103496730327606, 0.028809623792767525, -0.22119712829589844, -0.20244775712490082, -0.12150368839502335, -0.001337622758001089, 0.14352037012577057, -0.40349918603897095, -0.014995500445365906, 0.145125612616539, -0.043820012360811234, -0.008814212866127491, 0.15946660935878754, 0.14339017868041992, 0.016916196793317795, 0.02890036627650261, -0.15446847677230835, -0.11759583652019501, 0.05467298626899719, 0.044439177960157394, -0.07925868779420853, -0.19633525609970093, -0.1321944147348404, 0.004796474240720272, -0.2076900154352188, -0.011609780602157116, -0.2597533166408539, -0.19828291237354279, -0.30597978830337524, -0.10652706027030945, 0.03524281457066536, -0.08941018581390381, 0.1030377745628357, -0.10456200689077377, 0.12644599378108978, 0.005782106891274452, 0.03479697182774544, -0.22149880230426788, 0.10404469072818756, -0.04078751802444458, -0.0414649173617363, -0.25364261865615845, 0.18039235472679138, 0.019957734271883965, -0.09286629408597946, 0.012472863309085369, -0.050127431750297546, 0.19336828589439392, -0.006126490421593189, -0.15420100092887878, -0.032969892024993896, 0.06161230430006981, 0.0099685313180089, -0.5440686345100403, 0.2195853739976883, -0.3139367699623108, 0.18847684562206268, -0.03025517426431179, 0.19525395333766937, 0.2427809089422226, 0.1237131878733635, 0.0796729326248169, -0.1718355268239975, -0.1037764698266983, -0.3241811692714691, 0.039206378161907196, 0.025112448260188103, -0.09554361552000046, -0.22663594782352448, -0.22407174110412598, 0.14595343172550201, -0.05042576417326927, -0.11493418365716934, -0.2092929184436798, -0.3262077271938324, -0.09428702294826508, -0.12047720700502396, 0.05454350635409355, -0.06622469425201416, -0.08523965626955032, 0.06031639873981476, -0.23455844819545746, -0.22743980586528778, 0.07672207802534103, 0.19346235692501068, -0.06617536395788193, 0.32198819518089294, -0.022277802228927612, -0.0753902718424797, -0.011063037440180779, 0.10806210339069366, 0.13111266493797302, 0.18689477443695068, -0.0007050802232697606, -0.25232887268066406, 0.06537837535142899, 0.19000943005084991, -0.12065979093313217, 0.06551150977611542, 0.23538880050182343, -0.07352007180452347, -0.20221979916095734, 0.08490961045026779, 0.009696312248706818, 0.07646219432353973, -0.016880175098776817, 0.03565112128853798, 0.09597624093294144, 0.2563933730125427, 0.2872081398963928, 0.0014800629578530788, 0.06239529699087143], [-0.06537555903196335, 0.02060866728425026, 0.013963494449853897, -0.08606667816638947, 0.104122593998909, -0.02155034989118576, 0.16268189251422882, 0.00431507732719183, 0.11654139310121536, 0.014938926324248314, 0.07932066172361374, -0.07686392962932587, 0.08745454251766205, 0.0053147184662520885, 0.0944257527589798, 0.05414356291294098, -0.1427200436592102, -0.1991577446460724, -0.10918065160512924, -0.15273915231227875, 0.13342121243476868, 0.03087787702679634, 0.024853229522705078, 0.2607976198196411, 0.07964023947715759, 0.12132798135280609, 0.0828332006931305, -0.12007611244916916, 0.025901395827531815, 0.05591541528701782, -0.028492718935012817, 0.10079173743724823, -0.04906780272722244, 0.006607461720705032, -0.02880146913230419, -0.031594496220350266, -0.1211586743593216, -0.09405162930488586, 0.009624090045690536, -0.048847995698451996, 0.02988690696656704, 0.0037989283446222544, -0.014203871600329876, 0.054974477738142014, -0.010097991675138474, -0.2433323711156845, -0.04883110150694847, 0.006597856059670448, -0.01937413215637207, 0.0023584491573274136, -0.07645301520824432, 0.08957557380199432, 0.021135082468390465, -0.12988105416297913, -0.18369902670383453, 0.12332746386528015, 0.027411391958594322, 0.010375705547630787, 0.24375221133232117, 0.06184510141611099, -0.14042532444000244, 0.09273048490285873, -0.07423974573612213, 0.027651263400912285, 0.09392920136451721, 0.0494777150452137, 0.11585717648267746, 0.1717980057001114, 0.11671743541955948, -0.14612245559692383, 0.12594451010227203, 0.04497913643717766, 0.03392336890101433, -0.007311614230275154, -4.3305142753524706e-05, 0.1300177276134491, -0.00554368132725358, 0.05161156877875328, 0.14754503965377808, -0.019167521968483925, -0.0035102444235235453, -0.03319055959582329, 0.06545399874448776, 0.015331720933318138, 0.05625176057219505, -0.008782312273979187, 0.005647961050271988, -0.040191687643527985, 0.07528957724571228, 0.07668931037187576, -0.12499584257602692, 0.04634726047515869, -0.09521950781345367, 0.12259350717067719, -0.1397407352924347, 0.011857808567583561, 0.07851611077785492, 0.18176010251045227, -0.04521467536687851, 0.03178955242037773, 0.022475173696875572, -0.17006394267082214, 0.05125417560338974, -0.03585221618413925, 0.07424674183130264, 0.00753511767834425, 0.015533031895756721, 0.009800830855965614, 0.18393369019031525, -0.020219091325998306, 0.07106995582580566, 0.03528055548667908, -0.04775788262486458, 0.04292110726237297, 0.025981631129980087, 0.03329923003911972, -0.0070143393240869045, -0.11261289566755295, -0.012597739696502686, 0.009742542169988155, -0.14799104630947113, 0.056101880967617035, 0.058403365314006805, 0.02284264750778675, 0.005317415110766888, 0.010080170817673206, -0.09725553542375565, 0.05976541340351105], [-0.10057360678911209, -0.1670791208744049, 0.18694347143173218, -0.33216872811317444, -0.08201469480991364, 0.01746724173426628, -0.16044273972511292, -0.11419638991355896, 0.1080598533153534, -0.002951930509880185, -0.3887459933757782, -0.07437512278556824, -0.013317637145519257, 0.0021389394532889128, 0.1865861415863037, -0.017009302973747253, 0.2673863172531128, -0.14306187629699707, -0.034528639167547226, -0.04690399765968323, 0.09477972239255905, 0.00994435977190733, 0.01066607516258955, -0.10697636753320694, 0.04008610174059868, 0.15418219566345215, -0.13231532275676727, 0.03918241336941719, -0.18135295808315277, 0.17912529408931732, 0.2167123556137085, 0.06790170818567276, 0.15610501170158386, -0.05649784952402115, -0.24057340621948242, -0.009481607005000114, 0.0901804119348526, 0.06377370655536652, -0.17986564338207245, 0.02312897890806198, 0.06387601792812347, -0.05187566578388214, -0.024479947984218597, -0.02734265848994255, -0.002526811556890607, -0.03641664236783981, -0.25204724073410034, 0.0558912567794323, -0.11708307266235352, 0.1341003030538559, -0.08949930220842361, 0.04255324602127075, 0.15673810243606567, -0.11083541810512543, -0.02399192936718464, -0.04328764230012894, -0.04983130097389221, -0.10056532174348831, 0.04823843389749527, -0.04661908745765686, -0.17355848848819733, 0.07168495655059814, 0.07738018035888672, 0.10554440319538116, 0.05199486389756203, -0.04953650012612343, -0.1281224489212036, 0.0835997462272644, 0.01087796688079834, -0.13029728829860687, 0.00036993352114222944, -0.002796069486066699, 0.16114413738250732, -0.07762617617845535, 0.042061902582645416, 0.009450863115489483, 0.11921228468418121, 0.018895694985985756, -0.07098333537578583, -0.0679449811577797, -0.08851997554302216, -0.1322377473115921, 0.1414145678281784, -0.06735241413116455, 0.32102352380752563, 0.1342913657426834, 0.16777732968330383, 0.08969496935606003, 0.11689604073762894, -0.09035158157348633, -0.2243715226650238, 0.22791443765163422, -0.1442718356847763, 0.010214702226221561, -0.0362609438598156, -0.06446523219347, 0.07789302617311478, -0.0153739545494318, 0.15159492194652557, -0.2873639762401581, 0.11488853394985199, 0.11623679101467133, -0.0769355297088623, -0.06305613368749619, 0.028001075610518456, 0.059866007417440414, 0.12598425149917603, -0.10076498240232468, -0.12554974853992462, 0.024528900161385536, -0.026470860466361046, -0.05335884913802147, -0.10992436856031418, -0.05208810418844223, 0.0532463863492012, -0.05124760419130325, -0.2209046334028244, 0.00492384098470211, -0.0913587361574173, -0.19174188375473022, -0.12334981560707092, -0.18399780988693237, -0.05702105537056923, -0.04064495116472244, -0.11279983073472977, 0.05842309072613716, 0.07711707800626755, -0.18012629449367523], [0.1943526566028595, 0.3214218020439148, 0.05798283964395523, 0.09197328239679337, 0.06878662109375, -0.10630227625370026, 0.26923367381095886, -0.278913289308548, -0.10751700401306152, 0.02768103964626789, 0.07843620330095291, 0.056866202503442764, -0.03582090511918068, -0.18882140517234802, -0.09293568134307861, -0.38236376643180847, 0.31514430046081543, -0.05845978483557701, -0.003185936948284507, -0.32156750559806824, 0.1360500007867813, 0.3160746693611145, -0.005624276120215654, -4.6137582103256136e-05, -0.04085734486579895, 0.08398884534835815, -0.07029891014099121, -0.03928438574075699, -0.15733815729618073, 0.1523229032754898, 0.2199801653623581, 0.18218852579593658, 0.02488834410905838, 0.057667408138513565, -0.15068599581718445, 0.05033709108829498, -0.0462653785943985, 0.08786270022392273, 0.2364916354417801, 0.10651799291372299, -0.00023825712560210377, 0.1368923932313919, -0.10083302855491638, -0.02957756631076336, -0.07939112186431885, -0.3103826940059662, -0.017328642308712006, -0.12957996129989624, 0.08246862143278122, -0.1205366998910904, -0.14068642258644104, -0.07449740916490555, -0.12785162031650543, 0.08251369744539261, -0.2815708518028259, -0.20676559209823608, 0.22214055061340332, 0.033402204513549805, 0.10417212545871735, -0.10703231394290924, 0.0008578833076171577, -0.12775619328022003, 0.04763627052307129, 0.28092890977859497, -0.12647001445293427, 0.03418752923607826, -0.3465366065502167, 0.2917400300502777, 0.05313744768500328, -0.31345340609550476, 0.06968279927968979, -0.15961965918540955, 0.03898513689637184, 0.0760299488902092, 0.10716583579778671, -0.05674979090690613, -0.08520067483186722, 0.05958440154790878, 0.011349436827003956, -0.0339297391474247, -0.3472219705581665, -0.020405838266015053, 0.1288917064666748, 0.07033779472112656, 0.40837857127189636, -0.16510441899299622, 0.05769664794206619, 0.13749785721302032, -0.09517345577478409, 0.23239855468273163, 0.14714695513248444, 0.08373675495386124, 0.12668529152870178, 0.019396981224417686, 0.1265924721956253, -0.13689041137695312, 0.27350836992263794, -0.1832796037197113, 0.6328443884849548, -0.13346272706985474, 0.06900671869516373, 0.11627040803432465, 0.2829284369945526, 0.05602482706308365, 0.22950199246406555, 0.0734177976846695, -0.050377171486616135, -0.15776190161705017, -0.13949276506900787, 0.15263326466083527, 0.1429426670074463, -0.14585833251476288, 0.22893841564655304, 0.023598387837409973, 0.3946381211280823, 0.13582473993301392, 0.06555718183517456, -0.2785705626010895, 0.2536989152431488, -0.13048693537712097, -0.019136466085910797, 0.01060232613235712, 0.2345343381166458, 0.17829257249832153, -0.1294538676738739, 0.015524858608841896, -0.17875877022743225, 0.20825707912445068], [0.21579310297966003, -0.04834732413291931, -0.13624659180641174, 0.015613661147654057, 0.06468003243207932, -0.36083483695983887, 0.1401059329509735, -0.10508865863084793, 0.11577250808477402, -0.24812568724155426, 0.10862023383378983, 0.1617783159017563, -0.038179848343133926, -0.18087482452392578, 0.19256097078323364, -0.19698691368103027, -0.1629762053489685, -0.32345902919769287, -0.4015418589115143, -0.10220379382371902, -0.09376687556505203, -0.039444804191589355, 0.35169902443885803, -0.11250786483287811, -0.08377697318792343, -0.12481451034545898, -0.009825694374740124, -0.024485565721988678, 0.03083842433989048, 0.29858314990997314, 0.0788269117474556, 0.13283349573612213, 0.16776371002197266, -0.04579475149512291, 0.1474040150642395, -0.1575029492378235, -0.159621924161911, 0.14341096580028534, 0.046282991766929626, 0.08772602677345276, 0.10371766239404678, 0.07248115539550781, -0.0189304668456316, 0.16115237772464752, 0.15450146794319153, -0.1796593815088272, -0.2011469453573227, -0.013961943797767162, 0.11491404473781586, -0.09524581581354141, 0.08998030424118042, 0.07176896929740906, -0.1845487505197525, 0.06893002241849899, -0.17437422275543213, -0.21408168971538544, -0.2604447603225708, 0.002450190717354417, 0.06781977415084839, 0.09694703668355942, 0.13223911821842194, 0.09484292566776276, -0.005826058331876993, 0.03259092569351196, 0.02357027307152748, 0.006601934786885977, -0.054502252489328384, -0.20916225016117096, 0.15525302290916443, -0.2412472516298294, 0.056190405040979385, -0.05117041617631912, 0.19258177280426025, 0.37073633074760437, 0.07441440969705582, 0.00018676304898690432, -0.10370262712240219, -0.016399947926402092, 0.22679415345191956, 0.18220102787017822, 0.04303755983710289, 0.3036622107028961, -0.16375450789928436, -0.09569951891899109, -0.26145708560943604, 0.0007821673061698675, 0.14628401398658752, -0.005693190265446901, -0.08534187078475952, -0.14410117268562317, -0.09122268110513687, 0.1806751787662506, -0.008643831126391888, 0.04949863627552986, -0.07136820256710052, -0.1910080909729004, -0.17370350658893585, 0.10919081419706345, -0.11716555804014206, -0.2809261977672577, 0.16974519193172455, 0.08764303475618362, 0.21490342915058136, -0.01258636824786663, 0.06527961790561676, 0.011119367554783821, -0.11988888680934906, -0.10498867928981781, -0.07636578381061554, 0.17525336146354675, -0.1206822320818901, 0.22318525612354279, -0.14831461012363434, -0.13778352737426758, -0.024660227820277214, 0.018257852643728256, 0.05305444449186325, -0.03601600602269173, -0.14097194373607635, 0.4571933448314667, 0.01915893703699112, -0.0602753646671772, 0.09245260804891586, 0.014779738150537014, -0.023864567279815674, 0.31045001745224, 0.08084861189126968, -0.0658319741487503], [-0.0738644078373909, 0.15804791450500488, 0.21815727651119232, -0.2064547836780548, 0.32766515016555786, -0.2018863409757614, -0.021555539220571518, 0.04511323198676109, 0.35005730390548706, 0.10228943824768066, 0.12933890521526337, 0.004380220081657171, 0.07749731838703156, 0.17629358172416687, 0.036315277218818665, -0.12938125431537628, 0.18405087292194366, -0.07561644166707993, 0.10662271082401276, -0.14399689435958862, 0.16686582565307617, 0.3102535307407379, -0.11999402940273285, 0.19452956318855286, -0.023058680817484856, -0.08981379866600037, -0.07492440938949585, 0.003867039456963539, 0.11728677898645401, 0.23959212005138397, -0.09029649198055267, 0.1862533539533615, -0.0880410447716713, 0.05952392891049385, 0.030150581151247025, 0.01137066911906004, 0.05977952480316162, 0.24946099519729614, -0.0611470602452755, -0.05837322771549225, 0.05643182620406151, 0.0001416240120306611, -0.13235513865947723, -0.19397041201591492, 0.09807992726564407, 0.070564866065979, 0.00563098955899477, -0.2935604155063629, -0.1757431924343109, 0.07278873026371002, -0.1699502170085907, -0.00703712971881032, 0.03150637447834015, 0.07917530089616776, -0.11631568521261215, -0.1392897665500641, -0.3323512375354767, 0.12878388166427612, 0.24974723160266876, -0.15617412328720093, 0.08649130910634995, -0.0512121357023716, 0.10412498563528061, -0.35808584094047546, -0.20894284546375275, 0.15138041973114014, -0.27499017119407654, 0.2874389588832855, -0.037352580577135086, 0.05384805053472519, 0.07687272131443024, 0.04666699096560478, -0.13861726224422455, -0.08487723022699356, 0.10162021219730377, 0.043689433485269547, 0.16839779913425446, 0.028528844937682152, 0.236005038022995, 0.10030242800712585, 0.10539406538009644, -0.002388336695730686, -0.06720195710659027, -0.09043625742197037, 0.0873270258307457, -0.11616960912942886, 0.31515851616859436, -0.09666752070188522, -0.06509310007095337, 0.08358065783977509, 0.1586613655090332, 0.026502368971705437, 0.3484514355659485, -0.13225601613521576, -0.02747933939099312, 0.20694980025291443, 0.08083023875951767, 0.1616487205028534, -0.04090428724884987, -0.11030738055706024, 0.24195721745491028, -0.0825771763920784, -0.09661024063825607, 0.052796583622694016, -0.24197852611541748, -0.029471153393387794, 0.12721073627471924, -0.05423203483223915, 0.11111084371805191, 0.1346931755542755, 0.08890324085950851, -0.0292565505951643, -0.11063528060913086, -0.12938104569911957, 0.06755365431308746, -0.2230914831161499, 0.2618544399738312, 0.021570291370153427, -0.14233648777008057, -0.026112638413906097, -0.1348104625940323, 0.06940822303295135, 0.11330917477607727, 0.044440239667892456, 0.14951191842556, -0.24134071171283722, 0.11856121569871902, 0.11237496137619019], [0.27169308066368103, -0.17771346867084503, -0.1492556780576706, -0.18852944672107697, -0.05886754021048546, -0.18774808943271637, -0.006225762888789177, 0.10706978291273117, -0.3274495601654053, 0.019791312515735626, 0.07384617626667023, -0.04937996715307236, -0.2509266436100006, -0.05403291806578636, 0.16182373464107513, -0.19875028729438782, 0.28287428617477417, -0.03741602972149849, 0.34050410985946655, 0.1762504130601883, -0.11686118692159653, -0.11137760430574417, -0.14165015518665314, -0.01191637571901083, -0.07049959152936935, -0.44612935185432434, -0.01788298226892948, -0.19925349950790405, -0.1882036328315735, -0.048347778618335724, -0.027385622262954712, -0.11006275564432144, 0.2348558008670807, 0.08532842248678207, -0.029830198734998703, 0.13101999461650848, 0.00532509246841073, -0.29197070002555847, 0.15510067343711853, 0.11876696348190308, -0.010705848224461079, 0.01216953992843628, 0.12107662856578827, -0.03039032593369484, 0.2216508537530899, 0.1908189356327057, -0.012401769869029522, 0.037785351276397705, -0.14926445484161377, -0.03289814293384552, -0.020374098792672157, -0.0010052653960883617, -0.21504108607769012, -0.059414707124233246, 0.012427794747054577, 0.19569993019104004, -0.03602441027760506, -0.17135994136333466, 0.05655479058623314, -0.026961766183376312, -0.058354027569293976, 0.1261468231678009, 0.02163543738424778, 0.3169659376144409, -0.12675468623638153, -0.14797376096248627, -0.02443704754114151, 0.099070705473423, -0.09416184574365616, -0.012400857172906399, 0.01800130307674408, 0.08107940107584, -0.01679900847375393, -0.03429825231432915, 0.0952601283788681, 0.3003356456756592, -0.059849657118320465, 0.17407897114753723, -0.15727557241916656, -0.009872110560536385, 0.051060669124126434, 0.09955286234617233, 0.25816163420677185, 0.02435429021716118, 0.08400284498929977, -0.1810024231672287, -0.16094569861888885, -0.1029760092496872, 0.043653227388858795, -0.325753390789032, 0.16272082924842834, -0.11828413605690002, -0.010180676355957985, -0.38889840245246887, 0.03798390179872513, 0.05128197744488716, -0.06609970331192017, -0.036251090466976166, -0.45998385548591614, -0.131154865026474, -0.06188524141907692, 0.09533105045557022, -0.04445142298936844, 0.03476284444332123, -0.23825062811374664, -0.023670129477977753, 0.09549837559461594, 0.12176663428544998, -0.004837441258132458, -0.028456322848796844, -0.05733891949057579, -0.12728756666183472, -0.02890635095536709, -0.19829021394252777, -0.023824989795684814, -0.15795062482357025, -0.23657304048538208, 0.14226458966732025, 0.1580619215965271, 0.3097647428512573, 0.06115825101733208, 0.04722786322236061, 0.09804323315620422, 0.0483604334294796, 0.07812833786010742, -0.06796416640281677, -0.16507312655448914, 0.08586985617876053], [-0.0380530022084713, -0.007123670540750027, 0.09132542461156845, 0.010931222699582577, 0.11445335298776627, 0.11322556436061859, 0.10455874353647232, 0.031001659110188484, 0.08488515019416809, 0.08301045745611191, -0.035256277769804, -0.024686992168426514, 1.0602597285469528e-05, -0.10844617336988449, 0.08671063929796219, -0.023124950006604195, -0.1570516973733902, -0.1302419751882553, -0.1059974730014801, -0.10080691426992416, 0.06974078714847565, -0.01043790951371193, 0.04365691542625427, 0.15976408123970032, 0.05684943124651909, 0.17309123277664185, 0.008930687792599201, -0.06951557844877243, 0.07298848778009415, -0.052073750644922256, -0.003649548627436161, 0.09292881935834885, 0.06588798761367798, 0.005689862184226513, -0.029515007510781288, 0.02865711785852909, -0.02694590948522091, -0.10650084912776947, 0.013707601465284824, -0.06784134358167648, 0.03130561113357544, -0.05880182236433029, 0.027780063450336456, 0.06271078437566757, -0.013911337591707706, -0.09533963352441788, -0.06556441634893417, 0.07898151874542236, -0.10367643088102341, 0.06834692507982254, -0.04962204769253731, 0.044080864638090134, 0.059871625155210495, -0.052206944674253464, -0.09065798670053482, 0.1040826290845871, 0.030847929418087006, 0.06092844530940056, 0.1579795628786087, -0.02314421907067299, -0.15885823965072632, 0.003152355318889022, 0.03273095563054085, 0.07196681201457977, 0.03193642571568489, -0.0143435662612319, 0.08128343522548676, 0.06526128947734833, 0.03657667338848114, -0.15311776101589203, 0.17269544303417206, 0.038555558770895004, 0.015238030813634396, 0.01883118227124214, 0.07250745594501495, -0.010350363329052925, -0.03931467607617378, 0.06148863211274147, 0.0671597495675087, -0.07989782094955444, -0.07077471166849136, -0.07258766144514084, -0.053569406270980835, -0.011703263968229294, 0.055409025400877, 0.05972929671406746, -0.008307208307087421, 0.08578137308359146, 0.09494708478450775, 0.10318202525377274, -0.08337715268135071, 0.05252789705991745, 0.03750544786453247, 0.09052903950214386, -0.1538800597190857, 0.09896983951330185, 0.13332653045654297, 0.07850922644138336, 0.014737394638359547, 0.013870008289813995, -0.015509916469454765, -0.10190576314926147, -0.0038386816158890724, 0.016247441992163658, 0.12646564841270447, -0.00298021431080997, 0.007293093949556351, -0.00901989545673132, -0.03940819948911667, 0.05330410972237587, 0.009907301515340805, 0.08039922267198563, 0.039340827614068985, -0.0483211874961853, 0.04192361980676651, -0.06253157556056976, -0.13656973838806152, -0.1078365221619606, 0.08900231122970581, 0.010298182256519794, -0.062407393008470535, 0.12421917170286179, 0.10898014158010483, 0.05285753309726715, 0.049976952373981476, -0.06826640665531158, -0.11344485729932785, -0.052497658878564835], [-0.06819070875644684, -0.21298371255397797, 0.19193822145462036, -0.019361821934580803, 0.2609741687774658, 0.011418568901717663, 0.4377632439136505, 0.05331483483314514, 0.14158493280410767, 0.2671944797039032, -0.18680933117866516, -0.17354609072208405, 0.31982874870300293, 0.40009361505508423, 0.062498897314071655, -0.0884605199098587, -0.19397573173046112, -0.2530449628829956, -0.01477202121168375, -0.22543174028396606, -0.0788564383983612, -0.26737529039382935, 0.20826847851276398, -0.12840856611728668, 0.018500225618481636, 0.5930957198143005, -0.23738612234592438, -0.20002639293670654, -0.022165680304169655, -0.2738311290740967, -0.19221645593643188, -0.12511765956878662, -0.28548696637153625, 0.32663416862487793, -0.08187717199325562, -0.025032998993992805, -0.044358640909194946, -0.3281230032444, 0.26793113350868225, -0.19717277586460114, -0.14764487743377686, 0.05952046439051628, 0.07594992965459824, -0.27462509274482727, -0.17478615045547485, -0.11675751209259033, 0.0052564856596291065, -0.1837237924337387, -0.22051046788692474, 0.22042149305343628, -0.14105939865112305, 0.04700800031423569, -0.22117596864700317, 0.41522860527038574, -0.3138618767261505, -0.03869455307722092, 0.12632933259010315, -0.03294852003455162, -0.01225984189659357, 0.26931196451187134, -0.10354266315698624, -0.015378286130726337, -0.06762909144163132, -0.24055933952331543, 0.04778064414858818, 0.22566083073616028, -0.25924697518348694, -0.27919456362724304, 0.02753617987036705, 0.024494584649801254, -0.20954978466033936, -0.11912281066179276, -0.13758902251720428, 0.35891371965408325, 0.09647233039140701, -0.2356155961751938, 0.43374451994895935, -0.1934223622083664, -0.07750935107469559, 0.25155454874038696, 0.04886380210518837, 0.1144462451338768, 0.28067252039909363, -0.10778358578681946, 0.24027498066425323, -0.130511075258255, 0.19893795251846313, -0.01491618249565363, -0.14759905636310577, -0.09444443881511688, -0.054204441606998444, 0.10485243052244186, -0.1719977706670761, 0.09960488975048065, -0.16515982151031494, 0.0026308493688702583, -0.2683897018432617, 0.15941107273101807, 0.04169401898980141, 0.06727366894483566, -0.013076841831207275, -0.047006890177726746, -0.09741972386837006, -0.18616923689842224, 0.2828942835330963, -0.050321534276008606, 0.22104297578334808, -0.2990058958530426, 0.03687283396720886, -0.0817442238330841, 0.025983842089772224, 0.24929244816303253, -0.17771559953689575, 0.025770509615540504, 0.34012436866760254, 0.292938232421875, -0.24102799594402313, 0.08020231872797012, 0.0340103842318058, 0.03681373596191406, -0.08206212520599365, -0.13426010310649872, -0.2423820048570633, 0.47603267431259155, 0.03315940499305725, 0.39743533730506897, 0.12951242923736572, 0.27378639578819275], [-0.21437208354473114, 0.09574345499277115, 0.07632604986429214, -0.013079563155770302, 0.007088246755301952, -0.11628887057304382, 0.11345303058624268, 0.21217921376228333, 0.3061380684375763, -0.22155141830444336, 0.013583134859800339, 0.07256749272346497, -0.07843802124261856, -0.21097427606582642, -0.020528824999928474, -0.21012447774410248, 0.17525248229503632, -0.047391895204782486, -0.029212744906544685, -0.1817048341035843, -0.030871735885739326, 0.18523503839969635, -0.07826682925224304, 0.04213959351181984, 0.03775529935956001, -0.0110139399766922, -0.002383696148172021, -0.01778247579932213, 0.10568010807037354, -0.13820147514343262, -0.09185779094696045, 0.11194278299808502, 0.146628275513649, 0.10160984098911285, -0.13784199953079224, 0.04939388856291771, -0.0968804582953453, 0.05906470865011215, -0.07720442116260529, -0.14993898570537567, -0.06909041851758957, -0.02904452010989189, 0.056531939655542374, 0.11745233833789825, -0.29074421525001526, -0.06926776468753815, 0.11431698501110077, 0.12254371494054794, -0.11857002228498459, -0.3246208131313324, 0.27076059579849243, -0.06130529195070267, 0.2375069558620453, 0.08647944033145905, 0.16386526823043823, -0.08493658155202866, 0.20271211862564087, -0.432612806558609, 0.19361206889152527, -0.12928231060504913, -0.2554250955581665, 0.05208073928952217, -0.3193339407444, -0.16598686575889587, -0.1939491331577301, 0.09556905180215836, 0.28030648827552795, 0.14534971117973328, 0.011491557583212852, -0.05375315248966217, -0.18494801223278046, 0.10332217812538147, 0.06823822855949402, -0.12144692987203598, -0.08206058293581009, -0.22012998163700104, -0.24261941015720367, 0.026204882189631462, 0.1368607133626938, 0.00825543887913227, -0.16246411204338074, 0.0038540835957974195, -0.2108614444732666, -0.014133892022073269, 0.36576205492019653, 0.03159905970096588, -0.014263932593166828, -0.1585918813943863, 0.059241704642772675, 0.39175641536712646, -0.07479362189769745, -0.1621885448694229, 0.10530892014503479, -0.1589396893978119, -0.0824146419763565, -0.011973025277256966, 0.11703409254550934, -0.2618008852005005, -0.09154363721609116, -0.04266931861639023, -0.22208862006664276, 0.1959550380706787, -0.08846553415060043, 0.13959749042987823, 0.20077912509441376, -0.0021999473683536053, 0.07212599366903305, 0.046611640602350235, -0.066645048558712, -0.20674680173397064, -0.05070807784795761, 0.3116394579410553, -0.15221886336803436, -0.45717406272888184, 0.051269665360450745, 0.09327656775712967, -0.12405897676944733, -0.09826791286468506, -0.43055325746536255, 0.3676605522632599, 0.14371734857559204, 0.004989154636859894, -0.25837722420692444, 0.08943015336990356, -0.15299805998802185, 0.16819961369037628, -0.0522870309650898, -0.014922231435775757], [-0.006804210599511862, -0.11036715656518936, 0.1360345482826233, 0.04436490312218666, 0.10706420987844467, 0.07050531357526779, -0.2593354284763336, -0.03662567585706711, -0.041653793305158615, -0.11807352304458618, -0.0768652930855751, 0.2148934304714203, 0.22914128005504608, -0.18766379356384277, 0.06524477154016495, -0.02053975872695446, -0.09657391905784607, 0.12169007211923599, 0.014231963083148003, -0.31174811720848083, 0.2108164131641388, -0.06466793268918991, -0.06488180160522461, 0.08989160507917404, -0.008642947301268578, -0.015316876582801342, -0.10175580531358719, -0.22316454350948334, 0.010003987699747086, -0.018692145124077797, -0.08694374561309814, 0.013081388548016548, 0.09350298345088959, 0.07000335305929184, 0.026262152940034866, -0.2348940074443817, -0.07228976488113403, 0.0051614646799862385, -0.1825285106897354, 0.11007700860500336, 0.016628025099635124, 0.036933429539203644, 0.009720442816615105, -0.1413203775882721, 0.22165200114250183, 0.22180460393428802, -0.027086079120635986, 0.001082459231838584, -0.17169496417045593, 0.0988834872841835, 0.14953488111495972, -0.05360465869307518, -0.19810868799686432, -0.05407368764281273, -0.12781013548374176, -0.15042541921138763, 0.03435102477669716, 0.1971147209405899, 0.010117674246430397, -0.2755010724067688, -0.0736587792634964, 0.04209429398179054, -0.020780136808753014, 0.024380894377827644, 0.13199232518672943, 0.07246994972229004, 0.05547443777322769, -0.02387397736310959, -0.2587960362434387, -0.11796283721923828, 0.15923301875591278, 0.07999638468027115, 0.017459150403738022, -0.093252994120121, -0.3755001723766327, -0.04519737511873245, -0.07198526710271835, -0.06844540685415268, 0.0502919964492321, 0.05710528790950775, 0.11353333294391632, 0.05774988606572151, 0.011907078325748444, -0.049358662217855453, -0.18289217352867126, 0.025439655408263206, 0.023000795394182205, -0.05802785977721214, -0.11354303359985352, -0.38533541560173035, -0.1519814282655716, -0.313169002532959, 0.07777588069438934, 0.07739822566509247, -0.04128166288137436, -0.17807552218437195, 0.0653844028711319, 0.08383282274007797, 0.09921129792928696, 0.16399310529232025, -0.12895001471042633, -0.13080140948295593, 0.12651394307613373, 0.17221778631210327, -0.13575102388858795, -0.048747528344392776, 0.309483140707016, 0.08523108810186386, -0.19518868625164032, -0.08056488633155823, -0.19420301914215088, 0.12719933688640594, 0.20608830451965332, -0.08294277638196945, 0.18666785955429077, -0.11409198492765427, -0.10830368846654892, 0.1731644868850708, -0.16559188067913055, -0.059085309505462646, -0.07910062372684479, 0.018852919340133667, -0.22113189101219177, 0.07414734363555908, -0.022142715752124786, -0.13298949599266052, -0.18996533751487732, -0.027446450665593147], [-0.3095874786376953, -0.14559264481067657, -0.0005108877667225897, -0.04645809158682823, 0.23305164277553558, 0.14136497676372528, -0.07012782990932465, 0.05427047237753868, -0.1903488039970398, -0.11572504788637161, 0.07365638017654419, 0.12717178463935852, 0.00989210233092308, -0.2727087140083313, 0.022957438603043556, 0.36329472064971924, -0.14299575984477997, 0.15945106744766235, -0.06389067322015762, -0.09826705604791641, -0.12877818942070007, 0.19143912196159363, -0.1301795095205307, -0.10361679643392563, -0.0775938481092453, -0.2377179116010666, -0.03444989398121834, -0.30888769030570984, -0.1339324414730072, -0.05566522479057312, -0.0588417612016201, 0.07580241560935974, -0.1410672813653946, 0.1420384645462036, -0.013500585220754147, -0.05104830116033554, -0.06766622513532639, -0.22944866120815277, -0.023419668897986412, 0.09361143410205841, 0.09237830340862274, 0.024940861389040947, 0.045437105000019073, -0.18047544360160828, -0.023017846047878265, 0.13070861995220184, 0.2724795341491699, -0.0177304744720459, 0.026112353429198265, 0.13653504848480225, -0.05553777888417244, -0.04743007943034172, -0.05470149591565132, 0.21468408405780792, 0.3838448226451874, -0.10639319568872452, -0.051853541284799576, -0.09875353425741196, 0.096743144094944, -0.13805122673511505, 0.13739073276519775, 0.13566789031028748, 0.1764662265777588, -0.09006507694721222, 0.10417091846466064, -0.1853848695755005, 0.05073640123009682, -0.025100860744714737, 0.41284817457199097, -0.048071570694446564, -0.1587371826171875, 0.18379557132720947, -0.03331916406750679, -0.10749109834432602, 0.04466915503144264, -0.19547531008720398, 0.13763834536075592, 0.019708076491951942, -0.044462550431489944, 0.1566615104675293, 0.32550248503685, 0.2154621034860611, -0.08946233242750168, -0.02005687542259693, 0.13805712759494781, 0.07463506609201431, -0.08788183331489563, -0.332397997379303, 0.1595996767282486, -0.3118602931499481, -0.10132292658090591, -0.016524115577340126, -0.023106729611754417, -0.09327176958322525, 0.00028279260732233524, -0.1339656561613083, 0.049688078463077545, 0.007089715451002121, 0.07085835933685303, -0.04432948678731918, 0.28867995738983154, 0.22885912656784058, -0.12561918795108795, 0.13484375178813934, 0.15229205787181854, -0.03883062303066254, -0.04787015542387962, 0.1437225192785263, -0.33188652992248535, 0.04245772585272789, 0.006962850224226713, -0.24196769297122955, -0.11308124661445618, 0.007962064817547798, -0.058696452528238297, 0.14054733514785767, -0.1083223819732666, 0.00839906744658947, 0.12236863374710083, 0.08274222165346146, 0.19553735852241516, 0.11159049719572067, -0.15152902901172638, 0.08028511703014374, 0.10917990654706955, 0.023674465715885162, 0.1201954185962677, -0.007457203231751919], [-0.08209090679883957, 0.14179493486881256, -0.013409396633505821, -0.06140151992440224, 0.01881580799818039, 0.006917445920407772, 0.09187518060207367, -0.05343259871006012, 0.038651272654533386, 0.03354722633957863, -0.02572506293654442, -0.08487585186958313, 0.08524109423160553, 0.009894856251776218, -0.03449683263897896, -0.0036005170550197363, -0.09724775701761246, -0.09376294165849686, -0.011372183449566364, -0.05425652861595154, 0.0635908916592598, 0.016683511435985565, -0.04766451567411423, 0.11656345427036285, 2.562172812758945e-05, 0.054007645696401596, 0.007694386877119541, -0.024609878659248352, 0.016095342114567757, -0.037918541580438614, -0.028444714844226837, -0.025465436279773712, 0.01946784183382988, 0.04643891379237175, -0.11468726396560669, -0.021974721923470497, -0.05851306766271591, -0.043676137924194336, 0.012516040354967117, -0.06713172793388367, 0.03519513085484505, 0.013194873929023743, -0.02533557079732418, -0.035190947353839874, -0.005165389738976955, -0.11903733015060425, 0.015712356194853783, 0.08691737055778503, 0.03695016726851463, 0.01652528904378414, 0.010960014536976814, 0.0630839616060257, -0.01468542218208313, -0.05284380540251732, -0.1171979159116745, 0.05002796649932861, 0.012043611146509647, 0.04398076608777046, 0.1417049914598465, -0.07036546617746353, -0.09424032270908356, 0.030080368742346764, -0.04005834832787514, 0.03755224868655205, 0.039525341242551804, 0.04553283005952835, 0.03598206117749214, 0.06862464547157288, -0.0013647896703332663, -0.05773559585213661, 0.07284330576658249, -0.0074487668462097645, 0.03642938286066055, -0.024907177314162254, 0.1563413441181183, 0.06134435907006264, 0.04576082527637482, -0.04697871953248978, 0.12564857304096222, 0.0007902923389337957, -0.0087991151958704, 0.025259744375944138, 0.02211843430995941, -0.03204798698425293, -0.02102004736661911, 0.10561085492372513, 0.04260952025651932, -0.022933142259716988, 0.03921162337064743, 0.11029613018035889, -0.040630750358104706, 0.0620776042342186, -0.06715764850378036, -0.010480583645403385, -0.07441412657499313, 0.07607676088809967, 0.04196539148688316, 0.03451257199048996, 0.017214026302099228, 0.0452309176325798, -0.013640063814818859, -0.09956241399049759, -0.0007716546533629298, 0.009302712045609951, -0.05150233581662178, 0.06354212760925293, -0.04383542016148567, -0.015756139531731606, 0.06954169273376465, -0.0028104272205382586, 0.09059207886457443, 0.06780322641134262, -0.021244633942842484, 0.02213410846889019, 0.01925177127122879, -0.02816375344991684, -0.036857523024082184, -0.06899908185005188, 0.03920695185661316, 0.012599324807524681, -0.06886982172727585, 0.053728263825178146, 0.024282969534397125, -0.019956931471824646, 0.03268247842788696, 0.03866216912865639, -0.07929150760173798, -0.0007475654711015522], [-0.04967488348484039, 0.06132630631327629, 0.09000115841627121, -0.0007662129355594516, 0.07757218182086945, 0.11795148253440857, 0.014478882774710655, 0.01853642426431179, -0.0014424807159230113, 0.09476779401302338, -0.001373155158944428, -0.10325565934181213, 0.13967084884643555, -0.059566933661699295, 0.014506408013403416, -0.06823255866765976, -0.25446081161499023, -0.06559198349714279, 0.002355624223127961, -0.08703037351369858, 0.08833692222833633, 0.0767592191696167, 0.001046108198352158, 0.16884522140026093, -0.011215101927518845, 0.017616862431168556, 0.07087168842554092, -0.17948883771896362, 0.12322358042001724, 0.07629258185625076, -0.015125853940844536, 0.1393938660621643, -0.07063605636358261, 0.03683549538254738, -0.03856785222887993, -0.041716814041137695, -0.08552342653274536, -0.02970941551029682, -0.020917223766446114, -0.10021841526031494, 0.023753277957439423, 0.0400465726852417, -0.01661069691181183, 0.07838167995214462, -0.042782992124557495, -0.07994217425584793, -0.018044330179691315, 0.05855806916952133, 0.030397318303585052, -0.05988483875989914, -0.05912665277719498, 0.0740838274359703, 0.040724657475948334, 0.0034992494620382786, -0.12040635943412781, 0.07214482128620148, 0.06485047936439514, 0.07151027768850327, 0.06770849972963333, -0.048311229795217514, -0.10711594671010971, 0.0966479703783989, -0.12703567743301392, 0.07703372836112976, 0.1035868301987648, 0.07519572973251343, 0.025342287495732307, 0.06735163182020187, 0.03114028461277485, -0.06077752262353897, 0.11279438436031342, 0.05444080010056496, 0.004489025101065636, -0.011488945223391056, 0.046293940395116806, 0.10096921026706696, -0.0569690465927124, 0.04221171513199806, 0.07901883870363235, -0.01724737510085106, -0.0873364806175232, 0.007082232739776373, -0.019654318690299988, -0.03887082636356354, 0.09661179780960083, 0.0016191165195778012, 0.06081797182559967, 0.04256819933652878, -0.002406427403911948, -0.010461973957717419, -0.06082373857498169, 0.12247323989868164, 0.11605342477560043, 0.06452840566635132, -0.1558312624692917, 0.045359767973423004, 0.12692207098007202, -0.025985216721892357, -0.028164003044366837, -0.05343320593237877, -0.022664889693260193, -0.03452616184949875, 0.03761427477002144, 0.020143937319517136, 0.02158035710453987, 0.04148150235414505, 0.034038715064525604, 0.03322235867381096, 0.1591123640537262, 0.05422034114599228, 0.09399639070034027, 0.010865296237170696, 0.06491406261920929, 0.020288294181227684, -0.0025177616626024246, -0.002659984165802598, -0.06316353380680084, -0.07061199098825455, 0.07198823988437653, 0.001841082819737494, -0.1075076013803482, 0.030704328790307045, 0.10906069725751877, 0.061525531113147736, 0.049519024789333344, 0.05113601312041283, -0.09159872680902481, -0.06512526422739029], [0.10425624996423721, -0.225297749042511, 0.1805032640695572, -0.33172500133514404, 0.09878365695476532, -0.1441286951303482, 0.11012726277112961, -0.19305311143398285, -0.06985611468553543, -0.0834035724401474, -0.13516543805599213, -0.03989453241229057, -0.06424878537654877, 0.07021044194698334, -0.11081892251968384, 0.06089721992611885, 0.09876616299152374, -0.08288519829511642, -0.1152084618806839, 0.15184831619262695, -0.03193434700369835, -0.06940369307994843, 0.028831858187913895, 0.06314580887556076, 0.08137679845094681, 0.10890068858861923, 0.10360293835401535, 0.030746152624487877, 0.0295955128967762, -0.0032355051953345537, -0.08148767054080963, 0.2766359746456146, -0.12267515063285828, -0.139764666557312, -0.05262746289372444, -0.11275135725736618, -0.1882818639278412, -0.03731173649430275, 0.029706833884119987, -0.06526335328817368, 0.036449991166591644, -0.035776570439338684, 0.03408394753932953, 0.136878103017807, -0.03941311687231064, -0.07770777493715286, -0.19504466652870178, -0.018896067515015602, 0.039678238332271576, -0.07722508162260056, 0.08731170743703842, -0.10617978870868683, -0.16151954233646393, -0.13274025917053223, 0.0660603940486908, -0.06694287806749344, -0.05703619122505188, -0.0224884245544672, 0.2499389946460724, 0.078155517578125, 0.21507121622562408, -0.10010034590959549, 0.016126051545143127, 0.09506789594888687, 0.011931180953979492, 0.1402156949043274, 0.1057826578617096, 0.027788633480668068, -0.2328091859817505, 0.1754225641489029, 0.02069338969886303, 0.08076724410057068, -0.019337182864546776, -0.1865067183971405, -0.061878155916929245, -0.035920847207307816, 0.12124888598918915, -0.2368210405111313, -0.07162937521934509, 0.0826120376586914, 0.041601236909627914, 0.018902147188782692, -0.054555002599954605, 0.05735395848751068, 0.04070867970585823, 0.15998291969299316, -0.16379502415657043, 0.07964982092380524, -0.13153229653835297, -0.029528189450502396, 0.12962175905704498, 0.036404799669981, -0.14790351688861847, -0.11236982047557831, -0.0973673164844513, -0.12393710017204285, -0.07142858952283859, 0.02067112922668457, 0.041459035128355026, -0.2515000104904175, 0.006178261246532202, -0.10127734392881393, -0.1242511197924614, 0.058539874851703644, -0.12949156761169434, -0.008130974136292934, 0.24728062748908997, 0.1272796094417572, 0.053068943321704865, -0.06922832131385803, -0.007696918677538633, -0.1195475235581398, 0.04188809543848038, 0.13496649265289307, -0.09432493150234222, 0.14864954352378845, 0.15340504050254822, 0.021603407338261604, 0.2521282434463501, 0.047103554010391235, 0.05962473899126053, 0.059828128665685654, -0.1280808448791504, 0.095545195043087, -0.02088966593146324, -0.10838203877210617, 0.07673973590135574, -0.16200295090675354], [0.2633468508720398, 0.29917508363723755, -0.02667330764234066, -0.09094741940498352, 0.33078235387802124, 0.041896551847457886, 0.844116747379303, 0.33734428882598877, 0.6724259257316589, 0.12526404857635498, -0.3038060963153839, -0.21394775807857513, -0.10494667291641235, -0.04016634821891785, 0.4384463429450989, -0.2240903079509735, 0.2607640027999878, -0.3901810348033905, 0.001009034225717187, -0.36735883355140686, 0.15268008410930634, 0.303623229265213, -0.027588235214352608, 0.04226648434996605, -0.01834498904645443, -0.011333707720041275, -0.08612937480211258, -0.276652067899704, -0.14402861893177032, 0.4235241711139679, 0.07694834470748901, 0.0010430131806060672, -0.6560575366020203, 0.43603670597076416, 0.04767030477523804, 0.07691243290901184, -0.17450758814811707, -0.4343283474445343, -0.1945182979106903, 0.2825169265270233, -0.1880159229040146, -0.011001038365066051, 0.098502017557621, 0.2506369948387146, 0.06015340983867645, -0.0714271143078804, 0.2145039290189743, -0.7623417377471924, -0.30055415630340576, -0.1837988793849945, 0.053836312144994736, -0.04049210995435715, 0.07551176100969315, 0.4629698395729065, 0.15313144028186798, 0.14243951439857483, -0.03130676597356796, -0.3911626636981964, 0.2701217234134674, -0.06378887593746185, 0.350384384393692, 0.2719697654247284, 0.3003769814968109, -0.02476721815764904, 0.47087544202804565, 0.05425306037068367, -0.32591524720191956, 0.17215676605701447, -0.49388551712036133, 0.14034968614578247, 0.12841054797172546, -0.006220703944563866, -0.40208378434181213, 0.26163873076438904, 0.07500547915697098, -0.22539927065372467, -0.004884218331426382, -0.06852242350578308, 0.10962092876434326, -0.04173320531845093, 0.11872141063213348, 0.21863903105258942, 0.025120429694652557, -0.045929357409477234, -0.15820439159870148, 0.00011594620445976034, 0.037144735455513, -0.10775399953126907, 0.09263104200363159, -0.41977155208587646, 0.01415844913572073, 0.08054716885089874, -0.4633936285972595, 0.18648388981819153, 0.06502152979373932, -0.020205067470669746, 0.43421047925949097, -0.1280616819858551, 0.15658257901668549, -0.024269774556159973, 0.19867576658725739, -0.08303674310445786, 0.3923279941082001, -0.0622391551733017, 0.06257738173007965, -0.04052332788705826, 0.20531637966632843, -0.16787099838256836, 0.28692737221717834, -2.1984076738590375e-05, 0.23508331179618835, -0.10779561847448349, 0.07742089778184891, -0.13968722522258759, 0.25419482588768005, 0.08334671705961227, -0.059418030083179474, 0.05378970876336098, -0.30572009086608887, -0.35066109895706177, 0.18201948702335358, -0.3442928194999695, 0.1669156402349472, -0.5651547312736511, 0.17077811062335968, 0.008024037815630436, -0.0838242918252945, 0.358927845954895], [-0.08158352971076965, 0.08016181737184525, 0.07272583991289139, -0.10041611641645432, 0.012201678939163685, -0.13582944869995117, 0.09806358814239502, 0.12362388521432877, 0.06909280270338058, 0.08224871009588242, 0.18480685353279114, 0.059479083865880966, -0.038483649492263794, -0.24413202702999115, 0.13005520403385162, 0.16941355168819427, 0.24635224044322968, -0.05622456595301628, -0.13683056831359863, -0.07271729409694672, 0.1168547198176384, -0.06015565246343613, 0.24077677726745605, 0.044488389045000076, -0.025922458618879318, 0.5236331224441528, 0.09105488657951355, 0.03135314956307411, 0.05829495191574097, -0.0477512925863266, 0.03842080011963844, -0.005630423780530691, 0.02940642647445202, -0.047713637351989746, 0.004840426612645388, 0.05557113140821457, -0.028963984921574593, 0.013995770364999771, -0.05647270753979683, 0.02056082710623741, 0.02378876879811287, -0.055101655423641205, 0.04816918447613716, -0.17552849650382996, 0.07345245033502579, -0.10379335284233093, -0.04247349873185158, 0.007503892295062542, -0.03298579156398773, -0.0033354118932038546, 0.1649196445941925, -0.04554806277155876, 0.03457691892981529, 0.005407257005572319, 0.04625728353857994, 0.15785065293312073, 0.11099479347467422, -0.0352637879550457, -0.0037938000168651342, -0.29193833470344543, -0.03320876508951187, 0.04371967539191246, 0.11546076834201813, 0.051724985241889954, 0.03181707113981247, 0.04305184260010719, 0.0008837447385303676, 0.23474732041358948, 0.0021322895772755146, 0.04404471442103386, 0.10672849416732788, 0.10936881601810455, -0.050651825964450836, 0.1852681189775467, 0.06840984523296356, 0.16433517634868622, -0.13186462223529816, -0.04484977200627327, 0.1424206644296646, 0.15910762548446655, -0.0758829191327095, -0.25405818223953247, -0.15646584331989288, -0.06657461076974869, 0.052169136703014374, 0.09461942315101624, 0.14078909158706665, 0.1730796843767166, 0.2602764666080475, 0.18520162999629974, -0.010534338653087616, -0.17494645714759827, 0.03636473789811134, -0.08188901841640472, -0.004944588057696819, -0.013536715880036354, -0.17265459895133972, 0.14104841649532318, 0.32096198201179504, -0.06950468569993973, -0.0947222113609314, -0.09674473106861115, 0.06785761564970016, 0.1338292360305786, 0.1279645413160324, 0.10351850837469101, -0.025319596752524376, 0.09643317013978958, -0.031851209700107574, -0.12640196084976196, 0.1153213232755661, -0.17011116445064545, 0.07405230402946472, -0.03842930495738983, -0.3848244845867157, -0.028721269220113754, 0.023135297000408173, 0.15144674479961395, 0.067532978951931, -0.06565123051404953, 0.19098716974258423, 0.020956289023160934, 0.0992821678519249, 0.15355491638183594, 0.2008369415998459, 0.009447888471186161, -0.1652871072292328, -0.002777596702799201], [-0.08380327373743057, -0.047061365097761154, -0.1279291808605194, -0.015084505081176758, 0.1468503475189209, 0.02013528160750866, 0.18943029642105103, -0.0031456807628273964, -0.06649629026651382, -0.1662573218345642, -0.06754559278488159, 0.23263539373874664, -0.06292282044887543, 0.19828221201896667, 0.42630535364151, 0.015765685588121414, 0.1064988300204277, -0.1603788286447525, -0.3286445140838623, 0.09614715725183487, -0.04997587576508522, -0.17441149055957794, 0.2449548989534378, -0.11865116655826569, -0.2636691927909851, 0.049626145511865616, -0.21584360301494598, -0.1611524522304535, -0.14930441975593567, -0.07798074930906296, -0.019224226474761963, -0.19222933053970337, -0.33422884345054626, 0.13570821285247803, 0.08968200534582138, -0.027747061103582382, -0.03151405602693558, 0.12929528951644897, -0.03855132684111595, -0.050956450402736664, -0.09764591604471207, 0.26030367612838745, 0.30804070830345154, 0.35436177253723145, -0.014315208420157433, -0.08195724338293076, 0.15215450525283813, 0.047230929136276245, 0.07573508471250534, 0.18753981590270996, 0.22981570661067963, 0.15721789002418518, -0.2202756702899933, -0.21483956277370453, -0.06679290533065796, -0.09957433491945267, -0.256491094827652, 0.06836597621440887, 0.08465321362018585, 0.0929795354604721, 0.1391313374042511, 0.1079278215765953, 0.06611919403076172, 0.2732348144054413, 0.1853594034910202, -0.04348362609744072, 0.30491241812705994, -0.1447249799966812, -0.06781826168298721, 0.1873297542333603, 0.39443179965019226, -0.09720756858587265, 0.1728038191795349, 0.2233096957206726, 0.15694184601306915, 0.05782805755734444, -0.12333538383245468, -0.03125188872218132, -0.020726382732391357, -0.10518603026866913, -0.06932703405618668, 0.29721933603286743, 0.13384196162223816, -0.026286670938134193, 0.04785330966114998, -0.05400669947266579, -0.09747161716222763, 0.23780938982963562, -0.14952963590621948, -0.06063517928123474, -0.09527292847633362, 0.23677076399326324, 0.07968815416097641, 0.09121526777744293, -0.13885155320167542, -0.07162699848413467, 0.14218053221702576, -0.13169942796230316, -0.30384236574172974, 0.2890467047691345, 0.07549800723791122, 0.15143311023712158, 0.32224106788635254, -0.06947049498558044, -0.20683982968330383, 0.05582675710320473, -0.07021088153123856, -0.0103377066552639, 0.14941859245300293, -0.2528105080127716, 0.03352653980255127, -0.00033233879366889596, -0.14294123649597168, -0.040136028081178665, 0.36718589067459106, 0.0023101763799786568, -0.1605738252401352, 0.24336805939674377, 0.2324647605419159, -0.22528858482837677, -0.06348877400159836, 0.052396345883607864, 0.12193230539560318, 0.19004522264003754, -0.2699353098869324, -0.06264905631542206, -0.13604649901390076, 0.23850935697555542], [0.04310573264956474, 0.3405584692955017, 0.282476007938385, 0.07271043956279755, -0.058336291462183, -0.2935212552547455, -0.18108303844928741, 0.22271186113357544, 0.2347937375307083, 0.08581361919641495, 0.07868213206529617, -0.0700884610414505, 0.23627424240112305, -0.09299497306346893, -0.19796347618103027, 0.023051803931593895, 0.00647777272388339, -0.24421513080596924, -0.045814577490091324, -0.038844406604766846, -0.03576717898249626, -0.0037352927029132843, -0.015715215355157852, 0.0860874131321907, 0.13581424951553345, 0.06750726699829102, 0.09144213795661926, 0.020519083365797997, -0.09466901421546936, 0.1670713573694229, -0.1355319768190384, -0.2834780812263489, -0.24578039348125458, -0.5909114480018616, 0.11209847033023834, 0.1250208020210266, 0.20433513820171356, -0.09803544729948044, 0.18393568694591522, -0.17852576076984406, -0.28476715087890625, -0.12894506752490997, 0.11213286221027374, 0.014275528490543365, -0.08368790149688721, -0.23108802735805511, -0.14028862118721008, -0.1448870450258255, 0.04737569019198418, -0.3078463673591614, -0.29275014996528625, -0.05543843284249306, -0.16125498712062836, -0.28618407249450684, 0.1397310048341751, -0.08445846289396286, 0.1418987363576889, 0.0038552917540073395, -0.1249503344297409, 0.11932124942541122, 0.01061756256967783, 0.0399923138320446, -0.4041593074798584, 0.029904017224907875, 0.43321818113327026, 0.11925791203975677, 0.41641637682914734, -0.10343757271766663, 0.31848999857902527, -0.19918984174728394, -0.24009017646312714, -0.05796399712562561, 0.01920555904507637, -0.02895837090909481, 0.056711770594120026, -0.07058844715356827, -0.053746066987514496, -0.09083665162324905, -0.32372960448265076, 0.3100237548351288, 0.14807121455669403, 0.262942910194397, 0.34576788544654846, 0.15608000755310059, 0.15065647661685944, 0.12223991751670837, -0.3834102153778076, 0.025354648008942604, 0.11151783168315887, 0.03906634449958801, 0.012349607422947884, -0.02133006975054741, -0.3053002655506134, 0.24455399811267853, 0.3391260504722595, -0.06561239808797836, -0.0015386971645057201, 0.015618767589330673, 0.23772311210632324, -0.3195466995239258, -0.29502227902412415, 0.19408152997493744, -0.013262111693620682, 0.2849198877811432, 0.32040056586265564, -0.018228679895401, 0.0367598831653595, 0.07520006597042084, 0.1028449684381485, 0.09174366295337677, 0.003863942576572299, 0.14882132411003113, 0.04751893877983093, 0.37904471158981323, -0.10040312260389328, -0.06424758583307266, -0.28693506121635437, 0.0038217930123209953, -0.15579472482204437, 0.008486599661409855, -0.20649537444114685, -0.12018023431301117, 0.14349593222141266, 0.08690592646598816, 0.003137366846203804, 0.7168267369270325, -0.021505942568182945, 0.071614570915699], [0.12760169804096222, 0.005446545779705048, -0.018383434042334557, 0.11544254422187805, -0.2817467451095581, 0.21038635075092316, -0.21951693296432495, 0.18366602063179016, -0.3152061998844147, -0.12244122475385666, 0.024293644353747368, -0.2952594459056854, 0.04978695511817932, -0.2948158085346222, 0.020096974447369576, -0.07449488341808319, 0.39792534708976746, -0.08960609883069992, 0.04676174744963646, -0.027116727083921432, 0.2436303198337555, 0.015759402886033058, -0.18826213479042053, 0.07170915603637695, -0.03277952969074249, 0.07613365352153778, 0.2684673070907593, 0.1016843393445015, 0.11652131378650665, 0.1075412780046463, 0.17548570036888123, -0.15990789234638214, -0.1318310797214508, 0.038745611906051636, 0.04016532748937607, -0.10179541260004044, -0.08998754620552063, 0.026933707296848297, 0.1022428572177887, -0.04753538966178894, 0.16348949074745178, -0.04247304052114487, -0.0051642367616295815, -0.13629332184791565, -0.002985623897984624, -0.17190800607204437, 0.3116748034954071, -0.014805499464273453, 0.06579483300447464, 0.054121021181344986, 0.07610851526260376, 0.02534891664981842, -0.013901748694479465, 0.14897717535495758, -0.15415197610855103, 0.09015610069036484, -0.014880946837365627, 0.012971640564501286, 0.08253009617328644, -0.031289197504520416, 0.06838031113147736, 0.044910259544849396, 0.060770612210035324, -0.0441480316221714, 0.0666649341583252, 0.025674480944871902, -0.0690515786409378, 0.013693079352378845, 0.023162037134170532, -0.07653385400772095, -0.029199054464697838, 0.22769920527935028, 0.08129726350307465, 0.3848053216934204, 0.15742044150829315, -0.04286249354481697, -0.08703171461820602, -0.07093513756990433, 0.1699911504983902, -0.14484509825706482, -0.11149784177541733, -0.014427301473915577, 0.20147214829921722, 0.06592129170894623, -0.05921598896384239, -0.13164398074150085, -0.12211322784423828, 0.15118730068206787, -0.020003892481327057, 0.2559415400028229, 0.17201471328735352, -0.03610597178339958, -0.031297970563173294, -0.3193167448043823, -0.032875120639801025, 0.11079470813274384, -0.24728518724441528, -0.2534846365451813, 0.04360201209783554, -0.12488706409931183, -0.0849638432264328, -0.048104315996170044, -0.007986349053680897, 0.1250200867652893, -0.25566521286964417, 0.062144771218299866, 0.004086820408701897, -0.20838068425655365, -0.1834850162267685, 0.02704751119017601, -0.07072440534830093, 0.29982125759124756, 0.07307951897382736, 0.1996995359659195, -0.030276361852884293, 0.13747991621494293, 0.019898759201169014, 0.07557066529989243, -0.021409885957837105, 0.006338718347251415, -0.1625647395849228, -0.06461123377084732, -0.29438915848731995, 0.05381274223327637, -0.16382499039173126, 0.17749373614788055, 0.22816051542758942, -0.027000105008482933], [0.1381564885377884, -0.033931855112314224, 0.3065248727798462, 0.12367885559797287, -0.25695985555648804, -0.4064565896987915, 0.020952025428414345, 0.06592465937137604, 0.24227707087993622, -0.36946171522140503, 0.03214038908481598, 0.060160551220178604, -0.062321197241544724, 0.10233812034130096, 0.23147398233413696, 0.505988597869873, -0.25250694155693054, -0.26307007670402527, -0.634976327419281, -0.16313102841377258, 0.2979431450366974, 0.1605079174041748, 0.5458776354789734, 0.09067394584417343, 0.024946918711066246, 0.02042272500693798, 0.07509210705757141, -0.37930813431739807, 0.11571981012821198, 0.03608762472867966, 0.19990146160125732, 0.027254415675997734, 0.04011949896812439, 0.2258635014295578, 0.3393307328224182, 0.07984248548746109, 0.08348105847835541, 0.06331176310777664, 0.29737386107444763, 0.5020017623901367, -0.24142691493034363, -0.0066527146846055984, 0.02820368856191635, -0.09299135953187943, 0.24346458911895752, -0.21980784833431244, -0.28840720653533936, -0.12941819429397583, 0.35216283798217773, 0.3307000994682312, -0.05684598162770271, 0.0326986201107502, 0.083043672144413, 0.2826555669307709, 0.1421741396188736, -0.13802382349967957, 0.21803314983844757, -0.4456401467323303, 0.2367962896823883, 0.305569589138031, -0.0882067009806633, 0.06635871529579163, -0.16812673211097717, -0.13534529507160187, -0.10228461027145386, 0.08320098370313644, 0.3422096073627472, -0.20637844502925873, -0.08163677901029587, 0.026049578562378883, -0.08919251710176468, 0.1415269821882248, -0.010284253396093845, 0.18238621950149536, 0.2462470531463623, -0.14145147800445557, -0.1701309233903885, -0.017642129212617874, 0.14997261762619019, -0.6318194270133972, 0.13773997128009796, -0.12219178676605225, -0.1163654550909996, 0.11353963613510132, 0.2598859369754791, 0.013366853818297386, 0.06588181853294373, 0.020589228719472885, -0.6450402736663818, -0.06251467764377594, 0.08565976470708847, -0.09906135499477386, 0.016129974275827408, 0.06141960248351097, 0.09413665533065796, -0.05189991369843483, -0.21188297867774963, -0.04042232036590576, 0.12627607583999634, 0.25042715668678284, 0.01688893511891365, 0.1586025357246399, 0.07602987438440323, 0.05609177052974701, 0.06014874950051308, -0.061583250761032104, 0.029640983790159225, 0.1819576919078827, -0.19936488568782806, 0.20315484702587128, -0.094582200050354, -0.029973838478326797, -0.20973259210586548, -0.17106515169143677, 0.22473101317882538, 0.18651284277439117, 0.21745766699314117, -0.08572033047676086, -0.06233179196715355, -0.1683228611946106, 0.11646953225135803, -0.24966944754123688, -0.13530276715755463, 0.35580384731292725, 0.21960408985614777, 0.017858868464827538, 0.2803841531276703, 0.04006335139274597], [0.06610236316919327, -0.034283559769392014, -0.0901419147849083, -0.002571348799392581, -0.11859288066625595, -0.05891864374279976, -0.06805738061666489, -0.09557368606328964, 0.04105253517627716, 0.023432623594999313, 0.00881336908787489, 0.008365028537809849, 0.07393047958612442, 0.06423911452293396, -0.0786767527461052, -0.07713987678289413, -0.07066277414560318, 0.17515243589878082, -0.2104249894618988, -0.05573440343141556, 0.04076706990599632, -0.0010477130999788642, -0.13440026342868805, 0.043632909655570984, 0.06059803068637848, -0.14755988121032715, -0.18381640315055847, 0.12450791150331497, 0.06058819964528084, 0.15731267631053925, -0.12615197896957397, -0.18993718922138214, 0.27465757727622986, 0.09295125305652618, 0.3365945518016815, 0.04136848822236061, -0.1547166407108307, 0.07026921212673187, -0.0986955389380455, -0.04217645153403282, 0.07946033775806427, 0.11369181424379349, -0.01098855584859848, -0.024398067966103554, -0.2003924548625946, 0.1001090258359909, -0.050176944583654404, 0.15066033601760864, -0.14246316254138947, 0.13452090322971344, 0.018902571871876717, 0.027238968759775162, 0.11717987805604935, -0.025224974378943443, 0.20983627438545227, -0.05120383948087692, -0.21035762131214142, -0.20847001671791077, -0.285938024520874, -0.01687721535563469, -0.11797907948493958, 0.12343008816242218, 0.25815698504447937, -0.05423837527632713, 0.005423687398433685, 0.01582530327141285, -0.10765992105007172, -0.16605287790298462, 0.06356465071439743, -0.16059745848178864, 0.03137765824794769, 0.07308251410722733, -0.3493786156177521, 0.1458805352449417, 0.06190653145313263, -0.26003676652908325, 0.1586136370897293, -0.17029345035552979, -0.06994722038507462, -0.022966008633375168, -0.11921366304159164, 0.1562155783176422, 0.1956685185432434, 0.05654849112033844, -0.09001431614160538, 0.025473201647400856, -0.3213054835796356, 0.016717884689569473, -0.2485525906085968, 0.16660618782043457, 0.1521003544330597, -0.4592353403568268, 0.1157701164484024, -0.1639057695865631, -0.007157782558351755, 0.08580848574638367, 0.12614166736602783, 0.10225795954465866, 0.10318239033222198, -0.0705493912100792, 0.09910700470209122, 0.035815585404634476, -0.14755143225193024, -0.041626472026109695, -0.007844456471502781, 0.058381587266922, -0.19702216982841492, 0.1086658388376236, -0.05260100215673447, -0.05133087560534477, -0.07594660669565201, 0.19117702543735504, -0.11634957045316696, 0.20256665349006653, -0.27209562063217163, 0.19346430897712708, 0.007820075377821922, -0.011759485118091106, 0.12676937878131866, 0.0828717052936554, 0.11850380897521973, -0.05366353318095207, 0.11473746597766876, -0.007207369897514582, 0.10063926130533218, -0.05758402869105339, -0.06674601137638092, 0.00609243381768465], [-0.004380821716040373, -0.14707805216312408, 0.16127640008926392, 0.20313185453414917, -0.13759489357471466, -0.06890571862459183, -0.1293371021747589, 0.38840627670288086, 0.036789920181035995, -0.08312320709228516, 0.1338924914598465, 0.07572874426841736, 0.2585453689098358, 0.1393505334854126, -0.03947918862104416, -0.21588753163814545, -0.34975939989089966, -0.19816496968269348, 0.07742414623498917, -0.12279791384935379, 0.1675999015569687, 0.17303873598575592, 0.09556847810745239, 0.13513028621673584, 0.08191340416669846, -0.28872671723365784, -0.10166364908218384, 0.2415000945329666, 0.06450257450342178, 0.30130377411842346, 0.1291639506816864, 0.052077896893024445, -0.24956457316875458, 0.35843944549560547, 0.20312342047691345, 0.15799421072006226, -0.0013452725252136588, -0.028614405542612076, 0.269121915102005, -0.18222501873970032, 0.01356788445264101, -0.07256145030260086, -0.10859488695859909, -0.21928507089614868, 0.16256222128868103, -0.2143821120262146, -0.0410415343940258, 0.027656175196170807, 0.1698390394449234, 0.0722149908542633, -0.27280503511428833, 0.01806643046438694, 0.18310017883777618, 0.09137832373380661, -0.6337564587593079, -0.32780444622039795, -0.21801845729351044, 0.05707664415240288, -0.146434485912323, -0.0022364268079400063, -0.04094517603516579, -0.029656602069735527, 0.2492005079984665, -0.24214735627174377, 0.01915646158158779, -0.10056360065937042, 0.07482746243476868, 0.1265055537223816, 0.09641940146684647, -0.3258850574493408, 0.07717905193567276, -0.19340397417545319, 0.11413248628377914, -0.15757690370082855, 0.2303823083639145, -0.21314874291419983, 0.43010061979293823, -0.10785200446844101, 0.4131600558757782, 0.2286478877067566, 0.1834690123796463, 0.24717819690704346, 0.17983371019363403, -0.10816589742898941, -0.023472797125577927, -0.08651765435934067, -0.12370850145816803, -0.3513645827770233, -0.04756052792072296, 0.2714102864265442, 0.05741812661290169, 0.05866877734661102, 0.23067069053649902, -0.13746778666973114, -0.030544331297278404, 0.2808143198490143, -0.25080814957618713, 0.03995666280388832, -0.09613027423620224, -0.41153642535209656, -0.059401512145996094, 0.12978151440620422, -0.10475101321935654, -0.10171858221292496, -0.11242292076349258, 0.1869775950908661, 0.32399794459342957, -0.1824958622455597, 0.4035162627696991, -0.08581726253032684, -0.09258182346820831, -0.1218210905790329, -0.012652077712118626, -0.32987263798713684, 0.31336814165115356, 0.037402939051389694, -0.26874101161956787, -0.17227497696876526, 0.03490307182073593, 0.17016373574733734, 0.0923643410205841, 0.4931472837924957, 0.28606116771698, 0.46840333938598633, -0.04728497937321663, -0.05065944790840149, 0.049231067299842834, 0.01085398904979229], [-0.018320584669709206, -0.003398896660655737, 0.08245998620986938, 0.023734968155622482, 0.07851050794124603, 0.017648540437221527, 0.05147182196378708, -0.027643589302897453, 0.12993164360523224, 0.11546601355075836, 0.053621359169483185, 0.004714400041848421, 0.07161451131105423, -0.09741035848855972, 0.05639107897877693, -0.029084397479891777, -0.14854493737220764, -0.07260395586490631, -0.034175775945186615, -0.09978114068508148, 0.0795007199048996, 0.05500622093677521, -0.018838563933968544, 0.14667315781116486, -0.010483345948159695, 0.07691675424575806, -0.012755433097481728, -0.05089562386274338, 0.0235156062990427, -0.04190020263195038, 0.10006766021251678, 0.08466855436563492, -0.0027468292973935604, 0.06310375034809113, -0.06988130509853363, -0.022616690024733543, -0.05581846460700035, -0.038837749511003494, 0.11402656883001328, -0.13522903621196747, 0.12485027313232422, -0.06969787925481796, -0.06185542047023773, 0.017972083762288094, 0.023174215108156204, -0.0715617835521698, -0.13836656510829926, 0.09153402596712112, 0.018366314470767975, -0.07065197825431824, 0.02021648921072483, -0.02356846258044243, 0.0635758638381958, -0.04654877632856369, -0.1272251456975937, 0.032396670430898666, 0.03061942383646965, -0.010087172500789165, 0.1361767053604126, -0.004020666237920523, -0.0754251480102539, -0.004081703256815672, 0.01132505014538765, 0.034408096224069595, -0.031164398416876793, -0.04807404801249504, 0.05310966819524765, 0.12213240563869476, 0.0943792462348938, -0.1475195586681366, 0.0787198469042778, 0.022550171241164207, 0.007522628642618656, -0.002033983590081334, 0.05536898970603943, 0.0442388579249382, -0.04168940335512161, 0.014770019799470901, 0.035769425332546234, -0.010203774087131023, -0.004730572458356619, -0.019207289442420006, 0.037731997668743134, -0.0009272231836803257, 0.0662989616394043, 0.05505400151014328, 0.10506172478199005, -0.08787370473146439, 0.09291005879640579, 0.039477795362472534, -0.004472808912396431, 0.04202653467655182, 0.04248352348804474, 0.0051414091140031815, -0.13102376461029053, 0.08248364180326462, 0.07069335132837296, -0.022567646577954292, 0.00976866576820612, -0.022702805697917938, -0.033073268830776215, -0.09083908051252365, 0.02311660349369049, -0.0458754301071167, 0.015209570527076721, -0.04299508035182953, -0.011653201654553413, 0.007958104833960533, 0.13860546052455902, -0.10836081206798553, 0.009070415049791336, 0.043144986033439636, -0.025104478001594543, 0.04370468854904175, -0.0023265269119292498, 0.017831070348620415, -0.022603806108236313, 0.010865142568945885, 0.006838234141469002, 0.031254395842552185, -0.06679963320493698, 0.08130861073732376, 0.09349995106458664, 0.015192478895187378, 0.03078029304742813, 0.05171724781394005, -0.05407021939754486, 0.0257872361689806], [0.038128018379211426, -0.06340160220861435, 0.15479497611522675, -0.21352577209472656, -0.21210971474647522, 0.01206604577600956, -0.10312273353338242, -0.031199535354971886, -0.10672665387392044, 0.09915585815906525, 0.20828291773796082, 0.16864760220050812, 0.31612372398376465, -0.19913966953754425, -0.40584272146224976, -0.029397394508123398, 0.32584911584854126, -0.0449029915034771, -0.24994732439517975, -0.11068485677242279, -0.2779122591018677, 0.045934535562992096, -0.027624234557151794, 0.23776984214782715, -0.03975359722971916, 0.267737478017807, -0.23057685792446136, 0.25109952688217163, 0.13161730766296387, -0.24371591210365295, -0.17497068643569946, 0.33723169565200806, -0.13004249334335327, -0.33480843901634216, -0.10392938554286957, -0.21779537200927734, -0.08893746137619019, -0.1679191291332245, -0.15779292583465576, 0.044803835451602936, 0.20564360916614532, -0.0793108120560646, -0.18159593641757965, 0.29854774475097656, 0.12541010975837708, 0.2708579897880554, 0.15245512127876282, -0.12154141813516617, -0.25235310196876526, 0.216691792011261, -0.017171936109662056, -0.00010951772856060416, -0.1477559506893158, -0.2838885188102722, 0.0271452609449625, -0.33444538712501526, -0.6511191129684448, -0.015363912098109722, 0.11215134710073471, -0.18696391582489014, 0.002304813591763377, -0.0420243963599205, 0.008390725590288639, 0.38245874643325806, -0.07122241705656052, 0.15350964665412903, -0.23702892661094666, -0.2704765796661377, 0.08696970343589783, -0.027912259101867676, 0.19181866943836212, -0.19712543487548828, 0.5228561162948608, -0.029576119035482407, -0.45211005210876465, -0.2296750545501709, 0.07745802402496338, 0.15638640522956848, 0.07410525530576706, 0.24505260586738586, -0.2533302903175354, 0.12089668214321136, 0.0896887555718422, -0.12521223723888397, -0.32493582367897034, -0.12720830738544464, -0.12514454126358032, 0.33442214131355286, 0.4418943226337433, 0.26515695452690125, -0.0077961767092347145, 0.29910165071487427, 0.15539196133613586, 0.023533493280410767, -0.04135280102491379, 0.13457313179969788, 0.03065616637468338, -0.07351019978523254, -0.029495088383555412, 0.21031241118907928, 0.2099945843219757, 0.20386146008968353, -0.23584546148777008, -0.039686400443315506, 0.20223185420036316, 0.28729915618896484, 0.3063546121120453, -0.07763363420963287, 0.10092033445835114, 0.08878257125616074, -0.17044486105442047, -0.007656923495233059, -0.22045516967773438, 0.14694517850875854, -0.19891004264354706, 0.03789291903376579, -0.02133289724588394, -0.12100227177143097, -0.05481944978237152, 0.10283438116312027, -0.05626029148697853, 0.5331514477729797, 0.04972868785262108, -0.2049417495727539, 0.19965043663978577, 0.04061645269393921, -0.32551661133766174, -0.09432297945022583], [0.09066034108400345, 0.0977119728922844, -0.05419813469052315, -0.0037582034710794687, -0.12009555846452713, -0.15077470242977142, -0.018045997247099876, 0.014151248149573803, -0.1170850321650505, -0.2507116496562958, -0.033234987407922745, -0.008323301561176777, 0.08802430331707001, 0.10709073394536972, -0.20406417548656464, 0.06082131713628769, 0.05141005665063858, -0.07435736060142517, -0.05664672702550888, 0.0051808468997478485, 0.11487626284360886, -0.008071471005678177, -0.17090114951133728, -0.03378763049840927, -0.11912328004837036, 0.13424335420131683, -0.19852586090564728, 0.1479746699333191, 0.04245428368449211, 0.004976243246346712, 0.005700960289686918, -0.0699566900730133, -0.11739024519920349, -0.0342777743935585, -0.21816474199295044, -0.03985929116606712, -0.07500942051410675, -0.01316926721483469, -0.1462872475385666, 0.15262101590633392, -0.08833175897598267, 0.014723792672157288, 0.0772065818309784, -0.009023133665323257, 0.06503625214099884, 0.15283629298210144, -0.029667925089597702, -0.025193748995661736, 0.008598756976425648, 0.003739745821803808, -0.031017297878861427, 0.08528298884630203, 0.0852426290512085, -0.0105736767873168, 0.04381313547492027, 0.2484532594680786, 0.032982852309942245, -0.13863907754421234, 0.008901821449398994, 0.13479642570018768, 0.11599455773830414, -0.0658750981092453, 0.06566459685564041, 0.0031559092458337545, -0.005204328801482916, 0.08977387845516205, -0.01059430930763483, 0.10841881483793259, 0.012635660357773304, 0.020625947043299675, -0.020363273099064827, -0.1125551164150238, -0.050931237637996674, -0.05801147595047951, 0.22600749135017395, -0.12006020545959473, 0.05511148273944855, 0.09191137552261353, 0.01686730794608593, 0.24203039705753326, -0.15155856311321259, -0.10463716834783554, 0.13727372884750366, 0.08513427525758743, -0.2458937019109726, -0.08484520763158798, 0.0192159041762352, 0.07103855162858963, -0.11352856457233429, -0.04034427925944328, -0.1511763632297516, 0.018774988129734993, 0.15387219190597534, -0.07792899012565613, 0.024434104561805725, -0.15979161858558655, -0.1501072645187378, -0.053266797214746475, 0.11230307817459106, -0.028569668531417847, -0.18100613355636597, 0.10717806220054626, -0.1749267429113388, 0.009239907376468182, -0.001858583535067737, -0.07798761129379272, 0.015051879920065403, -0.07434272766113281, 0.12295401841402054, 0.1092906966805458, -0.12125284224748611, -0.0862383246421814, 0.04145760461688042, -0.05501364916563034, 0.06341715902090073, 0.09837416559457779, -0.008611982688307762, -0.14936009049415588, 0.13497360050678253, 0.016708195209503174, 0.003988705109804869, 0.05248745530843735, -0.08319322764873505, -0.006872916128486395, -0.1162911206483841, -0.14778240025043488, 0.08347304165363312, 0.13093681633472443], [-0.4125383496284485, 0.15093262493610382, -0.04658202454447746, -0.33864808082580566, -0.1693728268146515, 0.2454758584499359, 0.07431671023368835, 0.10074814409017563, -0.06423193961381912, -0.09901605546474457, 0.10282254964113235, 0.022855659946799278, -0.12135536968708038, -0.14711499214172363, -0.17011505365371704, 0.08736018091440201, -0.06275249272584915, -0.18677964806556702, -0.07032203674316406, 0.20818552374839783, 0.1472083181142807, -0.017428094521164894, -0.05043262243270874, 0.2598251402378082, -0.1637103110551834, -0.22357788681983948, 0.0029932328034192324, 0.014741942286491394, 0.017365416511893272, 0.006741032935678959, 0.09234978258609772, 0.0863000750541687, 0.05838673561811447, 0.024587135761976242, 0.042531050741672516, 0.2067006677389145, 0.08078420907258987, -0.004389556124806404, -0.25026804208755493, 0.2725406885147095, 0.07420679926872253, 0.0055047376081347466, -0.04610185697674751, 0.12072136253118515, 0.1098288968205452, 0.01945730485022068, -0.09137500077486038, -0.3393830358982086, 0.12363144010305405, 0.06572320312261581, 0.05265435576438904, -0.022321118041872978, -0.004939166363328695, -0.08566945791244507, 0.06007114425301552, 0.021437065675854683, -0.13046082854270935, 0.03274688869714737, -0.126770481467247, 0.30249378085136414, -0.01599692553281784, -0.09645175188779831, 0.23869240283966064, -0.031406138092279434, -0.22195085883140564, -0.05975579842925072, 0.2525664269924164, -0.008740446530282497, 0.0906866043806076, -0.040567535907030106, -0.15824344754219055, 0.0772731751203537, -0.03369602933526039, 0.07388724386692047, -0.18814866244792938, -0.14042121171951294, -0.10537073016166687, -0.08890572190284729, -0.06255563348531723, 0.11147987842559814, -0.05707813799381256, 0.03919629380106926, 0.2552940547466278, -0.1544526368379593, 0.10988733917474747, 0.11809854954481125, -0.08055097609758377, -0.04807901009917259, 0.14390955865383148, -0.2320460081100464, 0.042943913489580154, -0.5206074714660645, 0.07144663482904434, 0.11810661852359772, 0.011756855994462967, -0.1997641921043396, -0.1277819573879242, 0.04411822929978371, -0.12591344118118286, 0.18594786524772644, 0.18693800270557404, -0.1334797590970993, -0.11898573487997055, -0.11060962080955505, 0.05506259202957153, 0.05839293822646141, 0.24633091688156128, 0.12288571149110794, 0.09485248476266861, -0.25583788752555847, 0.170052632689476, -0.031533870846033096, 0.09574219584465027, 0.2462872862815857, 0.013256693258881569, -0.02803175523877144, 0.12486633658409119, -0.04048430174589157, 0.15670786798000336, -0.062036290764808655, -0.17237107455730438, 0.25861406326293945, -0.050962891429662704, 0.04465283453464508, -0.0006416303804144263, -0.014109021984040737, -0.0186403039842844, 0.27465900778770447], [0.11988536268472672, -0.13066257536411285, -0.0704447329044342, 0.09088582545518875, -0.01405108068138361, 0.2589040696620941, -0.1563190519809723, -0.10074092447757721, 0.009017901495099068, -0.11147520691156387, 0.03206731379032135, 0.13614697754383087, 0.04494224861264229, -0.25334176421165466, 0.37924686074256897, -0.3562934994697571, -0.030832979828119278, 0.04870304465293884, -0.27576979994773865, -0.005347786471247673, -0.10679665207862854, 0.05792337283492088, -0.08614933490753174, -0.07206687331199646, 0.039362963289022446, 0.05702061206102371, 0.21602757275104523, 0.042124781757593155, 0.053887657821178436, 0.08378808945417404, -0.09209655970335007, -0.16405802965164185, -0.0001793864503270015, -0.07453756779432297, -0.00014511897461488843, -0.13856913149356842, -0.0018628978868946433, -0.07908552139997482, -0.06716283410787582, 0.00926680862903595, 0.14118850231170654, -0.08141780644655228, -0.028686493635177612, 0.10151788592338562, 0.2043987512588501, 0.2643672525882721, 0.10654092580080032, 0.07030460983514786, 0.1445302963256836, -0.003419792978093028, -0.039438869804143906, 0.08863509446382523, 0.012185841798782349, -0.07549286633729935, 0.020016564056277275, 0.08076880872249603, -0.2680610418319702, -0.12769463658332825, 0.14450855553150177, 0.27394118905067444, -0.05615631490945816, -0.0368947796523571, -0.0013195251813158393, -0.012079544365406036, -0.0350232794880867, 0.030095821246504784, 0.319373220205307, -0.08044761419296265, -0.08258974552154541, 0.023952500894665718, -0.08351393789052963, -0.35870495438575745, 0.016163533553481102, -0.03936411067843437, -0.0564151331782341, 0.05297619104385376, 0.08764033019542694, 0.09711612015962601, 0.19814926385879517, 0.30529916286468506, 0.01692313887178898, 0.04995124787092209, 0.06046195328235626, 0.08743461221456528, 0.19180059432983398, 0.044688377529382706, 0.18459907174110413, 0.19722582399845123, 0.14589284360408783, -0.014295016415417194, 0.04144800081849098, -0.37798741459846497, -0.047075528651475906, -0.10472692549228668, -0.021371452137827873, 0.025142347440123558, 0.3251934051513672, 0.08138010650873184, -0.08124247938394547, -0.029231110587716103, 0.08596252650022507, -0.17111921310424805, -0.09049137681722641, 0.020029217004776, -0.046813663095235825, -0.06484062224626541, -0.07215353101491928, -0.0921197310090065, 0.12131237238645554, 0.06445742398500443, 0.27979162335395813, 0.03251926228404045, 0.0763750970363617, 0.05086880549788475, 0.04628270864486694, -0.0964413732290268, 0.18833453953266144, -0.10095483064651489, 0.31199488043785095, 0.16054435074329376, 0.16545332968235016, -0.08397854119539261, 0.07845572382211685, 0.054060619324445724, 0.11809322237968445, 0.1502024233341217, 0.10008788853883743, 0.18243712186813354], [0.12359181046485901, 0.15462076663970947, 0.5064545273780823, 0.23718413710594177, -0.028111252933740616, -0.4042527675628662, 0.316972017288208, -0.18018683791160583, -0.04593851417303085, -0.13777413964271545, -0.24001790583133698, 0.9795852303504944, 0.27670857310295105, -0.2121008038520813, -0.01596764288842678, -0.011458208784461021, -0.15021222829818726, 0.2877722978591919, 0.036048535257577896, -0.266937255859375, -0.22206170856952667, -0.1907903403043747, 0.05821290984749794, 0.15676367282867432, 0.12578849494457245, 0.02317066863179207, 0.28811585903167725, -0.20091630518436432, 0.0907609835267067, -0.0586068257689476, 0.4550228416919708, 0.04132457077503204, -0.20688599348068237, -0.0032959203235805035, -0.2365032583475113, -0.08427204191684723, 